-2.231294585986758061e-01,7.355378554270884661e-02,1.747748796936595128e-01,7.145280741128971769e-02,3.387737998922625560e-02,1.199036444854199995e-01,1.072546459357589799e-01,1.865044942339714670e-02,1.310535727048171284e-01,9.832633695092338200e-02,8.630554870836963655e-02,1.516807089762947092e-01,1.482406901008523348e-01,2.470507517769275629e-01,2.477929291733214912e-01,1.259136189252226534e-01,2.212749274692513979e-01,-6.834823207237333484e-03,-1.552498019311459310e-01,-5.990326515032076693e-03,1.373911976229742760e-01,1.208633856304876103e-01,1.275415553509912370e-01,3.013665857617831567e-01,-4.115632357930872065e-02,-3.537795547089341019e-02,1.922587830044512414e-03,3.496313238596223533e-02,1.608955434177228860e-01,-1.115644834659574036e-01,-1.788796768538942206e-01,2.787253308713598665e-01,3.487396705577450740e-01,2.857471842989936506e-01,3.112854411305490121e-01,2.107200145151906234e-01,2.666119699224707151e-01,3.054224503334567742e-01,9.634252583210387022e-02,5.419584424210310836e-02,1.138433649376565104e-01,4.819150305039116566e-01,-1.976328147330825083e-02,2.301697291498134568e-01,2.052673775374650456e-01,1.994634439211573351e-01,-1.561440286100837238e-01,1.542370399921578761e-01,2.054585306711519954e-01,1.070454632749119755e-01,7.137241902339179767e-01,4.670576142474866188e+00,1.590127697657548467e+00,5.503229511732805612e-01,1.074377878674736442e+00,1.838513853795027131e-01,2.671830929816773961e-03,3.353179075859136216e-02,2.543709971125152625e-01,1.664577631751361364e-01,1.302523424134719998e-01,1.924596205324692957e-02,6.147622527364501183e-02,1.027401906909466978e-01,-4.192754613964116278e-02,9.908177220957432862e-02,4.732229939692048255e-03,6.002045836531842010e-02,6.637438356984561028e-02,1.193547577652818714e-01,1.960987179544593506e-01,1.448148910615612572e-01,3.101969520848416387e-02,3.991714926472855057e-02,8.930460040272203415e-03,1.274388555607658680e-01,1.270120360619969024e-01,3.540772834505026036e-03,-7.094760806556069110e-02,-4.032871723111412787e-02,1.115261214195081146e-01,-7.246047391448928732e-02,4.461175948496389626e-02,-5.601508882181825688e-03,7.845946065383087309e-02,5.849739552724004393e-02,-1.049351725174261889e-02,5.498388557857392112e-02,8.186553727897442900e-02,-2.462916940969461094e-02,4.594432175283576225e-02,1.728842676906220677e-01,8.698612090025840959e-02,1.842477830803342376e-01,2.827626625088088680e-02,2.054136550323465427e-01,1.024914801062562358e-01,1.963916422551139490e-02,-2.355595918210089124e-02,1.651435824653408602e-01,4.938594854413651258e-02,3.235264035089867318e-02,1.247668031922897214e-01,-1.274284219813859483e-02,-6.583559288545952348e-02,3.834540448326564238e-02,7.826704267850900787e-02,1.032867816258011273e-01,7.367644045177372536e-02,1.372998832262877500e-01,3.492419932194353732e-02,-3.415803905339471341e-02,6.481130746034444168e-02,2.913630143681624710e-03,6.996248043755644297e-02,1.504262892245696037e-01,1.895930441977725783e-02,1.051125955158954128e-01,9.024346044892161967e-02,1.051877175034203332e-01,6.888895170233810816e-02,7.320376339196811577e-02,6.685780593933250693e-02,1.216438902478306355e-01,6.643999947532445993e-02,9.177872683654829389e-02,1.485354235313286753e-01,1.207306494473085051e-01,1.076728337375896932e-01,1.672737872679557203e-01,1.854754956237774643e-01,3.288525250447774800e-02,-2.927400783998433589e-04,-1.200675656667985099e-02,9.888985050263118803e-02,-7.719239706680267044e-02,2.177103857127294512e-02,3.716932319639927595e-02,7.381667814750327017e-02,-5.202136933614974479e-02,1.541139142232753056e-02,1.613674044714059896e-02,-1.228734997771836236e-02,8.055860472207267142e-02,1.243497032568773378e-02,-1.619052850454824888e-01,-1.581714997046251023e-03,2.559528950375027923e-01,3.204243604002487422e-01,-4.175557878444044468e-02,-1.395873536322720654e-01,-1.461028013985512380e-02,3.878104152491050893e-01,2.713678750571139608e-01,3.998594154622658881e-02,3.203442723681708126e-01,-1.655666492335196305e-02,1.548306916446607999e-02,-1.445351919399374095e-02,8.541334331189116835e-02,3.051667952026039521e-02,4.200338451027993414e-02,1.503749318916995092e-01,1.136919872855955832e-01,2.409229903574225395e-02,1.739215129386117997e-01,-1.392508784698788527e-02,1.251790848344656870e-01,7.345160296699664304e-01,3.046371785917936226e+00,6.048803424879726220e-01,1.770951409792731746e-01,3.261607402960341878e-02,-2.531339843963891639e-02,6.259361800935832332e-02,1.289417936611263887e-02,3.165289303694545503e-02,2.110340928490115897e-01,7.294588555308803568e-02,1.070055948699886739e-01,1.603198561908743547e-01,7.589782711902307022e-02,6.491651830547673363e-01,8.708839859586388066e-01,4.974614182939018914e-01,7.180457644386213645e-02,2.216610464487802079e-01,9.621982403958531105e-01,-9.447350680307253779e-01,1.056202341401497359e-02
-2.469529520332410522e-01,-7.154909328197255058e-02,1.363795879266037625e-01,1.650979780236561459e-02,-1.004601090565791499e-01,-1.027188300000430737e-01,-8.597843766001384697e-03,1.139305896602815782e-01,2.036532699581088679e-01,-5.459578351756078085e-02,2.060806105967146751e-01,5.543327134930922662e-02,1.425045772011689360e-01,1.163051193290909752e-01,2.434714764410941812e-01,2.513036081422865831e-01,2.241649584041379428e-01,1.415362059679147189e-01,-7.196327919400742623e-02,-2.092576968574321461e-01,6.270828249606472116e-02,6.017047176628997907e-02,1.282212939962256160e-01,6.022344483915280378e-02,5.426092270921619581e-02,5.542772113175880450e-02,2.480617202270929064e-02,1.823913276652647519e-01,1.749272757346968452e-02,-5.580716954136714621e-04,1.097130598409628011e-01,4.480280983634048197e-02,2.620924413312353818e-01,5.677730777662530481e-02,1.552451576023498037e-01,1.531152553664075766e-01,3.434131534127286001e-01,2.421262127281643417e-01,5.342058395370670454e-03,7.761686277406427970e-02,-8.226881293405315099e-02,2.907890148826903221e-01,-2.748377649516593746e-02,1.239912768413324179e-01,1.038634208510124252e-01,1.732759163334473829e-01,1.620025791845853755e-02,1.207015422652159831e-01,1.160135709915438018e-01,2.860264451973432154e-01,4.956538812619892820e-01,2.578275074649528431e+00,4.595592517227561125e+00,6.928967832470463994e-01,6.975663154794125020e-01,-2.260673439396086379e-02,-1.126772389024160853e-01,-4.135050508565732419e-02,1.169034067581650460e-01,2.337686853990261215e-01,2.260671050932141490e-01,2.074367174743577125e-02,1.064397366760421737e-01,6.887076473733814985e-02,-2.894301580809349045e-02,2.544185328971162452e-01,-2.735017921305764321e-02,1.151523943212887646e-01,5.039661124007133869e-02,1.711233962923465746e-01,1.483293587016731863e-01,1.041698077205391176e-01,2.005664311069893513e-01,-1.806320267313921493e-02,-2.275024126477418959e-02,4.942343191905632094e-02,5.115615956188205443e-02,6.645949269545962934e-02,-7.912112572411088285e-02,1.777810684027942428e-02,1.872690423509210111e-01,-2.439109668688913338e-02,1.115780095491489821e-01,8.164673132417533952e-02,7.618362395711059110e-02,5.136878417380760092e-02,-5.423872182637772682e-02,8.797267719996935964e-02,1.149321041271027591e-02,7.792403496603006463e-02,2.229331979046290588e-02,2.046236015267996755e-01,-1.031479436066700395e-01,9.002990990321731168e-02,-6.282699161428734191e-02,1.650038972824926231e-01,6.273280856118224058e-03,1.701799348483933050e-02,-3.971736064291388202e-02,1.272709949836327292e-01,-1.190405450457159842e-01,3.404401479521166479e-02,3.913000817172670315e-02,-1.113003629179708520e-01,1.239665407712902817e-01,8.057939918038785343e-02,9.282994590578361183e-02,4.787439203540987814e-02,-1.373335565605637854e-01,1.300880007027850893e-01,1.500415537494836637e-01,2.036699139742802894e-02,1.332030590349546351e-01,-1.417884479330621672e-01,6.790738477806024069e-03,1.472879997076052827e-01,-1.125112088436683172e-01,8.427133168109246508e-02,7.409634310055802919e-02,-1.896325292441626911e-02,-7.298128190756265898e-02,1.743028866963221568e-01,1.488660992656739013e-01,2.937502764811350357e-04,1.121345580791198726e-01,9.877748346520270895e-02,1.475104465740590121e-01,5.489168172137088436e-02,-2.436188044107607392e-02,1.221533949737858560e-01,1.136856120930811870e-01,-2.431855710985931368e-02,2.145153993402279177e-02,-1.654434842237222369e-01,2.591836796729355546e-02,3.011049321321891681e-02,6.988937729106395325e-02,5.581499721216873905e-02,-2.970553721906105116e-02,-6.152870667081409423e-02,1.030375149458712530e-01,9.094790334541839882e-02,2.061138497541812817e-02,1.117337573933985528e-01,5.186362112448432427e-02,2.145775577251173294e-01,3.367304571485001813e-02,1.536420833963847710e-01,1.899662049039581857e-01,-7.589517960199411439e-02,-2.093369178290548083e-01,-1.400290522601273790e-01,1.853210897648970013e-01,1.052993185528230402e-01,1.090818505509535408e-01,2.239369193963208216e-01,7.852662880764682551e-02,8.949962624223076202e-02,1.847276629400182724e-01,7.441617132398377354e-02,9.722725367914003547e-02,1.285320161737488198e-01,3.396323173692621100e-02,8.736493972540490538e-02,6.570416733313862168e-02,4.920650449712975216e-02,8.327052236980114069e-03,4.352952974804123742e-02,5.271620429055446921e-01,2.442365015793996896e+00,3.092106344748002833e+00,5.592871149428636501e-01,2.672412525377768425e-02,-4.496408152032108779e-02,-1.823644694509108932e-01,-4.754831525465370856e-02,-4.867939573167182066e-02,1.916288572899604303e-01,2.094475113818382861e-01,2.184041864732626237e-02,5.839756895540802739e-02,6.933943300561884980e-05,4.207813324936019450e-01,5.900265560570886469e-01,2.823156927386565873e-01,-1.375993028574316601e-01,1.436891946220127947e-01,4.438413308703651472e-01,-2.907962363000051731e-01,-3.785248923839727719e-02
-6.650303529668485925e-02,-7.185655575433745786e-03,9.832478472291894533e-02,2.466837016049959128e-02,8.640373530958722625e-02,-4.680654198216144257e-02,1.437873329820528456e-01,5.395377816224902062e-02,-5.003405555773316610e-02,-1.403895246050062932e-02,6.703265347641135241e-02,-2.560141317186111903e-02,1.437916077586077201e-01,-5.256668902023874101e-02,3.703829251139961060e-02,6.692769732889598810e-02,5.371060425758140966e-02,6.269252521073989670e-02,-8.398692164611751276e-02,-9.507473943388625170e-02,1.182122631632310239e-01,9.429105224572770227e-02,1.442147482799582547e-01,1.614514207716395422e-01,-9.419420986125102979e-03,1.011934312086725518e-01,4.607959309105067597e-02,4.345661622986564908e-03,-9.121333746685562904e-02,-6.520781905550673829e-02,2.223338872947563938e-02,-1.936748403573333166e-01,1.081645248955354771e-01,-1.761540997802769903e-02,3.049753734054293230e-02,-6.529597849908695337e-03,-1.035271786342760805e-02,-1.034165281663660535e-01,-1.791176574678481348e-01,-3.089477007826642307e-03,-4.099892097866420643e-02,-1.118590798708559153e-01,-3.917899497494946315e-02,-4.944034745320431169e-03,-3.508477305745241054e-02,-2.291632702761395995e-02,-1.767230338595516259e-01,-8.314496462651639608e-02,1.052254872552773057e-01,-1.448511818649889926e-01,1.019941562741176130e-02,1.078970505094719146e+00,1.034157362002197517e-01,2.525773944946904770e+00,-8.601051620939571818e-02,5.787061934123498286e-02,-1.095828945801523013e-01,1.364251234541450919e-01,-2.549300676482442463e-02,-2.264393231909386101e-02,4.058108709890491383e-02,-7.277263557874155686e-02,-9.008521200268732043e-02,4.693468484274856967e-02,1.064335223192819091e-01,6.659161795640761161e-02,-3.807955961957706914e-02,-8.360817302500422876e-02,-2.285912828173387590e-01,3.082601185954477602e-02,6.954265975999615601e-02,-7.234999758809514125e-02,2.095693829659569796e-01,1.328033507696786963e-01,-2.762535184744889169e-02,6.169849685667174594e-02,5.939929394065576046e-02,8.282628783447996967e-02,9.559200550045000855e-02,2.103345908109598150e-02,1.715043707325489830e-01,1.247582409056767344e-01,-2.442188042079398644e-02,6.442857839843176004e-02,1.108272355844822227e-01,-1.685253950687308835e-02,7.122969617624766436e-02,2.449258984263042588e-02,2.088772577919277909e-02,-5.422449180083143555e-02,-1.300219257283155572e-01,3.694935774628207992e-02,8.724703908748422665e-02,-2.903155627849285034e-02,-1.525496404026083219e-02,4.100065386526052791e-02,-8.939588271944606812e-02,8.827402534092256350e-03,4.195160327768657216e-02,8.482601699549527363e-02,-5.337481531222513717e-03,5.805595579643678394e-02,1.924517625927988501e-02,-7.701450140398345690e-02,-1.363943247383821167e-01,-6.438059550584174229e-02,2.440728820233239657e-02,-1.705112803103217001e-01,-3.647910745054004644e-02,2.693035571951393065e-02,3.662371078310393963e-02,-4.985664003943367922e-02,3.447587700610421635e-02,3.022168144376893503e-02,7.786132707532161194e-04,-2.627680841477336780e-04,4.138385052293223898e-02,1.608505278220711265e-01,-4.956953588657402043e-02,2.671774122263785231e-02,3.642702901470618732e-02,-5.816729086332768361e-02,7.278391488693494726e-02,5.365661659642240872e-02,6.793607037817556149e-02,1.163820462141738482e-01,2.286608911476849942e-02,9.897623035946545578e-02,-7.762277493216972191e-02,6.584016051457279584e-02,3.872552393362308637e-02,-1.951207347271717574e-02,6.138950111774555546e-02,-6.024976333639056950e-03,-7.418651840402903930e-02,1.877847510032579085e-03,-1.838227329196883905e-02,3.713878156931477853e-02,3.870832092917320805e-02,-1.052259098450424035e-01,2.268433923525385587e-01,2.951615353001609682e-02,-1.128730685641220616e-01,4.670577049168353478e-02,1.009240700676839048e-01,4.300138006973120569e-02,-7.203349755298321666e-03,1.149958572461897144e-01,3.689531584404146837e-03,-8.077604400150995012e-02,-3.832990894507056628e-03,-4.231792242268939130e-03,7.966506137446539848e-02,5.606648770608403144e-03,8.848537416945859158e-02,1.242238940716598877e-01,-2.705568145253626176e-03,-1.708431378643895590e-02,5.447439349383492724e-02,3.544946515117283758e-02,-1.056143585396484563e-01,-7.569387136064387178e-02,-6.436280075379849364e-02,4.244984955903216561e-02,4.812867536067336888e-02,3.955609499545321289e-02,7.461165790598384140e-02,9.650959367348745099e-02,3.066472632471740067e-01,1.095978905230289735e+00,8.653649720856622096e-01,1.862242933762076946e+00,-1.393851258021646354e-02,-5.743960979765105196e-02,-3.034905375698394164e-02,-1.911165069784639611e-02,-2.272878131184838044e-02,7.082914048224805970e-02,7.436385166900402743e-02,-1.135857773765896854e-02,4.774337812619636884e-02,-4.841854344099448190e-03,1.438519455210433319e-02,1.868246264968118908e-01,1.164005063228465836e-01,1.603767416158423664e-01,1.915225194567425279e-02,2.732510765090655491e-01,-1.904222747179452890e-01,6.268848417880250323e-02
4.170501420389646774e-02,1.319795700027380329e-02,3.438201326104613209e-02,4.243944224604202786e-02,3.134049656574630638e-02,-1.563557451563726830e-02,1.144004491390097356e-01,1.576625768914387271e-02,-2.427260933478087718e-02,3.839420175432103899e-02,-3.814964586541954444e-02,6.496817195862664152e-02,3.811225867094625991e-02,-6.050571456196327663e-02,3.767445165002297758e-02,-4.432383542683560225e-03,7.207996716195834430e-02,2.708377411817639024e-02,-6.318830682818107891e-02,-5.095043271738972958e-03,8.892872179879758587e-02,4.906038561398939207e-02,-1.880710451637880587e-02,9.050569734932768784e-02,-3.019489352946672783e-02,4.418429804835354718e-02,-1.442501736915297733e-02,5.422247885969627701e-02,-4.042978786763914978e-02,2.695643538626382035e-02,5.205767574575101420e-02,6.052930359079982531e-02,6.279848009638876183e-02,3.842388940209717774e-02,4.311401299523527630e-02,9.395925486008614713e-02,1.051157851180769820e-01,9.171099669337566540e-02,5.202253512720889095e-02,-3.723975729975074339e-03,3.571132420595004436e-03,6.624338980635413598e-02,-3.550009325900553570e-02,1.655499604813373826e-01,-3.432510570864518579e-03,2.215633136089775398e-02,-1.597296652052583588e-01,3.912507449559514405e-02,3.659431992980941711e-02,2.090252980948431941e-02,1.753516196704652530e-01,9.205652357912695871e-01,2.159496124380906046e-01,1.575525890558393538e-01,2.060602072756193837e-01,9.460554745052970893e-02,-3.416396397795137124e-02,-3.028187771554158650e-02,4.986195730201088000e-02,1.858743861192747523e-02,2.677684637773184925e-02,4.866366767254157871e-02,-5.563687782313659486e-03,2.969245350687004653e-02,-1.254493439246311993e-02,-2.782138912549230944e-02,-2.944518459756813311e-02,5.455791548795824869e-02,-3.847015649328971304e-02,6.989101032622198340e-02,6.800556537078432384e-02,6.283210786047453700e-02,3.557723295956526088e-02,6.840058207946923124e-04,-2.150996305119185631e-02,1.806873338260455569e-02,3.384400629393493481e-02,-2.551248534500896118e-03,4.125012238168224848e-02,-6.998525134898016167e-04,1.091171622051352041e-01,1.013658461336827687e-02,7.189924173927654538e-02,-1.154528671367784087e-02,6.403056154353302387e-02,-1.562789646235389004e-02,2.805876578650935704e-02,3.186694328877161947e-02,6.618454581060691233e-02,-1.174041281843396164e-02,5.063440013574498771e-02,-1.007381422571801063e-02,9.691661540614612824e-03,6.485963143287422350e-02,-2.420005831578677519e-02,-1.398485768561555202e-03,-3.136534302401816111e-03,4.807462200040325123e-02,6.372657513709112376e-02,1.031816694488491698e-01,5.698460817743655760e-02,6.867567244635902624e-02,7.685893984353631136e-02,-4.558289098989020197e-03,-6.869596058469758237e-02,6.692534610608072421e-02,5.044145481184465762e-02,-3.457095897174195659e-02,-4.306327958307817200e-02,3.220843947136123320e-02,1.642624305623565512e-02,-1.997325529277227743e-02,-1.474247407277112093e-02,2.891054120036947936e-02,4.665100827076529982e-02,-2.626435849894661126e-02,4.518825916929267855e-02,-1.125510512196370785e-02,-5.108294840475465642e-02,6.712975386625055774e-02,5.579369573493826728e-02,-4.291535392779807778e-02,1.098220504325052166e-01,-8.241581565477787419e-03,3.536573078450159363e-02,1.462823627966154845e-02,2.318457918836245440e-02,2.406705442539106704e-02,-3.833730434758795408e-02,-7.099061708439263242e-03,8.715781963533594801e-02,-1.282697483497986790e-02,-6.365421090038310414e-02,1.161063243093801711e-02,-3.516892305876020280e-02,-1.016507387236456755e-01,-6.279624809962108811e-02,-2.414029556019459816e-02,4.322458491347037912e-02,2.490883671411893690e-03,1.086358406719298009e-01,-2.527313871589444497e-02,-4.984246940633281497e-02,3.082370011389626990e-02,1.134816129768507487e-01,-8.410541648499497702e-02,1.416452306087159774e-02,9.008489255570927001e-02,3.422329524669701778e-02,8.388912025856693627e-03,-2.061177070700023761e-02,-6.810212578656568705e-02,8.463435371479824387e-02,1.530890315458570128e-01,3.609452668708985901e-02,4.397632010643739292e-02,1.306630473864339205e-02,-7.183093669657999829e-03,-1.425415149504053458e-01,-5.577500502804627613e-02,-7.823788283989277503e-02,-2.765611288746466691e-03,5.274295959718577897e-02,7.116773401413474531e-02,1.819628529025730038e-02,8.319542058718988609e-02,-4.287636882588569814e-02,7.036911296349461498e-02,2.318282461273593609e-01,7.661608231588042939e-01,4.381596840800587589e-02,7.271359540765719165e-02,6.243912235592847387e-02,6.587570088973972345e-03,1.238163799216237225e-02,-6.121694924449450070e-02,-1.221136371964015761e-02,-2.631628019537809657e-02,-7.278203284779223223e-03,3.293636645925844542e-02,-2.364505349431869977e-02,3.464358039286322827e-02,2.490208575486721476e-01,2.512833244404732436e-01,2.021301805622161551e-01,2.886847840675068819e-02,7.449918508691472097e-02,3.411702112059654679e-01,-7.891793379969710420e-01,2.821007899701410623e-02
-7.507058758563035783e-02,3.736289264194477683e-02,3.084457383598874364e-02,3.546179616866527995e-02,3.870816610308758232e-02,4.164810125646864480e-02,-1.121177474027659771e-02,-5.126268789979310236e-02,-1.282069548004003377e-02,-1.624305438772167751e-02,4.712723617440783136e-02,2.730750439273092051e-02,2.544156003493693724e-02,7.356881411236212975e-02,-1.287206773067242349e-01,5.275200212251290400e-04,6.839779997135225775e-03,4.913435363160711857e-04,-1.486267793744920976e-02,-3.415479145233422942e-02,-1.877190055160545120e-03,2.402488456013562521e-02,-2.768351528191945188e-02,-4.077449953424384932e-02,-4.446877999162836964e-02,-2.777605734674233259e-02,-8.690998105783895658e-03,-5.005592263696997252e-02,1.771590718428158948e-02,-4.140333327612845393e-02,2.062697485342428541e-02,4.285026005654806597e-02,3.247179983411521004e-02,-1.229816443117430491e-02,-2.402998220990261447e-02,-2.326904656675520336e-02,5.807770497189503403e-03,-3.594180833679993387e-02,-8.976027238596490099e-02,-2.441982132187183602e-03,1.734188326261836346e-02,-5.763418727334271296e-02,8.316800384229531065e-03,2.382483684921206726e-02,1.149512083703512627e-02,6.600311176268049834e-03,-4.626255137605570639e-02,5.350693747653053733e-04,-3.728150223321480272e-02,-2.725553918428243183e-02,-1.063805051394349326e-02,1.805871828898946430e-01,1.307181614795784909e-02,8.693409547119583525e-02,-9.839306685527574731e-03,-2.613949467184747272e-02,1.841283169377789034e-02,-4.911001379555481050e-02,-2.329066193172006985e-02,-3.719343080254419037e-02,-5.432906642372834632e-02,1.056751825161188034e-02,9.310600396853478677e-02,-2.690730186735883558e-02,-1.349637344755912904e-01,-3.312372005435363365e-01,-2.749731757761077894e-02,-9.610756778852726917e-03,-2.056674416818332629e-02,-1.689480076445787696e-02,7.048134201462463722e-02,-2.494639384388944604e-03,-2.697821060635294255e-02,-4.073743561339139563e-02,-1.160478634267857329e-01,-1.724150707393879225e-02,-3.608934996729489669e-02,5.327113972281621174e-02,-2.655566754386670322e-02,1.190841337379752209e-02,4.684748417433504120e-02,1.856367450656646115e-02,3.891750666090500882e-02,-1.150821831815767096e-02,1.195174110682437202e-01,1.954493821317134991e-02,3.120875436859787619e-02,6.131298977815822539e-03,1.931322318313047071e-01,9.638347029765526042e-02,8.973878863961209928e-02,4.974764455704967087e-02,4.621417534235117835e-02,3.997722637712960991e-02,3.073667350465820840e-04,1.603848225261898450e-02,-2.920993057328235068e-02,1.835257085620494713e-03,1.282968287677706785e-02,1.343041489661277871e-02,8.241965837068757073e-02,8.866042829330793296e-02,9.283409463295438924e-02,-1.128317868059685756e-03,4.343793510937608154e-02,-1.896894063013264062e-02,-4.033112729679901726e-02,-5.484578818911929957e-03,1.898725411391821716e-02,-4.063316173211674320e-02,1.147575499709693921e-02,4.181971110165291078e-02,-9.963468919156591441e-02,1.545232101465777476e-02,7.507231058295227299e-02,-1.428781643523497312e-02,-2.180676212059597628e-03,8.181888690871441661e-03,3.995253537059735918e-03,4.442293895649985364e-02,-1.309873820351005816e-02,6.631511580595600766e-03,2.007570275703536924e-02,-4.061808404632454364e-03,2.552084244137873409e-02,1.310713112283454045e-02,1.187953004229890842e-02,4.075118302036334628e-02,5.861416594421725579e-02,8.439092702898190468e-02,5.562695658572083812e-02,1.628601759320701808e-02,5.847087724114033436e-02,3.762949668380961843e-02,1.262674284915559636e-02,6.302556125347939797e-02,1.230234592835265650e-01,8.855391440065311925e-02,8.765623750331617836e-02,1.020281426358700255e-01,3.088471723777101718e-02,9.724600699155474745e-03,5.703368265351464045e-02,1.622016257990640392e-02,-5.909939470598091216e-03,-3.444891726357200701e-02,-8.984286808600513985e-03,-3.015256799166837320e-03,1.231669373401993867e-02,2.982170477217470014e-02,1.465361842927794325e-02,-6.336876984641594789e-03,-1.917074163545830798e-05,5.029645802042490704e-02,1.427939714013788143e-02,1.464309732790040897e-01,8.592967773601563330e-02,4.592857770346622098e-02,-3.567630540258706628e-02,-1.917164378980637518e-02,-3.157021703283288683e-02,2.520539704958200261e-02,-1.049164246549575893e-02,4.100004804212991488e-02,-3.532910242214633983e-02,2.211123052564517577e-02,1.420311580266198754e-04,3.980515283985091093e-03,8.114965266635580654e-02,2.048295074666547366e-01,5.803899820929761533e-02,2.012579003866575220e-02,1.873318933393356561e-02,-1.042331202907846067e-02,-3.847184967244739184e-03,-3.219823732494433988e-02,-1.821120140236836410e-02,-1.514324710813689384e-02,3.122389754562510718e-03,-2.028487340207692571e-02,8.184748720531707586e-03,4.309403758087919367e-02,1.067814736361809014e-01,3.230267051766980146e-02,-7.204358388319420138e-03,-2.277926641558917012e-02,3.641356468172157745e-02,8.342035574081002602e-02,1.167464857436230213e-01,3.741134403438137190e-02
8.488243097076773880e-02,8.445353370295196477e-03,2.127139965669311988e-03,-3.310804937271463050e-02,-3.237480653543144127e-02,-4.568797922683710822e-02,-3.890028077838902226e-02,-2.226529178484554575e-02,-1.208299073930879132e-02,-2.017638575017111774e-02,-2.879212237162664598e-02,3.801531596371885563e-02,1.327412116210809068e-02,2.952634694802383497e-02,8.647873732819654283e-03,-4.390401765341248735e-02,-3.929108811694451836e-02,8.175155709135345505e-02,8.146455110698046578e-03,-2.080002910674501326e-02,-4.242808910850656007e-02,-3.977293487120583254e-02,-2.490549926943443418e-02,-5.573042730582059012e-02,4.830576466611048031e-02,3.163778574389602277e-02,4.836154950802456359e-04,-7.195967803236634486e-02,-2.776898609152855107e-02,2.735084058495587667e-02,9.738436176803712263e-02,7.776017995931613913e-02,2.341940205826239119e-03,-7.440905598889452355e-02,-3.266871932332878620e-02,2.484072614302358911e-03,1.715325600635539752e-02,3.969220251501208441e-02,-1.296306194295537839e-02,1.281945503777525905e-02,3.574588538893518769e-02,-5.808493407355162785e-02,-8.684593765071239868e-03,-1.219212560715499383e-01,-1.945855832013705100e-01,-4.404063022034442054e-02,-2.417956226804469644e-01,9.336310604601241736e-02,-1.074774296671788670e-01,-1.549957327812661288e-02,3.368817461438856214e-02,2.032651771394460294e-01,8.634541640112668170e-02,4.326554663700046127e-02,3.573971511867977957e-02,1.928127391218766333e-03,-3.443580374167742875e-02,-1.057550557394163759e-01,-6.600832895409585073e-03,-1.549234930860785009e-02,-2.534907955259501494e-02,-7.429137224950602136e-02,2.997193851448062829e-02,-1.940417063229116917e-02,-1.887087059727540761e-02,1.017542486859437656e-01,-6.795118467124558817e-03,7.919900391343446047e-03,-7.730512553927403052e-02,-4.253422039080446970e-02,-2.299281466132542875e-02,1.521819090609377633e-03,-1.262760048629338328e-02,-1.388583554827029463e-02,-1.490084118163055409e-02,-3.255886267682388951e-02,-1.372166494748973571e-02,-2.259771014186639018e-02,3.755728751484992134e-02,1.435928306993649282e-02,-1.235061048059859536e-02,3.366902881800943638e-03,-4.942838618724704897e-02,-4.219338339196802151e-02,-5.007010461784596606e-02,-1.684583898827295492e-02,-7.148395737634997450e-03,-1.066017591033400873e-02,-5.483139701570519803e-02,-4.598301127973763308e-02,-1.770447859672071370e-02,-8.488980007098145125e-03,5.797267229893559443e-02,-6.716024470435072447e-02,2.795637215159845618e-02,6.443918565467211985e-03,-2.805854462212488062e-02,2.856992307242217644e-02,5.509595408606878658e-02,1.314471650357630986e-02,1.211474277417326148e-02,4.285701547210213347e-02,7.910890906707591236e-03,-1.857301988441810089e-02,4.260230677840722013e-02,6.084277822789315587e-02,-7.366775281437080991e-02,-7.407906798439127527e-02,-2.605601437092727735e-02,1.771643339238173145e-02,-4.618825462724861913e-02,-6.158920503927768630e-02,-2.937571134058294606e-02,9.382969603107742251e-03,1.112091242170692128e-02,2.776238745263029384e-02,5.861670722069108747e-03,-4.012291081302032242e-02,4.528949269110239297e-03,5.767861853333258217e-03,-2.111264747842898134e-03,-2.338758457996480133e-02,5.471154363879277699e-02,-1.023359112768332940e-02,-1.660951505029585606e-02,3.171037415105361357e-02,2.692088675964613917e-02,8.574505023556808214e-02,2.739317228426308912e-02,1.451608851748883815e-02,-1.237209347217753039e-02,-4.475837761909467680e-03,2.363170181621482291e-02,2.611772498704687667e-02,-1.235374470327760960e-02,2.015295310204934937e-02,8.441944784183985639e-02,8.128471468413703271e-02,4.919810100050434759e-02,1.092550377046634007e-03,9.891210758428550104e-03,6.197026514278594633e-02,5.517169185083416194e-02,-5.339248689532027914e-02,-4.677680812213253631e-02,-8.353128637080884170e-03,-1.224407233657639690e-02,2.025015615924442153e-02,-1.734559652019209558e-02,-3.749233803795345987e-02,-6.866369244408901396e-02,-6.835083395986303600e-02,-7.919496972095223589e-03,-3.933463974758966836e-02,-3.660439134776461573e-02,-3.846259042723972760e-02,-2.016488210932706679e-02,-2.670665005492959751e-02,-1.482049415309093787e-01,4.240532193022954477e-01,-2.345565202796751764e-02,1.925526158418674333e-02,3.696057945056378802e-02,-3.071792901754027624e-02,1.470169135789359911e-03,-3.780807388246281570e-02,-1.274404112057246760e-03,-6.254327170572658579e-02,-1.976143466381142556e-03,2.375496504840295120e-01,1.638095782926020927e-01,3.534319208670723411e-02,-1.009545367585648785e-02,-2.717739541851267593e-02,-2.408630764902795068e-02,-5.075853608372054432e-02,-7.757000228947232706e-03,-7.664559143814977937e-02,-1.779176823054250817e-02,-2.211938937364758481e-02,-4.701459392134917786e-02,-8.862244773345474835e-02,-9.433591411466152321e-02,-1.269021980196850807e-01,-7.900696677750636276e-02,-1.375334777223064520e-01,8.210525875622978753e-02,4.041869039833769772e-01,3.987366342386925583e-02,-5.164859851951879646e-03
-3.368443083377440500e-02,-1.766688893700221474e-01,9.643935001254964889e-02,-1.159309459086083488e-01,-1.322801266159617274e-02,-3.580448933894891245e-02,-7.334644970326405569e-03,-6.721483517807180785e-02,-4.389219454406857041e-02,-2.426975698907628612e-02,-4.556542253945160270e-02,-2.514442214262294084e-02,-1.101205870908151738e-02,-4.434305116249718376e-02,-1.452224590564421026e-02,6.636709855732440821e-03,-2.700020008139841429e-02,1.299902360607965192e-02,-2.399200422999271665e-02,-1.081737865090788564e-02,2.445681726727980468e-02,1.677686856782520733e-02,1.458541012216326219e-02,3.372574254065854177e-02,-1.044341771102431579e-02,-3.537584218415629200e-02,-2.319277901745441656e-02,3.041083525622091405e-03,1.324488733955810765e-02,4.459475172313082103e-02,1.387014018071724107e-02,-1.665926424539633174e-02,-7.344675070900172353e-02,1.398133302818416190e-02,-4.836870236324125605e-02,2.789556727031280992e-02,-2.500512323419911906e-02,-4.391746320044946639e-02,4.670055934272777931e-02,-4.928198744082100576e-03,-3.368738774661352020e-03,1.556557909658512484e-02,4.063208681149762386e-02,3.722266625212381636e-02,-3.019957926350966271e-01,-2.886195138429547002e-01,-3.193227743734592533e-02,1.294713200038287437e-02,4.297985293021680531e-02,-7.211385703534986188e-03,-7.814156465208875815e-03,1.140006031182137364e-01,3.809804288997245547e-02,-3.520219156841123548e-02,4.004025376771792877e-02,9.748974685426854692e-03,7.518896457487345142e-02,8.856266505150851842e-02,5.552657672398998712e-02,-5.528923434657986857e-02,3.703896524905272991e-02,-6.868323510867137272e-02,-1.029635225461708464e-01,-5.971162414467887092e-02,-7.538415704798498429e-02,4.268834007032081684e-02,-6.602160343617216598e-02,-2.828135591470759547e-02,-2.545077499246230224e-02,-8.751566700892013384e-02,2.639398431020784780e-02,2.985594062430157319e-02,2.036241877729404182e-02,2.046187004149347885e-02,-2.058782040459388243e-02,3.332232324185635530e-02,-3.737602636094047165e-02,3.905949629523313565e-02,-2.667344878817100653e-02,-4.683599876541006540e-02,-1.770112279757873192e-02,2.231068633896013398e-02,6.731952465756674275e-02,4.092249717103044193e-02,3.072487389431320139e-03,5.491273267518857054e-02,8.753471536691696808e-02,5.437923756004982290e-02,9.789947092504515391e-02,-7.856062988137907377e-02,-3.527420233956368723e-01,-1.197924388950987601e-01,6.632292215614261910e-02,1.124973006286175388e-03,3.544813534529063503e-02,-6.280688346562620164e-03,1.798756829997798234e-02,-3.189303876054678383e-02,-7.067743048655998617e-02,7.108347086395802941e-03,8.204438640348912792e-02,3.257223244702633219e-02,1.328666936806715930e-02,6.732889320151476398e-02,-5.722060849178877556e-02,8.303823672422497304e-02,-1.654165793579224705e-02,3.383775780645353198e-02,-2.985279999119348077e-02,7.741516867551981318e-02,6.673311571648649770e-03,5.893756349370050246e-03,-5.712698467776552297e-03,-2.022809052540861310e-02,2.644731279845692964e-02,1.253393868960719568e-02,6.259061534522618320e-02,9.145338608989024565e-02,8.204262437614179282e-02,-2.794577780011885462e-02,2.634446919185554070e-02,-4.562346319790964999e-02,-4.968420662497597881e-03,-3.187231061465881088e-02,6.135172970155452436e-04,1.132907757814391285e-02,5.866003962724125609e-02,-5.616855211800895857e-03,-1.155726904182329678e-02,-8.410436140122379278e-02,-9.227030876138105076e-02,-1.847371359714614775e-02,2.626821485526863523e-02,-6.807007685807459074e-02,2.245722232443451288e-02,-1.195895437118547552e-02,3.597058769280569307e-02,-1.261183653777290040e-03,1.299690603981965009e-02,1.266383698293181356e-02,3.856720671649081777e-02,-1.174245220373357906e-02,-1.710681838350999002e-03,3.168362568310649496e-02,5.897208912888005777e-02,2.385579640655888234e-02,2.591546960701945207e-02,1.849366527040709196e-02,-6.290230965025606080e-02,-2.966241704066677025e-03,9.828782756662081399e-02,7.417522298285451898e-02,2.846619677179135222e-02,9.403656974469323804e-02,4.628298570051387478e-02,9.547242986629204953e-02,-1.300804296950939772e-03,-2.250263463224064509e-01,-6.236892993076176284e-02,-1.082491499530844475e-01,5.829128826431442811e-02,-1.820697036326191648e-02,6.307037298304241091e-02,3.072511611952257957e-02,-9.615913900420956784e-03,9.020935662230279706e-02,3.598705416785134142e-02,1.840231619353683082e-02,-2.494455813678518575e-04,-3.951860489690259270e-02,-6.285509120302537611e-02,-1.101468331640483300e-01,-9.257077570210892059e-02,-2.634852551785134538e-03,-2.616633134053842832e-02,1.980883486874868149e-02,-1.142813318059326608e-02,2.924205692909229853e-02,-2.979273042744350411e-02,6.494015259885912821e-03,6.146758139386543363e-02,4.995232521039350698e-02,1.876893610483833241e-02,-2.975320866544389764e-02,2.309591370634525298e-01,1.456141656825738206e-01,1.027576730575875397e-01,2.368667273850796340e-01,4.429051903535071166e-01,8.992041979391902917e-02
2.002836948815221729e-01,6.772912758040725012e-02,-9.176972875655454998e-02,-2.931834675225244297e-02,-3.361549224379784678e-02,-7.114818925520814685e-02,-2.424887739256799055e-02,-2.084434391209440476e-02,3.184633359409565212e-02,-1.514309855280720520e-02,-5.955923196744501887e-03,-5.871289707023632370e-02,-2.645845234140839497e-02,7.393976177622015034e-02,1.513658717899616923e-01,-2.125404475308821997e-02,-8.467905640012816926e-02,2.801290515783642562e-02,1.561424984540966260e-02,1.885250402837426731e-02,-2.859075088514072965e-02,2.000288871441768118e-02,-1.612743119923978549e-02,4.225206774290793388e-03,3.969071971970804941e-02,-2.203799150953797761e-02,1.735967293183603849e-02,1.406414014133401495e-02,3.344655750015178980e-02,9.473847391469229773e-02,6.168458797125557502e-02,-6.878894218729939523e-03,4.389284462822792832e-02,3.664548985235967921e-02,-9.024024026062938547e-03,4.577589113241444657e-02,1.481214487274935690e-03,7.391306932093606730e-02,8.603242353514359286e-02,1.120046372205825772e-02,1.081162849256808549e-02,-3.457600796664671294e-02,-6.897796500496293157e-03,-5.425939660519094043e-02,1.460027258305868769e-01,7.301139401398150375e-02,-1.033978803220800789e-02,5.825319216600617633e-02,-1.992464423374813720e-02,-9.056176874984056546e-02,3.771961994760460180e-02,1.432698645183952124e-01,6.507623302819413036e-01,-2.768786678257659783e-01,2.030116053644633212e+00,-3.926911139302256132e-02,-4.836934155233553467e-02,-4.019686928886738453e-02,4.453146451500772374e-02,7.701289338322221678e-02,4.423414082393803404e-02,2.249423355637198904e-02,9.672557709592961850e-02,7.302575305027474151e-02,1.098938303372764130e-01,3.054901462254472344e-01,-1.806045715050845490e-02,4.868638842065912443e-03,-7.670512457291796260e-02,5.734758736108053895e-02,-8.019314654603213258e-03,5.361894357118984766e-02,5.435743541092714903e-02,-2.115157818260625378e-02,6.391723938527658910e-02,3.887719378915935331e-02,4.035328978787693088e-02,5.197306141845449423e-02,1.031049578658237154e-01,-4.296187723793477853e-02,-1.891647220155270306e-03,5.031298085116184954e-02,9.276786193156517230e-03,4.371735415568506200e-02,-8.758936818792541212e-02,-6.665136920851304214e-02,5.293503274614195717e-03,8.398805291337650691e-02,-3.241353806939783339e-02,-5.007323222476281477e-02,-1.167892372638594661e-01,-9.274354839893091118e-02,1.016820913340710925e-02,-2.420117323568208786e-02,-1.003428042825050062e-02,-1.101783127689009295e-01,-9.663191418767394514e-02,-1.932599778541211483e-02,-2.771169538309320099e-02,7.258023700620866610e-04,2.235256846376306589e-02,6.709415023328806071e-02,8.878602131278028053e-02,3.428446845276117427e-02,9.654642965167648666e-03,1.536640705908335486e-02,-6.173148072702243361e-02,8.327227185280278512e-03,-2.761839583832552056e-02,-2.514955574170217589e-02,-2.903844910107755348e-02,-4.494448510388786289e-02,1.483211373012144514e-02,-2.102173189746940965e-03,-3.774133251906997694e-02,2.418958538336808683e-02,-1.879355035234973881e-02,-6.277736124658797601e-02,1.684561141636028991e-02,8.702015649457461866e-02,2.967048083216509285e-02,1.420302615052804369e-02,-1.180054974477584562e-02,1.457848956921416325e-03,-1.484981952884649806e-02,1.755128351360749420e-02,-6.706663578147157613e-03,-5.194841781273433490e-02,-1.892354105682999416e-02,-6.262333545382060829e-02,-5.480352240093345345e-02,-2.631321590973307797e-02,-2.526033000367439510e-02,-4.675332228651885719e-02,-4.763033885205610746e-02,-3.256659467571752786e-02,-2.987459622642932473e-03,-6.431925333165639837e-03,8.318095476184518208e-03,2.884628216279434831e-02,3.666016796296678315e-02,-2.067968218288488910e-02,-6.103900217106871667e-02,4.822346983426701456e-02,6.013468159879047786e-02,6.133100496988749123e-02,-4.468939245857869030e-02,1.779113107886367423e-02,2.434653246421418851e-02,5.931064240036335034e-02,-2.132292003688350188e-02,-9.323867574584143725e-02,3.949739826227227635e-02,-1.349935406037149933e-02,4.216129281496351633e-02,1.038078515898315096e-01,2.792175996889964887e-02,1.485831068816294565e-01,2.749599223746054810e-02,-1.305203652814140580e-01,-1.641977767807247662e-02,-3.243793467720190032e-02,-1.701196937698822020e-02,-5.349420370240354911e-02,1.141547078303400790e-02,-3.911043975128555839e-02,-6.561866978371783121e-02,-5.070622234631908670e-02,2.541500546919393810e-02,-1.182909256569118217e-01,-5.172293430860038649e-02,1.020109372795582545e-02,6.202749228957750785e-03,2.444455383878725227e-02,4.560341521321111674e-02,-2.070271280487586199e-02,2.850679030449689011e-02,6.949728562919138888e-03,2.079592329123693129e-02,-2.468974850375754010e-02,2.415363230770574757e-02,7.773768420134626045e-02,5.226121620353903034e-03,1.601434272830558059e-01,2.025751878804728512e-01,6.037726766342167706e-02,1.868958984335622464e-01,5.084675464601542960e-02,1.806135808788614239e-01,3.192979052279908830e-02
2.511562144717568446e-01,-1.481848208579172321e-01,-2.981551365902061074e-03,-1.300395019844235167e-01,-2.443742216092537750e-02,-1.018493821316296816e-01,2.206403035667161422e-02,6.065606741376556796e-03,3.789487240236690674e-02,-9.098208656635901892e-02,-5.059124344659023803e-02,-6.665706363130728673e-02,-1.161695846149887190e-01,3.778285995835795746e-02,4.279844686981709029e-02,2.154731736875802051e-02,1.510029057284885123e-01,1.255911446958795086e-01,6.015388501965289458e-02,1.329444750361996885e-01,1.545554716624064650e-04,-1.848264598611372433e-02,-4.246312929157527311e-02,6.684890258975760557e-02,1.029395406897312404e-01,-3.149250846195698894e-02,4.103388692616347783e-02,-8.743471317480631944e-02,1.555619919745938329e-01,3.908217582950549440e-01,2.120255782974327652e-01,2.801845752401725953e-01,1.422912611717277176e-01,3.766372332975676668e-02,9.032700386504220746e-02,1.680722104961323016e-01,2.174153492213275196e-02,-1.505425551969990345e-05,4.356879955604485433e-02,7.066547136094729342e-02,1.252543048055880237e-01,1.255977437921863560e-01,9.596314905512301485e-02,2.233809879601294235e-01,-6.454493285904233657e-02,-6.165941142970049471e-02,4.180949342417484837e-01,2.794651895768424654e-01,1.377988280231511042e-01,2.355659978862987558e-01,2.102717933124648719e-01,6.873046740986948899e-01,7.106900505505057142e-01,-2.523335265757393753e-01,2.565193234902591879e+00,4.493517525630978504e+00,2.150151340972300262e-01,1.965429948249614034e-01,5.189320825319959640e-01,5.312804224789701157e-01,2.438296468018049112e-01,4.098258723500342558e-03,4.457244303854970835e-02,-2.901953294384328544e-02,2.333224613524259236e-03,-3.678689699938336166e-01,-8.058923788934231267e-03,1.398596792346638307e-01,-6.398135919269921923e-02,-1.354206847676233394e-01,-2.348764093922964258e-02,6.017685182132967436e-02,1.933385010372933033e-02,8.696407517167839551e-02,-3.230004237527724087e-02,4.652840477066951669e-02,-6.596426277813491335e-02,-2.131310374350666240e-02,-1.440815288597495081e-01,-1.423793720826066478e-01,-3.649030795576118508e-02,-6.185628183412612141e-02,-3.445083047466912518e-02,6.021276721660244469e-02,-6.902688634946019253e-02,1.548567203026965655e-01,4.906598531069932684e-02,1.790700167694544986e-01,9.586986426820087726e-02,-1.311876881366131481e-02,-9.361180744389272640e-03,-2.181272740818645389e-02,-6.773389382180354523e-02,-4.710142120937890059e-02,-2.715273376219446040e-03,-4.205088684964752854e-02,-5.350744875832515179e-02,-2.683619217542819804e-02,2.039344522706966912e-03,7.150943261731484979e-02,-5.951340733208381438e-03,3.698091487553027690e-02,1.053344884260581510e-01,5.921341942814866560e-02,2.383335622668392856e-03,4.950883402397991684e-02,5.290525620778650101e-02,7.697001397057828820e-02,-2.080387697259764197e-03,6.006273890639236834e-02,3.034695051621154327e-02,-4.218404199246889030e-02,-8.233306722404563904e-02,-5.951790806315803567e-02,1.944836351450330561e-03,-7.614906695021965433e-02,-1.196064725662509621e-03,-7.683656913064761118e-02,-2.142106137871704202e-02,-1.440586643785083179e-02,-3.384430271882452046e-02,-4.224906542651738622e-02,-1.491878509876405634e-01,5.075590893588140251e-02,-1.593549176815941826e-01,-2.844411547498600090e-02,8.992830039270229697e-03,-8.912958830700064630e-03,4.141617635724295643e-02,-1.349890689435019331e-01,-1.573768803289279650e-01,-7.547077109427653696e-02,-8.196001043651464368e-02,-9.945545070740390015e-02,-2.565992446599027303e-03,6.171243952077905964e-02,1.259430266364691964e-01,-8.394420209350540035e-03,8.549027229766167912e-02,-2.015337948592331452e-02,3.571972470562397722e-02,4.995724455202173175e-02,6.491331902792361191e-03,-2.714949004052600451e-02,-6.431770231549682748e-02,-5.377222176445188573e-02,9.573567549703446145e-02,-8.827528033416927322e-02,-1.057386333396599237e-01,-8.677072098788679577e-02,1.722468441040453727e-02,1.170497966145330054e-01,5.162369134986317248e-02,1.114348581449639136e-01,-9.941146668352181248e-02,-4.739193638875759396e-01,-3.243365483464173415e-01,-3.672379693870240769e-01,-1.414596102110242046e-02,2.376283574475811511e-01,3.780553840931552556e-02,6.116840000594333734e-03,8.000303516041984420e-02,-8.869199009520641053e-02,-8.133555074720873190e-02,-2.562549054910680246e-02,1.162304491434630882e-01,-8.183191687449396789e-02,-8.860087045637432546e-02,-4.705955490655776008e-01,-2.483711839173988467e-01,-4.514844663247894602e-02,7.037399758433007108e-03,-3.160247703779710954e-02,1.371730023578402726e-03,3.629800002236014539e-02,9.023608549234586607e-02,-2.434303103922760836e-02,-5.612596337700596905e-02,-1.314801910320506084e-01,3.456872424527075716e-02,1.983786584223015126e-01,-2.527716875114969369e-02,3.604446037599585151e-01,5.239024877685324322e-01,1.010116993740764052e-01,8.442926230589958836e-02,-2.603735738139396211e-02,1.183197270607640128e+00,1.034179698031883754e-01
-8.608056039302623696e-02,-4.899352243368090831e-02,-8.833912923145153390e-03,3.362282726867903138e-02,-1.479450103771691623e-02,-5.525642839047346933e-02,4.587449671591461997e-02,8.391624288162402578e-02,-3.111166184315281198e-03,9.017080121660991932e-02,-6.286671074724665964e-02,7.411179445212140449e-02,-2.703920189739668703e-02,-1.281955026943048907e-02,1.435913060900354324e-02,-1.026721340478231950e-02,4.007342226861507900e-02,1.414235008002663781e-02,2.859552301329265980e-02,4.601053945937668387e-03,2.599211641534242972e-02,-1.284776115292322607e-01,6.156260036782751355e-02,8.789185598539017708e-02,8.373257105219679419e-02,-4.944100879010335930e-02,-5.693103014076699581e-02,-5.434611511163001812e-02,5.024550787670183788e-02,-4.615815937099152638e-02,-6.338586033262788577e-02,2.009892111951207261e-01,1.474025212726472467e-01,5.007926132087883730e-02,1.094642195031770848e-01,1.316095864612265055e-02,3.434276023115883508e-02,1.469570610255672427e-01,-8.167757478758683187e-02,9.028732381159761122e-02,1.242551364135044689e-01,1.076531354839476845e-01,4.576493477695854628e-02,5.016714582082095614e-02,-3.426148702916536476e-02,-3.052055648265636703e-02,-3.200433874429980952e-02,1.336271326469768428e-01,8.727835837406881792e-02,2.185218446323075343e-03,1.875244124846105979e-03,-9.165654654601300411e-02,2.421697524411385583e-01,-8.302019599542180550e-02,7.699596867606268713e-01,1.956663317448611661e+00,7.289411469704734081e+00,1.939719111483657388e+00,7.196341645801129783e-01,-3.704680551582214404e-02,-3.422892745105610146e-02,5.213305488484588218e-02,2.793475392787083539e-02,-7.078109255148572199e-02,5.721433326584338119e-02,-5.897231951780140986e-03,6.220190763231697034e-02,-1.452575080846798816e-01,4.211608959145751035e-03,-1.269085862385155861e-01,-2.811523648859119012e-02,7.560065499560974546e-03,-1.728963047848179266e-02,1.110557267673591419e-01,6.557692971224050871e-02,-5.376458666061190855e-02,7.740347674057922178e-02,1.274685053832707027e-01,-7.029572497717785640e-02,-3.419510139200817450e-02,-4.995746692797691652e-02,-4.643748428371877873e-02,-4.664720058804917857e-02,6.514477890129820314e-02,7.893179056520535641e-02,-4.409022024061691469e-02,7.295454954977323436e-02,7.288691516443160379e-02,1.531668358725409712e-02,-4.345760897136327627e-02,-2.903975130419870002e-02,-5.307424429284512274e-02,1.432900941998505647e-03,-6.994330522960402752e-02,-1.766533281468152944e-02,1.779381629028466832e-02,-3.653042370768482677e-02,-1.312876714215947989e-02,-1.040223521859202221e-02,2.372765680941074564e-03,5.316595037159558418e-02,1.694341273869973963e-01,6.596467895146142235e-02,-5.965683786133675615e-02,-1.920424153794888372e-02,-6.577463875568784202e-02,9.065439361277052854e-02,7.683114350034077333e-02,8.529089807914913036e-04,2.324955604866667594e-02,-5.294653523913568638e-03,-7.557735778672051985e-02,-8.503600218356628659e-02,1.869586699511274416e-02,-6.800203647883182323e-02,-5.643972016241430995e-02,2.182542271160806471e-03,-5.689545044314294614e-02,2.837863631048561167e-02,-8.995542402245933211e-02,1.617789444723072290e-02,-1.666218185757322931e-02,5.743821760275128613e-02,7.065350490727526078e-02,7.040919462745412472e-02,5.102476105826894703e-02,2.794410300727732249e-02,-6.899846323667280235e-02,5.598664484469625252e-02,3.932141116270167214e-02,1.560810846561149455e-02,-2.847567895084613873e-02,-5.326374145967068680e-02,-3.659835451292601551e-03,-9.977554080015547597e-03,-1.045328387983478734e-02,-1.489391886933666975e-01,9.951910991229248604e-02,2.229906168038873690e-02,-7.552672947260787029e-02,8.022047295665489519e-03,-1.216818518657775475e-02,-8.699970323464811806e-02,7.513503600249306358e-02,-7.338127505548755480e-02,6.358119992883051741e-02,1.370735410737179971e-01,-1.254814657054326432e-01,1.469479358756935888e-02,6.947460186422574346e-02,8.927394029452494217e-02,1.108915434395685295e-01,5.228900423046811685e-02,-3.783319137936585336e-02,-6.513623359837442117e-02,-1.983367403253662731e-01,-1.376025704412330297e-01,-1.447631655891037927e-01,-1.051579495725637470e-01,2.529600447320859424e-02,-1.677753027412124884e-02,4.906065547602783683e-03,-6.386031297901220705e-02,-6.236327011013861887e-02,-2.179936820573431105e-02,-6.783469032558461786e-02,3.616811242599719811e-02,3.695832995829509415e-02,3.851338942648306618e-02,-1.131347785134054623e-01,-3.035995062359893651e-02,4.532249854803234446e-02,1.574805958566993513e-01,2.686278767120263422e-02,3.606189169984320292e-02,2.889911113233190054e-02,6.605414914107322899e-02,-3.358703228177378070e-02,-2.726997856666196762e-02,-7.588207757358982064e-02,1.275225828492490554e-01,1.619421680511643757e-01,1.025241301715031916e-01,2.042235999341997232e-01,-2.548207753976576562e-02,1.721259229966529136e-02,-4.788995903038843066e-02,4.672948198615427956e-02,1.434786556259192714e-01,2.976352218421484536e-02
2.148327643537666642e-01,1.203866808706088448e-01,4.485985638098352601e-02,8.372480415123711994e-02,1.512321345264900363e-01,1.204686493890741276e-02,6.664302560250109746e-03,8.560777830379624753e-02,1.271873464468819548e-01,5.232220307223363169e-03,-7.845397783100037381e-02,-6.222144127699612282e-02,-1.020496591185317270e-01,1.488952546824943123e-02,4.336588652924478621e-02,-1.030656205574680406e-01,2.636754525573077323e-01,-1.553446259244620486e-01,2.857210092799706072e-02,1.013683804345740375e-01,3.487368771205309748e-02,-1.873498135960365713e-02,-4.405394398261118505e-02,-1.990059096002377501e-02,1.039072818430889222e-01,-1.722531138033193410e-01,7.423308826890624539e-03,-1.097635138457313392e-01,1.882208774830420039e-01,7.680925223633071341e-02,6.527541725783793380e-02,1.150003677058925771e-03,2.001979038131728172e-01,3.173214341354856777e-02,1.791412888273463955e-01,9.832415823005992428e-02,1.797153355466689015e-02,1.383357334818125228e-01,2.687352108955471178e-02,8.853122432164056699e-02,3.026757017497604813e-02,1.906593715414690027e-01,5.559553319946887451e-02,-5.834002167585295578e-02,-9.606516431937354994e-02,-8.509944379377847035e-02,-2.070143918445961351e-01,1.150932049888081510e-01,1.589269847126447421e-01,-6.704316935534053445e-02,-9.617299830268338789e-02,3.603261114086005468e-01,-1.304360227782219994e-01,1.097967902407609025e-01,5.815874628915048694e-01,9.919911864380367428e-01,2.034043072910550976e+00,9.993426138494495348e+00,1.071218786016413294e+00,2.744380808198014221e-01,3.363015463710649494e-02,-1.851801304628129252e-01,-5.217720028489445522e-02,-3.014370074588201831e-01,-1.271122057933639082e-01,-1.599704491249976379e-01,-2.017400595364556570e-01,-1.330689522995215021e-02,-2.511858601313818676e-02,3.077725659046053747e-03,-6.475133512468780883e-02,3.330536970628440729e-02,-6.495711586633787227e-02,1.481253370819849702e-01,4.715272020722102025e-02,-4.039536903051201000e-02,2.211724368431738572e-02,-5.394071752897725697e-02,-5.373412923492599386e-02,-1.748057212767689939e-01,-1.262179657547100875e-01,6.274349012083638155e-02,6.013785723402589184e-02,-2.480040662125380935e-01,1.509263394290463467e-01,-2.697990153298028895e-02,1.361145167909167397e-01,-9.008125912011921699e-02,6.000993848785335372e-02,1.849797126901678301e-01,-2.911557337669440360e-02,2.093842036588468292e-01,5.343770163267399370e-02,8.232705414742196026e-02,-1.432687591397466542e-01,-2.218871222477991345e-01,-5.052007573360439707e-02,1.459802576590187896e-02,-1.135821393109252148e-01,-9.295195020136284847e-02,-1.039134360539254853e-03,-9.376994826867443567e-02,1.899935948417234843e-01,-1.011192708117325256e-01,1.186068081322334961e-01,6.045845204828430991e-02,-8.958296596926312860e-02,2.772955530029357907e-01,-2.093848431432545065e-01,7.400242846264624801e-03,-4.543754559740992294e-02,1.057962521139035883e-01,6.861484904325826362e-02,-7.749835175177502422e-02,4.020382357290724906e-02,8.362721070183104510e-02,-1.784166332898177165e-01,2.960443954139220166e-02,1.328569961825282544e-02,1.717525477317045635e-01,-3.599610544965355791e-02,2.101416662386182757e-02,5.846579906446702779e-02,-3.918074898222936864e-02,-7.118098426630602160e-02,-1.630041797152033123e-01,-7.326416264443880166e-02,9.917991844960896697e-02,-5.414381522006735808e-02,-1.197044839596340393e-01,9.506317447561928036e-02,1.145897857244529278e-01,1.316759183454954858e-02,-1.078239718669327524e-01,1.466100142505234460e-01,-2.986297811645152039e-02,-3.617116768260560805e-02,-2.184118048524367750e-01,-3.658021685262500405e-02,-1.959336932582221233e-02,1.467565668772728982e-01,-1.478013865439865293e-01,-7.869940878675407703e-02,-2.443498383558923570e-01,-6.748147293195250196e-02,-4.178552257608955656e-02,3.886938201135765880e-02,-8.157437311774262678e-02,9.101224128874946251e-02,1.831553151005797520e-01,-1.377474078755535902e-01,7.914030369593963443e-02,-3.276836980528872057e-03,9.675274770787757606e-02,1.467206625979200207e-01,1.786344886307136004e-01,1.346649477505865167e-01,3.676103855581704799e-02,6.367995554653367585e-02,1.011567088773191875e-01,-7.405940341415814809e-02,7.487056105717515564e-02,-6.500670794601724756e-02,1.408744069732275062e-01,1.218974227316852177e-01,-3.081762388506591524e-02,1.474699608351367520e-02,1.842896471583760909e-01,-1.040652613645763613e-01,-1.908259525665627343e-01,-9.645941689586748358e-02,1.379025990602173180e-01,1.970178250640790552e-01,6.017602972591067079e-02,-6.470836812329237853e-02,7.206619430914808222e-02,4.561159951725157063e-02,-1.087256915823153203e-01,1.417410496949190468e-01,4.947408217371745270e-02,1.531234085602832702e-02,4.184459405266319210e-02,-1.000987591785645753e-01,-1.298836976438673581e-02,7.209297675363104951e-02,-1.162104084911875779e-01,5.586663438042109055e-03,-2.243494944192904739e-01,-3.979617336600926869e-02,1.479454630218418054e-01
3.818920513302335312e-02,-5.218045520367798479e-02,-4.444454106591239073e-02,-9.585706725428436159e-02,1.216696731325961345e-01,7.066406220067053545e-02,-2.342544534879576184e-03,1.645206479346554909e-02,2.451187778298810887e-03,4.150093252780628905e-02,5.485717081912743626e-02,-1.243362020026470699e-01,8.073230475930046057e-02,6.542760313109061143e-02,-1.779497620248967488e-02,1.087511777653629996e-01,-5.020940030904561674e-02,1.893346647944529892e-02,5.082440632427486643e-02,7.921054383884640186e-05,1.397166085309177741e-01,1.732817383771986519e-01,-1.434703426638682736e-02,9.569361114842796223e-02,8.592301547403919174e-03,-6.194400480114629903e-02,-7.876646962210637204e-02,-4.988424185992338528e-02,-5.444018355892573345e-03,9.541010224312722332e-02,-4.978759365908328599e-02,6.644940614773817145e-02,8.156581280179214452e-03,-1.193028571545893222e-02,8.608803762583296104e-02,5.763785085762623828e-02,-1.006575368524909309e-01,4.705996114340868508e-02,2.875378726975783006e-02,2.448024252728000366e-02,-3.117750517991518117e-02,2.751662102572500004e-02,4.850296826669838607e-02,-2.487162803771703762e-02,6.543810299177010154e-03,-2.012296543878717148e-01,7.174253916302798795e-02,8.845993456525894083e-02,7.769510282370838128e-02,3.963965029896437259e-02,1.276687838051635826e-01,2.034014502956096870e-01,4.561614843223630970e-03,-3.679865592495518145e-02,2.087114316305596906e-01,7.028356299498434989e-01,6.877876739349695345e-01,1.035205342222595526e+00,6.022579716169025765e+00,8.716404039104324458e-03,-8.447458558324141831e-02,-3.922358515727972228e-02,5.482627692173183687e-02,1.154169945437782258e-02,-7.700840487105509169e-02,-6.166542501598466092e-02,-6.178471909171645571e-02,-9.029750738449800196e-02,2.815982106657559728e-02,-6.680795619665200018e-03,-1.722763029925848460e-03,5.408545224092167758e-02,-1.010021496493575602e-02,2.030804302018589594e-02,-1.239515788908058212e-02,5.065898559784864225e-02,3.703345961549354276e-02,2.453628952967827279e-02,-1.896965063384011690e-02,-4.159118334617776386e-02,7.653020922783455512e-03,2.619119921095214298e-02,-6.197744397849459103e-02,9.531823656876908801e-02,-5.810800725449357523e-02,3.103954333881125613e-02,9.727232565524739083e-02,1.763398520321459162e-01,1.451299992938233918e-01,7.052207787778314030e-02,6.483077568000832069e-02,1.273252462351990438e-02,5.353866660294066826e-02,2.068026119636477700e-02,1.167320925878537335e-01,7.392085445980817876e-03,-1.243657382813566636e-01,2.634387477072944531e-02,7.512057857313349241e-02,1.622133710290710740e-01,-8.485426613068751400e-02,1.368274116584415889e-01,5.929058992496302055e-02,-1.882701176012688965e-02,-2.106048856268170552e-02,3.706624980929828367e-02,1.359490445806738924e-02,-2.526248040883297477e-02,6.482337068017961397e-03,2.552314043444751657e-01,2.569293262066720679e-02,6.952198368910557369e-02,-3.744961064980613374e-02,5.220570181673112736e-02,1.685449606950541190e-01,-6.824863108094204878e-02,4.564455495388614059e-02,7.327590212432896766e-02,7.707445021355495418e-02,6.473032077645471394e-02,5.895173264128249734e-03,-8.314601165570859043e-02,1.435850806234869881e-01,8.296246431216421080e-02,-3.254929119230214746e-02,5.255937077605173785e-02,1.450091112409201966e-02,5.947910186190979998e-03,5.849754428142198842e-02,-4.505339302058217199e-02,1.217216144722964993e-02,-1.920999222111118357e-02,7.412963433333241703e-02,2.106223852681300343e-02,-7.464892194086544808e-02,2.236237565971553251e-02,-5.205761524856539896e-02,1.407660599888674591e-01,5.612599081083839009e-02,7.130202570253332817e-02,1.386204362393717721e-02,6.225916941401656718e-02,6.124566488787130253e-02,1.221917359115149010e-01,9.921139506681991849e-02,-1.483449244599118200e-01,3.112514061610402037e-04,-3.591306611105730962e-02,4.374406587557889969e-02,6.479810018212245337e-02,2.700250530420393331e-03,5.691489762126707846e-02,1.355187095215058535e-01,2.819396874539290346e-02,3.661335978917595185e-02,-2.378099494771595407e-02,2.036320032365730032e-02,2.287888618397632221e-03,9.546320986891164428e-02,5.539749612247660965e-02,3.980271332119165312e-02,-8.418305227988901254e-03,6.797921542538899742e-02,-2.732045283197555643e-02,8.125247206565373859e-02,-4.636254223799574081e-02,-2.053467448087333003e-02,-8.094325253839372569e-02,1.774571844102721535e-02,3.610013180519852649e-02,-1.638421402634266527e-02,-3.846009356110589861e-02,-3.884786035447645308e-02,2.398010305013576621e-02,8.104836009234044070e-02,-3.808963092302010498e-03,-1.058324844044146971e-02,-6.940332143032455769e-02,2.806202324689719557e-02,1.529204345858701242e-01,1.322711841846122838e-01,1.489242382282718498e-02,1.995080625825325638e-01,1.653705644918190276e-01,1.377907771711633367e-01,9.990272596638918867e-02,-4.945244814053909033e-02,1.407267424752778502e-02,1.613285055996684925e-01,6.435720419975113349e-02
9.161354147785223667e-02,-1.089765671902393485e-01,2.535786527971387386e-02,-1.158759689490541922e-01,-1.193809821284619460e-01,-8.725969523128461469e-02,-1.164099402298831715e-01,-1.040694412986096079e-01,7.320064706526256681e-02,-1.244610631058858247e-01,-2.403362079918176242e-01,-7.589859735205460589e-02,-1.047778934155449704e-01,-8.332123867093746417e-02,-1.338933493213662618e-01,-1.189573853725392899e-01,-1.188614241885453324e-02,1.248355705019331754e-02,5.776345494720074719e-02,-1.556224715471584905e-02,4.556611707446407006e-02,-1.701728636052212695e-01,6.227391110121265061e-02,-6.290783155886975342e-02,-1.628466669430206626e-01,-1.476279099221779884e-02,-7.446232999429903965e-02,2.565780430974840161e-03,1.349344418080058831e-02,6.330016827561610326e-02,8.917575233398405271e-03,5.949455281399544659e-02,1.691209380101982573e-01,7.809029975515337230e-02,-1.168411007194689738e-02,9.737460633487732622e-03,1.049065580470982528e-01,6.124360445625476324e-02,4.920594659258855502e-02,2.104110565119694104e-02,6.487917477603251382e-02,2.616494814332037677e-01,4.702241310553476050e-02,-1.916315959493166896e-02,3.352154125275751129e-02,6.985570450417443768e-03,-1.040577883160184181e-01,6.914505730140543122e-03,4.309993238090598089e-02,6.079498305334850999e-02,9.782002185516033843e-02,1.302137313784491046e-01,6.845829580910318957e-02,-6.317468565769035482e-02,4.042885368287801873e-01,1.790926350030875858e-01,2.334691538242703868e-01,1.169712167546726328e-01,3.874031511451138388e-03,1.758898934396261549e+00,1.098827983765799043e+00,1.390199094995156759e-01,3.852461296680925046e-02,4.688604090475577413e-02,7.131512774491910456e-02,-1.490653860829850574e-01,2.930628212789088485e-02,8.585951561515836605e-02,-3.981481025944295926e-02,4.856592942275769764e-02,-5.681555358506874126e-02,-2.689034192750412722e-02,9.415548119712126296e-02,-7.441626805477877249e-02,-6.894792808558561359e-02,1.163985496062783925e-03,1.149904278426140854e-02,-1.573213498993185355e-02,-2.097864577291988150e-02,-7.451437687768153184e-02,-3.396107714615516360e-02,-5.392217105131351038e-03,1.156229568217608146e-02,-9.011206945375713206e-02,2.815415842534898030e-02,1.111745408320395090e-01,7.319648706896501877e-02,7.651959315349310398e-02,8.640505006934860732e-02,5.714068587831530079e-03,4.865265439151647033e-03,-7.511437027149364676e-02,-3.897517875308684904e-02,7.807381538917412822e-02,4.493879909645256965e-02,7.618271896814319231e-03,4.642410924604452316e-02,-9.127140822336111958e-02,-1.176984056041173038e-01,4.062037198659784049e-03,2.776813306492098565e-02,1.935743660894130927e-02,1.767979765203298026e-02,-3.616332464819565530e-03,1.544498435966029821e-02,6.237760367797023919e-02,-5.421929279762476711e-02,1.566789470349342142e-02,2.413627786510117931e-02,-1.073057174776964953e-02,-1.847988209832862952e-03,2.122156652302291044e-02,3.629531864858319412e-02,4.804245586318418165e-02,-5.195825477245182705e-02,8.221201519038093264e-02,8.866402331112875623e-02,-1.139963879471645319e-01,-2.019092864880614457e-02,-2.248827982005234191e-02,-2.309561545597232229e-02,-1.409525081644938871e-03,2.942285532171382348e-02,5.094270912356211461e-02,1.994900418661191624e-02,1.535030407480771353e-01,-6.697493158927071699e-02,4.346045746026854645e-02,4.920494696769883020e-02,-2.165042447855635224e-02,1.189941548124716711e-02,-2.327642947649702192e-03,-5.466672595033520571e-02,1.023289540455256733e-02,-2.809604531596558361e-02,-6.244197856048731843e-02,3.667645755620303760e-02,-7.138182043702627488e-02,-5.875700016461492259e-02,-1.381225821848272193e-03,1.063898943349420312e-01,5.177254838926272779e-02,-1.249991595611174393e-02,-7.578045934227742308e-02,3.990525642976138626e-02,9.611408966406704765e-03,-2.472844006728937977e-02,-2.391042756635370845e-02,-5.984763082812428331e-02,8.319456772643934322e-03,-5.983721640098058764e-03,-1.345742077882248165e-02,-3.466695041066406718e-02,-8.776822734148713445e-02,-3.861843775899571896e-02,-8.335157097623997757e-02,-8.659404909781313886e-02,-1.221841580230481478e-01,-6.306483819532447688e-02,1.247500170268939571e-02,4.159528752503081905e-02,-3.357552682395972127e-02,5.896739919842761829e-02,-5.901694262712064987e-02,8.500679959510615280e-02,-6.064817468362649136e-03,-6.110030601688021257e-03,-5.591117565260349254e-02,-7.471951663883047434e-02,4.308328227692248893e-03,-3.530506674236528336e-02,3.832713319938064328e-02,2.081395197832941121e-02,-1.764325262441822015e-02,5.522742807780413321e-02,9.788727690971811557e-02,4.503670745519797181e-02,2.385289689167273755e-02,-1.899055986878428123e-02,-9.118243479812433716e-02,9.186678806467871161e-02,-2.861314465161991089e-02,-3.702998250910449068e-02,-6.835291628573336720e-02,-9.682375366104023495e-02,3.820517992834594756e-02,-3.201181406396221701e-02,5.826575198464412075e-02,6.912354715042702547e-02,-2.765383093789482855e-02
7.485745858879651327e-02,-1.148795802579258701e-01,5.194975553373405719e-02,-1.072183276422456477e-01,-4.889210832491059505e-02,-4.405647385030937030e-02,-1.779187927283441550e-01,-2.654485938476288873e-02,-7.610708078124394206e-04,-8.055304394033194204e-02,-1.408952008048984794e-01,-9.060629036520842505e-02,2.622460024954333113e-02,-2.286349921498797156e-04,-1.048457801425947966e-01,-4.986627035013942860e-02,-1.743109845350104270e-01,-1.168344340027277321e-02,3.221000566139242682e-02,8.024388086955533406e-02,-5.653613558224624552e-02,-4.529682053881937259e-02,4.401912283484844812e-02,8.221423350944542796e-03,-5.463863125497209206e-02,-5.756296952091995156e-02,-3.784367290858611094e-02,-1.721712489859340833e-02,4.928113533256162776e-03,-1.286603239603053769e-02,7.178641632410137641e-02,1.470040109687041630e-02,3.801670274199631799e-02,-3.340599382010054491e-02,1.059246286200090648e-01,4.482437662839410669e-02,8.600697065025643406e-02,-1.057007643093383666e-02,3.323047279366547757e-02,1.025106968579648919e-01,-2.908384468529894018e-02,4.266443112954818040e-02,8.795287387120037659e-02,6.864790540951333508e-02,7.000160881445417760e-02,1.301737356285702918e-01,1.061004634952298839e-02,1.415574702489923349e-02,4.923814780716485873e-02,9.010119831425970893e-02,6.622012139704154532e-02,7.431013393402470524e-02,5.620359464970539620e-02,-3.459775282532121660e-02,2.824004028462904214e-01,9.241966343874902234e-01,9.770808495729295384e-02,2.078961088400477220e-01,5.488394570680928952e-01,2.056041068352807422e-01,4.907614342793238826e+00,2.601973921934859768e-01,-1.223142489963418948e-02,1.176611530138485561e-03,1.040322630939014698e-01,4.328308850313527384e-03,1.022869742978630980e-01,1.653740545330660283e-01,-2.888127759835401251e-02,3.356808887641012373e-01,-3.094473044985548635e-03,-2.220869239371817822e-02,4.833051045051222488e-02,8.545091663230183765e-02,9.830426733953408214e-02,-5.905350209424966440e-02,2.120910205336423021e-02,-3.302562952156951753e-02,-2.191903852119502991e-02,2.700528813048855975e-02,-8.494283655247687748e-03,1.168732963410525072e-01,3.942903705316615215e-02,3.121062183743878934e-02,5.031064011707077344e-02,6.994566834420394563e-02,4.275376255404907816e-02,6.877600096586980460e-02,5.389053172720308788e-02,3.653572111255439653e-03,-3.430138777696413455e-02,-9.741465953170519443e-02,7.469080714402461137e-03,-2.365274087115981985e-02,3.624501119051722758e-02,-5.867024203014637590e-02,4.722486213329447902e-02,-8.072128102610126588e-02,-8.980031825735636242e-02,-5.151424250175361264e-02,-2.641377266835639656e-02,6.153288814899070258e-02,-1.928999481525647472e-02,1.421189516591414223e-02,-2.592228240729448074e-02,1.208071016892303673e-02,6.108193790661321787e-02,1.026529043773142663e-01,4.229713659114802543e-02,7.722270636776021324e-02,5.357028727384206823e-02,-9.100486007329974163e-05,-5.955227241530457183e-02,4.237228830597887345e-03,7.370833356771559763e-02,-1.826330669370640480e-02,6.671903486515745607e-02,3.844790858204173711e-02,4.053527675690860727e-02,1.008789880725655258e-01,-4.378269072417349805e-02,-6.341338228183035497e-02,-6.146108289036401190e-02,3.201193983172920254e-02,3.162618759360359688e-02,8.565830669518206819e-02,-5.435504977977497626e-02,-1.376202494237211728e-02,6.810640989530342138e-02,-8.658902329193410297e-02,7.177771221963602510e-02,-6.697909183399770872e-02,-5.660361851669169081e-02,-4.326098992983383462e-02,-6.876193120817029880e-02,6.500669982046032580e-02,2.100055328979400990e-02,8.310749822262691877e-02,-3.555665857436608734e-02,-5.613228765597783748e-02,9.123879558929924583e-02,1.040348119597631626e-01,-4.642322149044048052e-02,-1.096370786562830867e-03,-5.052721833080963537e-02,5.137708775961488152e-03,1.043353525831013096e-02,-3.060624681939120434e-02,-4.250759465706609175e-02,-2.721621750196493057e-03,-7.104104156862069142e-02,4.760287909734718659e-02,1.026044720084027667e-01,9.439932396878995824e-02,2.493970341146730871e-02,-6.211203911843479752e-02,-1.205532623492544184e-02,-3.188526584508619144e-02,-3.903020720232049101e-02,2.424832032006181415e-02,4.702002813149481347e-02,4.986214894175746565e-02,-1.784904824678342286e-02,9.230409679406190171e-02,2.869741247676701676e-02,-2.518098388299215909e-02,5.411848846507404109e-02,3.655643098815247738e-02,6.433827167858013896e-02,1.285806902547062258e-01,1.169764310594822131e-02,8.302151442189915909e-02,-1.604684126825002555e-02,4.774649859392052220e-02,-6.921589409608044918e-02,-5.706074157588132689e-02,-4.535460175385123277e-02,-5.055401562815338423e-02,-8.952371379915150321e-03,-3.984482429041200091e-02,1.005661524135418872e-01,1.343875134184122633e-01,7.313019389536411230e-02,-1.973226599449807994e-02,1.362421013920265545e-01,2.689640540101403965e-02,4.306099861049107053e-02,4.058751853463933579e-02,1.367405669136086688e-01,1.242293110788520935e-02
-1.500977510159602901e-01,-3.475843174399376179e-02,8.667784379813657514e-02,2.108679102008235995e-01,5.929716141326259182e-02,7.206622707019674778e-02,1.626155772145095324e-01,2.989816464816414388e-01,2.251701310584571653e-02,1.105251019961675379e-01,1.145733697503110576e-01,1.154685365279989190e-01,2.111903210142284104e-01,-1.509423119398192459e-01,2.252305066598478400e-01,-2.582141092970173264e-03,-3.661524040454282314e-02,1.022820581133516288e-01,-2.360754293219805705e-02,-4.234261777414021627e-02,1.171733364703165248e-01,2.435462160124001185e-01,1.687586619881793482e-01,2.412129147447228394e-01,8.051510571955526607e-02,2.278645497526834152e-01,2.761648918651064544e-01,6.353273216420125824e-02,2.048790879712448221e-01,1.934635449232680326e-01,8.656021492190053845e-02,1.949713806180030928e-01,-1.195168206057030946e-01,8.326536205440954186e-02,1.342153762641782599e-01,2.712232525132069957e-02,7.860038237210073553e-02,3.357885212002280628e-01,3.393052495338831909e-01,1.651858515594679666e-01,1.875424870252249271e-02,-1.173046801045418558e-01,5.445480111389214978e-02,-1.104591886892538136e-02,1.676243956603515439e+00,1.378068944096797255e+00,3.711158129857665688e-01,5.983636378309320492e-02,1.911047371260952421e-01,2.105005387736532674e-01,2.995310068602149434e-01,1.084423628904687686e-01,1.443786510770030396e-01,2.966816794482386027e-02,-1.773907109763393775e-01,-4.281506861093982153e-01,-4.415405023129369277e-02,-8.930687341743220875e-02,-1.381426928043639202e-01,1.650127223565472090e-01,-6.629408473686353442e-01,1.097432297770147169e+00,-4.147790728909971775e-02,2.459861987815190054e-01,1.059783996953069352e+00,1.864026779156093383e+00,1.038602677642017191e+00,1.515223188852291569e+00,3.961130195106266072e-02,2.669172159350154394e-01,-1.209906487401324338e-01,-4.721172675633809185e-02,1.927567740416542830e-02,6.242896336111442707e-02,4.125055861702697085e-02,1.032166752736497634e-01,1.072139510217197944e-01,2.397429436874818076e-01,3.935409541489247043e-01,9.046999143869095816e-02,6.476547083233756552e-02,1.177107455221332311e-01,-2.185339335043288284e-02,-1.460948551214658921e-02,4.172214058409010051e-02,1.114868447451472372e-01,8.581830633555254106e-02,1.530360271498896162e-02,-5.867406332169129018e-02,3.124709330356076342e-02,2.434980884667851952e-01,6.280756524885744430e-02,1.648302266143303052e-01,-8.490568389717818854e-02,7.803226048308967155e-02,1.247463591652794856e-01,5.685351976164002008e-02,8.059364813434928554e-02,7.852237696103059328e-02,2.136476325839834489e-01,9.479935070337040109e-03,-7.169478493797898366e-02,4.367629601693257674e-02,-1.870732679709736224e-01,-1.777067667424751529e-01,8.027593984360945067e-02,7.894472691717743795e-02,-2.278540568533354849e-01,9.944085815320204136e-02,6.805555827007377101e-02,4.445076287856809111e-02,3.445467085351283654e-02,-8.878700579778506241e-02,-1.766142905119898535e-02,-3.670037389770502284e-02,3.568210220458960941e-02,-2.577297850156528777e-02,4.895579108053271788e-02,2.143054346863795118e-02,-5.487670723114578680e-02,1.164879333987474397e-01,8.375236721650733407e-02,8.261593696224640848e-02,6.183422793118081850e-02,1.077715051738205310e-01,8.311478490321980162e-02,-1.902877225334551406e-02,5.923922697058078835e-02,1.002934989563851464e-01,5.741090482417873092e-02,2.065772183792642311e-02,1.071620176276079639e-01,9.720993129850391545e-02,1.388656741092398894e-01,9.026206379797087342e-02,7.603975697312106291e-03,9.024173401585043608e-02,-1.081321079503632342e-02,1.673221656294741067e-01,2.339279421413958254e-02,-1.407007528757840964e-01,4.293741630818365129e-02,-2.529259123629612471e-02,8.639690438523196792e-02,2.799900016425076466e-01,2.663085693419131594e-02,-1.677219993912319740e-01,2.126628092952350668e-01,2.353419925389424738e-01,3.962340756844580092e-01,-3.797650338894704991e-02,1.375616720709290849e-02,2.164383683584548690e-01,1.520509901861350766e-01,2.164535318146699472e-01,2.951900091988708397e+00,3.542395819356395914e-01,1.467576192700412729e+00,5.104074509561924433e-01,6.767890156125676293e-02,-1.012421636262703789e-01,6.946929885054572984e-02,-1.377986720775510078e-02,-8.833473317882442610e-02,-2.656886145040228756e-02,4.036005638781815091e-02,-1.208356934065611538e-01,1.396704704099805024e-02,1.161406962854491104e-01,1.905124621685993780e-01,2.143182607796128292e-01,6.291119825825680634e-02,-1.177576717845675025e-01,6.279419451018315723e-02,2.643879864867353449e-02,9.306232150873963715e-02,-1.923804928875464185e-02,1.331826949902312207e-01,1.420498568725151074e-02,2.636899851680840068e-01,3.776490289953124413e-03,-4.509250168537900019e-03,-6.573312430941020967e-02,2.384381265978319925e-02,1.263364148954158606e-01,-2.378411147349993732e-02,9.349446080566274631e-02,-7.817177186795630506e-02,-1.770891775391524592e-01,-5.616655493686175532e-02
2.647729273067277525e-02,-8.015744491814887074e-02,6.775924565036066383e-02,7.332628832048947165e-02,-1.178396794083665794e-02,2.332844637387223100e-02,2.145978003337396800e-02,4.134848649878983262e-02,3.068446901133037395e-03,9.237518494191779284e-02,-8.400388478486463945e-03,3.870745922113848214e-02,1.851524717270485246e-02,-1.090701840427747427e-01,-1.366115044872511734e-03,4.974537561259045329e-04,-2.202390406981048071e-02,5.229039081996205394e-03,7.686123724532559209e-02,1.269364294720289055e-01,-3.609934822161486867e-02,-3.444295427947758476e-02,9.192591881312535407e-02,1.603766947845440549e-02,-3.524900843131328204e-02,-8.554367371340387480e-03,8.454735240853870903e-02,-2.974969713181449191e-02,-1.361174936319995039e-02,2.097359940148890017e-02,4.785312615595226082e-02,5.404942831223472077e-02,-1.095730319050105123e-01,-2.287727236066127920e-02,-5.971840948249121980e-04,-7.596428435724619788e-02,-8.417786420328532415e-02,-2.373448626863553651e-02,8.252317034495174064e-02,1.192949568190049270e-01,8.702522883190111358e-02,-3.752224030828712337e-02,2.574823382660454928e-03,6.580325211223526927e-02,1.140660412017763525e-01,2.047427799757025046e-01,5.731283362299444128e-02,3.385642253000801377e-02,4.660826315156062910e-02,2.305782401370029197e-02,-2.298024274620915144e-02,-6.392075637691395362e-02,-7.078566882162920515e-02,3.672051762793712010e-02,-2.951307931831490330e-02,-8.778979532421184173e-02,-2.092014680181186054e-02,-2.088173899595330563e-01,-1.020470346636171421e-01,-1.103456349315779100e-01,7.068235380381915345e-02,2.807335965543202860e-01,7.017972167683404761e-02,8.477811775149442231e-02,3.472940032415021139e-01,4.452286050029437559e-01,1.795404024954298239e-01,2.128514359348192830e-01,-8.426001933452666182e-02,1.075854256583139712e-01,-1.380131192945760477e-01,-6.167936971375690552e-02,-5.139203011458324394e-02,-3.598028914082176261e-02,5.664832823403587181e-02,6.537631153043135801e-02,-1.929799637601535903e-02,-4.533986284656667427e-03,-2.640236968260085276e-02,1.105428861225928872e-01,1.022784742619244902e-01,7.315054474869248091e-02,1.106648512155344183e-01,2.305463207563790157e-03,5.858072172960166607e-02,6.993899576243135796e-02,4.651386464137734905e-02,-8.416966785899522227e-03,7.220408902247095473e-02,8.303871998757203499e-02,3.454467586866086931e-02,5.134010603575012849e-02,1.538050275012477555e-02,-2.048755757470974853e-02,3.637514865826277366e-02,4.543716476208371075e-02,-3.241792550151639807e-02,1.639344535511565171e-02,5.826429417663933630e-02,-1.162419752607847245e-01,1.058663713167011348e-02,6.582641207452781529e-02,-2.067022275920805952e-02,5.345629966934463406e-02,1.900677310793057878e-02,-3.253089552450111333e-02,7.378260049236419482e-02,2.583475008446625004e-02,4.562928675429286235e-02,4.349845865257035565e-02,1.667740385587410459e-02,-6.916739611802150134e-02,-3.011714554481060083e-02,-1.900486152704911058e-02,5.546588888721010191e-02,2.366300864182425620e-02,6.327018920150659365e-02,-5.051297625770247157e-02,-4.433319711769233978e-02,-5.632834595682226914e-02,1.084383154649243564e-01,-7.233362715611918459e-02,-1.096715037536586355e-02,-2.369277628839609046e-02,-4.431226789624730100e-02,1.791143574243809350e-02,-4.113179399471710018e-02,4.937454414714462225e-02,-3.732100779819495090e-02,3.738617703519413193e-02,5.272844801602005055e-02,2.526005555040223421e-02,-3.352863340806352954e-02,5.183698742336762672e-02,4.009511865284270254e-02,4.342685204254277676e-02,-1.716284524038765302e-01,8.117035691763022087e-02,-1.467654745256968644e-02,5.382456125383516116e-02,-2.387758937783813692e-02,2.658503755941478072e-02,3.049288119972881628e-02,8.244542125877531158e-02,1.206566429265149426e-01,3.653187280230658918e-02,7.337002752257104632e-02,5.593063736731658867e-03,-1.221633834973699650e-02,1.121333569157655224e-01,-4.474235065369193409e-02,-7.121689950216479603e-02,-6.172582344370109581e-02,-9.272695286444274099e-02,7.189068349291197202e-02,-2.050963682881436490e-01,3.640650598974380259e+00,7.112861406765769168e-01,1.937215920002230696e-01,-2.549792353976036013e-02,6.412718460414193467e-02,4.522645749812170823e-02,-6.834795441548181805e-02,-5.899859776990418886e-02,8.328626396675335372e-03,6.739635524011855505e-02,1.600837706970957607e-03,-4.125992981486212297e-02,-2.184708872989415615e-02,-4.132059313905175890e-02,5.248431873204899983e-02,-3.890950779378645613e-03,1.765883252081390867e-02,-8.075680783281713460e-02,4.737047040502745388e-02,-5.805035914418317164e-05,2.644651379178873662e-03,1.985068553924900989e-02,2.499912627063938936e-02,-1.510747444463394866e-02,-4.944384718889720948e-02,-2.412024771853990210e-02,2.987687552369893557e-02,5.726873160396812185e-02,7.074773269353280825e-02,-3.842094142249823097e-02,-1.807936679785980549e-02,4.364749092799583008e-02,-1.174076149658808410e-01,1.878916115187022687e-02
1.121103961015333141e-02,3.973284903992395367e-02,7.204737618162619650e-02,-4.113556145231490879e-02,-2.507892312004428997e-02,3.344882069466269519e-03,-3.457414139515878337e-02,3.292155827440636229e-02,6.943021407511867915e-02,4.451962923136528610e-02,1.468346505549615773e-02,5.517146728304603807e-03,2.971252327114981984e-03,8.379234950312373920e-02,9.641268155556896591e-02,6.225458698862348234e-02,9.899658360519465392e-03,-3.008531910339797694e-02,1.454819160783968161e-03,5.339076706854877473e-03,2.005503481661429117e-03,9.370149077897958409e-03,-4.125322369912866327e-02,8.567132466295394877e-02,4.796552721244212031e-02,7.960544809117114928e-02,1.124973526727815060e-01,7.578815868159934077e-02,-2.039501666921483304e-03,3.014078982962290626e-02,2.730426147190823105e-02,1.209432413783285004e-01,3.628796509632604972e-02,4.563972427466642112e-02,4.415238474679290814e-02,1.098730005348627159e-03,2.126603561197983744e-02,2.674822446233223600e-02,4.727923472780090619e-02,1.050253119013521003e-01,2.576407633706346428e-02,7.125472992619022450e-02,1.333696054337132723e-02,-4.087488340511549051e-02,7.140016254158771947e-01,3.704180804944557925e-01,1.238187176818823371e-01,7.086832844573247303e-02,-4.012694226476587467e-02,6.278902947513312870e-03,1.177217549010446153e-02,6.468055677214290533e-02,-2.776601123548671016e-02,-6.953151708203213210e-02,8.233747549348672048e-04,7.395820647913237122e-02,1.561564637962659097e-01,-8.169757002472162466e-02,-1.572311397459905946e-01,1.214257255852515443e-03,-1.460713850553917448e-01,1.414633512006142069e-01,1.237476336654468184e-01,6.309592138080624690e-02,1.635756954162043697e-01,2.356889030999050338e-01,1.810196004842399287e-01,2.796487124598982521e-01,-4.036396677764748919e-02,1.845179703237252999e-01,2.579782927171562004e-02,7.296684943129350120e-03,-1.073630431454473434e-02,-5.446474453752434691e-02,-1.703288316058679946e-02,4.846455589170071965e-02,-2.577050661225919678e-02,5.533323152933149192e-02,2.612351363639780349e-02,3.200660657008486121e-02,-2.460759001779846619e-02,5.426256019476363712e-02,-3.726820488512618858e-03,-4.720326883640773782e-03,-3.138758146554925660e-02,4.163665959431266800e-02,1.055813982998006911e-01,5.654320745191073611e-02,-6.403207305819008308e-03,-1.604600607404011239e-02,5.499967181025720159e-02,7.875129882641448975e-02,1.006992260028735237e-01,8.195899804803045974e-02,-2.756265817683532099e-02,1.084123890557409375e-01,-1.296896751504741929e-02,-3.755001787568209431e-02,-8.708295944036572450e-03,1.116717725826896039e-02,4.531386597763955616e-03,9.490367772277623348e-03,1.165591314699021552e-02,5.023485495269247765e-03,-9.246883822853921298e-02,3.874311472970813630e-02,-3.237072535805758395e-03,2.515514345672147378e-01,7.651215262707901366e-02,8.198325597755569405e-02,-7.989232572596760562e-03,5.266508687859935284e-02,8.273652060093947269e-02,1.343569890338448120e-02,3.036551429565042745e-02,4.130764726507932944e-02,6.155751566048336954e-02,2.329687559252549556e-02,-2.092242877724290184e-03,-4.916174433339556664e-03,5.335715628784750558e-02,-3.705170098809245499e-02,3.486518949133678158e-02,1.047610769500983696e-01,5.207241932081323188e-02,-2.188550002246201012e-02,-2.171709486782725726e-02,9.684829644417700112e-02,2.765735739702123233e-02,7.587686259098536633e-03,1.486579647761206158e-02,6.378276117931611089e-02,5.139435518120667387e-03,6.774556847863132114e-02,3.329986984949388079e-02,-7.657187132207541984e-03,-5.201427567766205018e-02,3.849245142346813860e-03,-5.357346360788067634e-03,4.822270024754569256e-02,-1.666313307856653533e-02,-7.995013396122907512e-03,6.250333895767130887e-02,-1.183798314587022719e-02,7.434795445642075618e-02,4.874104720908513377e-02,9.130632534408721079e-02,7.208132752361476325e-02,2.268577791677022296e-02,1.428557572190666536e-01,1.002565345499390262e-02,4.110189657076224884e-02,7.151150390556360037e-02,1.084386221497645464e-01,-4.617123905630644842e-02,-2.984674715138110335e-01,9.540663181063195608e-02,1.949394994754872767e+00,2.160880964932128112e-01,5.101281843240389885e-02,-2.485314150251386953e-02,-3.849898732647700356e-02,1.047008454192297454e-02,-2.568860233015615030e-02,-5.585923395204801106e-02,4.482209082631374159e-02,1.269403327092665824e-02,-8.264507266386515727e-02,3.450958041175178348e-02,-4.020345387543444032e-02,3.068075636756602276e-02,-2.756493797999351458e-02,6.770200959933272977e-02,1.005500452042288051e-01,6.369688182322851000e-02,9.636431266592664080e-02,-5.858176652684358998e-02,-5.664197279368057489e-03,3.553757897486196915e-02,5.859740251079534334e-02,5.109684071299018526e-02,1.108321396010461396e-01,1.637983099304506363e-01,4.472008792103272096e-02,1.383571390922626321e-01,4.077110273183587319e-02,2.129757010546796947e-02,3.038582812422420051e-02,-3.512096007209483672e-02,6.929875721528652721e-02
2.930119273843450473e-02,-1.267528555625294928e-01,7.163059231767360258e-02,8.913863514194919624e-02,-5.922500649281190258e-03,1.046891210155909413e-01,9.041793197443592084e-03,-3.391098975958647260e-02,-5.098443397138664041e-02,1.208424082895314389e-01,-2.633283236091766774e-02,-6.306960820625300695e-03,-2.121626993118489249e-02,-1.685498105545357034e-02,-4.872091317024842628e-04,6.511058835440233783e-02,5.769555851399391089e-02,2.896959793286135385e-02,-6.630032622549326959e-02,2.946111707154495940e-02,9.911185792943842665e-02,6.559383975698548919e-02,6.764501278053369759e-02,2.273408939854174859e-01,-2.272127826683016660e-02,6.201221954197692898e-03,9.467099064589200308e-02,-3.966724241492141506e-02,-1.221572725268755821e-01,-4.304204554726922399e-02,-1.184505912497015034e-01,7.863740874503206968e-02,-2.117866886310217772e-02,-3.613251311345832412e-02,-5.022528707904521305e-04,-2.477967194698249206e-02,-6.248802813021626240e-02,6.057324861965174972e-02,-1.289891294197304805e-01,1.330311034154808281e-01,-1.623764085192006337e-02,-1.910901953695182814e-02,9.095185481034925856e-02,4.562009401095462602e-02,-3.039839875554302129e-01,1.770608122948486463e+00,3.125960059510533851e-02,3.705435206524786140e-02,1.515820939205648754e-01,5.923704726351457922e-02,1.270311840062552655e-01,6.863210244061251908e-02,7.689779679226719025e-03,2.727666363293703225e-02,1.049732412124853020e-01,1.416714382359739455e-01,-2.670948778928539796e-02,-3.415957961211309873e-02,8.647665132211337924e-02,-1.930391938091224543e-02,4.783419143397767137e-02,-3.631616620529976719e-02,-2.109123387731010393e-02,-7.022570165658459374e-02,1.891917526512805481e-01,3.435569977983048418e-01,2.043486315297948427e-02,7.239799636692652307e-02,-5.014944514233014156e-02,8.840841055682641114e-02,1.094807194842259551e-01,-6.633748373008722075e-03,-1.176301497882973335e-01,-8.214113741742602726e-02,5.136556774655123142e-02,9.772153163077279547e-02,7.802313539384786792e-03,1.084258015420524607e-01,-6.483922122154689438e-02,8.487095193048097008e-02,-7.144398064794267589e-02,2.083590004097175818e-02,-5.074420687336946532e-03,-1.095758556949416873e-01,5.077130766216505359e-02,8.104978979633623015e-02,1.388718412295651405e-01,5.128820927931778545e-02,4.640310877817994256e-02,3.946301259260137639e-02,1.076747380275168281e-01,-2.248445043003632904e-02,9.987084322080040655e-02,2.102463164998106052e-02,7.011783707749331962e-02,1.237498658813181440e-01,-1.565191831572654638e-02,-8.304215512249493725e-02,6.707945925013984734e-02,-8.411315923538714712e-02,-4.857662224776973514e-02,-8.397129896037357211e-02,5.388053412357669131e-02,-1.062718247682200023e-01,-1.316563516617937357e-01,-9.465485718842260587e-02,9.947431701599014631e-03,-9.365066323172768770e-02,6.686558588506590073e-02,5.863398541188426238e-02,7.953509338064433665e-02,-5.548345804987168256e-02,3.330039837419859761e-02,6.559749846047065180e-02,3.077901660305419618e-02,-4.142345825114032015e-02,-2.490836913673311406e-02,-1.398921599445824282e-01,1.235819803281797136e-02,-4.739708151956052717e-02,4.997771647237254922e-02,5.889146718586646401e-03,2.651354142047664120e-02,3.614630381502134324e-03,1.051937518300341892e-02,1.302757730764816761e-02,-1.816682799657507938e-02,9.869621308914734367e-03,3.265993521611208067e-02,1.388883051735240182e-01,1.558601185277155021e-01,-2.125833394301544499e-01,-6.968825284130265862e-02,1.192631541817493757e-01,1.370951697239746192e-01,8.593890685400797091e-02,-6.040437646430430602e-02,6.122415727438915850e-02,2.514601441475130053e-02,9.165482773755166679e-02,8.004011659265403145e-02,1.206281300804681531e-02,4.450532359351623210e-03,6.895433247596699511e-02,1.039824531930095691e-01,1.147857608916785510e-01,-4.911107142673101084e-02,3.231176001545921217e-02,9.817762543524843899e-03,2.289153594957871532e-02,-9.120610676824687790e-02,8.466413175717554807e-02,1.733803034789353215e-01,9.854668402101711758e-03,-1.725642245801384811e-01,2.464414135638214390e-02,1.290789229889524603e-03,-4.912724487702916365e-01,2.715065014902058760e+00,4.904606537525638132e-02,-1.242379459918772910e-02,1.099625297921625194e-01,2.047467656694651125e-02,-1.187330690591382604e-01,3.286648806830465980e-02,-3.038580050456644172e-02,-2.050414508733375274e-03,6.165296809760077018e-02,1.118170656199129337e-01,1.118794266399416037e-01,6.312217120635828238e-02,1.333913412011266952e-01,5.826556570018237569e-02,1.247202391435045243e-01,1.338525333161030562e-01,4.920457258364404479e-02,1.736587633760835470e-01,9.026915584612626997e-02,-1.747042980804810672e-02,1.805726671215798556e-03,2.492209109877082177e-02,-6.133061849660694648e-02,-2.863428936229557922e-02,-7.679637749519696577e-02,1.892354196899480312e-02,3.304918493712850902e-02,3.903168178395722936e-03,4.530996700902539115e-02,-2.838841617004211979e-03,6.090380094599660843e-03
2.626873497687861898e-03,-7.272071464904893145e-02,-2.302607928325085124e-03,-1.724675693026968271e-02,-4.659690556925779464e-02,-7.334499189453803913e-02,-3.456812228694712552e-02,-2.718291397500673806e-02,3.825537450786441196e-02,-6.520880931337705300e-02,-1.954336603520151136e-02,-4.511634703164663085e-02,-3.542775919146902430e-02,6.595818450519200238e-02,-4.086492986125855290e-04,8.608798311031085231e-06,-7.326479317192160015e-04,4.965058928977470615e-02,3.863094359893367788e-03,3.583939266478942953e-02,-4.426643295634617725e-02,8.532104348480491415e-03,7.573685355920223294e-02,-1.125883390388213307e-01,-6.882769627760948472e-02,-1.972295624145796455e-02,2.905701399020988677e-03,-9.600271337984902717e-03,-4.534293601655525752e-02,-5.864754818061036074e-02,1.416503519091296959e-01,-6.166127079522390475e-02,-2.254074295883714760e-02,1.025302968606141459e-02,-1.303407461156845006e-02,-4.004969750977004778e-02,4.427953273602888706e-03,-1.868533140556130970e-02,3.084181904546272682e-02,5.201373869234993813e-02,4.215241413560931460e-02,6.742088971601992685e-03,6.747747488059676127e-03,-1.165976938347194486e-01,9.062689979672562679e-02,-6.568438353831224097e-02,-1.717983115406561678e-01,-8.219516589000668005e-02,7.536214128017847125e-02,-8.561446400848237749e-04,-6.757176485470890726e-02,-1.134096145715258047e-01,-1.171192079236838685e-01,-3.258334098864644479e-02,-1.575337735329452316e-01,-2.575740505973376365e-02,1.613949587801619470e-02,-1.416242479780309149e-01,-5.934973035360532889e-02,-3.637438937977695991e-02,1.731045314860899520e-01,2.503315803950946772e-01,1.772535292252311045e-01,1.115169661194423678e-01,2.595555339479047041e-01,-1.961569998512451840e-01,9.512572314306354249e-02,8.683868002459941282e-01,5.716230151767435347e-02,-2.197080134008553773e-02,-6.263912592700125737e-02,-7.045480682750519807e-02,-1.001167835321251504e-01,2.593814207381072573e-02,-3.414719632248732623e-02,-2.901554941912881658e-02,-5.060618209032066717e-02,-2.232671790722608185e-02,5.028821834513429873e-02,-2.169643087085387778e-01,-1.661412064169142874e-02,-7.166368851831268066e-03,-7.387848992835863160e-02,-9.286367540745284199e-02,-5.502583129668000422e-02,-6.248924633798870476e-03,4.200009805235592822e-03,-1.108888132461753433e-02,-3.318558575660617710e-02,2.045436633425076756e-02,-7.186816169429299968e-03,-1.597414361224364782e-02,3.025345612367251469e-02,1.938285960119070367e-02,-1.122230356820963504e-02,2.025396275686290257e-02,-3.635993062105333240e-02,-2.211834657717564462e-02,-4.965872171233483290e-02,2.170178589838616875e-02,-3.552265172620048227e-03,-2.070265015625275679e-02,-1.735699386833820107e-02,-6.838952138185060148e-02,1.834495189354151332e-02,-5.152174453801298265e-02,-1.934743572407065723e-02,-4.310741638283519667e-02,-6.320197430404729706e-03,-1.939608660589199965e-02,-6.100021146333900468e-02,-8.739713586236919074e-02,-1.308807193363327286e-02,-4.692427114750485906e-02,-6.140798379875192503e-02,-3.072585076634324480e-02,-5.265012306758391075e-02,-3.538238503754680825e-02,1.564390551713365843e-02,-1.147338175985896346e-02,-2.041211506733767861e-02,-7.652799047385353513e-03,-2.548500684541851399e-02,-3.043572764761207777e-02,-2.689616639251028729e-02,-7.304692172074922496e-02,-1.382201998803887777e-02,-3.719277085761019119e-02,-2.528354992513904415e-02,-3.493729702038569918e-02,-2.551995728018438547e-02,-1.719823561954168453e-02,-6.851347834342591536e-02,-1.564582900731402437e-02,3.177087574126076508e-02,-2.918310352660537926e-02,-7.597521276796188883e-02,-3.020680150748577403e-02,-5.066883150626101673e-02,-5.677477738949032737e-02,-8.301952423977367046e-02,-3.812368386148674154e-02,-6.743073301045908463e-02,-9.599983517789123511e-02,5.598607420732064008e-03,-2.385525363088177725e-02,2.201309611659674204e-02,-1.817669224649687623e-02,-5.928238198432420752e-02,-2.430908270931121315e-02,-2.582312605965923769e-02,-5.433312175654680248e-02,-1.303443379075698294e-01,-1.123338574868063544e-01,7.334830952599459032e-03,-1.535224067128002079e-01,-1.129120320857841947e-01,1.708147051767753763e-02,-1.178776659538764982e-01,-1.139883633587436551e-01,-1.806974249383691208e-02,-1.367065830576825406e-03,-2.595006662651578797e-02,6.328272558219250575e-03,-3.121841791708236669e-02,-2.562108648961121740e-02,-6.667109120154091073e-02,-1.887862909789185875e-02,-2.266405062756166391e-02,-3.449584264910508097e-02,-7.783408897399715642e-02,-7.181342881609389939e-02,-8.088709865373137908e-02,-4.686843707894385730e-02,-8.206983031061998446e-02,5.044777787994562251e-03,-5.211621176012651291e-02,2.074519514249886787e-02,-5.644918819978095303e-02,-6.694569722963771008e-02,-9.576031713624301445e-02,-9.437737250288526225e-02,-7.140724971867995138e-03,2.024035800627458151e-02,-6.925996362792086192e-02,-4.711399008702502056e-02,4.755942001657512824e-02,6.124275254775730232e-02,-7.329468034450734026e-02,5.369125089438503418e-02
1.871885292381719051e-02,3.333441779131790517e-02,1.392437595525189420e-01,-5.823478144489401681e-02,-2.519878414302689513e-03,7.871508331922408286e-02,-3.496746216596511442e-02,-1.471365368646550265e-02,3.782928328108164234e-02,-8.107964944412221443e-04,9.854795299822155519e-02,-3.495349657215007094e-02,7.093892154611760974e-03,-3.204439660814201174e-02,4.014719137795733778e-02,-2.754240236447822940e-02,2.516730113834119917e-02,-4.316867569556087636e-02,-4.700455878370615737e-02,2.314135524045668121e-02,2.853156673960692211e-02,-1.498894517756849294e-02,-5.952070156030588033e-02,1.979201814691197714e-02,4.407434047146314288e-02,-3.264859394627956778e-03,7.506225178729906793e-03,1.079703617069396188e-02,-3.397452944036834926e-02,4.226247134503596792e-02,-4.667296105822527639e-04,5.425988661314924688e-02,8.617055219354486165e-03,7.440140019209089128e-02,-6.292421766206718337e-02,1.299422666873477003e-02,-2.783468802545806600e-03,-3.533756566117066122e-02,-8.088217683637217992e-02,1.950387161446001660e-02,-5.018100862752992476e-03,4.871468386877569889e-02,-4.014269664468456816e-02,-2.944528577107045214e-02,1.607849770967570702e-01,1.612037633669126946e-01,4.578572493463976545e-01,2.596049533110273214e-02,3.167198978232825535e-02,5.446953863596729756e-02,3.614752380172754544e-03,3.258752401526651080e-03,-1.320468799912186408e-01,3.587850241401636942e-02,1.753498771148186836e-02,1.344125999865655730e-01,-5.258626025404723736e-02,-5.217552354205188397e-02,2.592543711674199711e-02,-3.571112908449875639e-02,2.024783303439137427e-01,1.278078587136335653e-01,1.122385950879166705e-01,1.605836611202668129e-01,4.033713666550685639e-01,2.418102403883003459e-01,-5.807195440978348694e-03,1.236217615440646123e+00,3.986123865017396350e-01,1.768791687447213434e-01,1.019101371226351221e-01,7.100037611573455087e-02,-4.374388319288009808e-02,8.864038757420637793e-02,-1.280911334663118600e-02,7.855492479423925589e-02,-5.500218245915097781e-02,-6.517077790089613985e-03,5.837207819852753554e-02,-2.203225116729436717e-01,1.450541671762344831e-01,6.648267351034031769e-02,5.395305208801395164e-02,6.633807774570844862e-02,3.371532209412717723e-02,7.549503401393156676e-02,6.270308373462597784e-02,-6.223083659487864405e-02,-4.146418486471575848e-02,1.359634283163376756e-01,2.942407384633973638e-02,-1.961706042345331968e-02,-1.686053611980074807e-02,-6.715091761358750466e-02,-1.828050097010081726e-02,5.178555291069471267e-02,-6.262737934180263866e-02,2.451525472858039414e-02,4.638707924505625774e-02,8.412294612551690642e-02,6.074899043375368846e-02,2.839117900698798561e-02,-4.020426479581989260e-02,2.505286092579883314e-02,8.935046431418632029e-03,1.259906271086944640e-01,7.217734955346277737e-02,-8.979650642071099198e-02,7.457456081226282452e-02,4.708025939217978795e-02,3.746398162877161153e-02,-2.126105464098463141e-02,1.086178254838531670e-02,4.945146435525665102e-02,-8.255089413237057250e-02,5.997145149707282762e-03,5.369741211040599677e-02,3.016187417666969448e-02,5.768544909180432084e-02,1.718687194282941463e-02,-2.656566573992446417e-02,1.049902845506794080e-01,6.995804506668659717e-02,8.206360948645216591e-02,3.425415119527206592e-02,-2.468196134176872322e-02,3.877703954817456750e-02,9.529660657747400510e-02,-1.668101618854820820e-02,-1.515256869116451272e-02,1.191557848863409284e-02,5.317036600855437611e-02,-2.553585513705371873e-02,6.831560670532561830e-02,8.418616173919679646e-02,2.432001397883202382e-02,-5.580995269224495181e-02,1.050301920867842756e-02,4.154441878143867728e-02,-2.399716284964468690e-02,-5.019680808311412223e-02,2.385095099212624845e-02,3.879988565718688748e-02,4.945223410946977816e-02,8.759605162912692533e-02,7.537420653755301514e-02,7.943794877623550077e-02,-2.686325704764159356e-02,1.937270037319567192e-02,1.174684192302779227e-02,2.755633848540871636e-03,-7.606970946945156194e-03,3.600645645829892577e-02,6.266799770365974465e-02,5.583434044248302558e-02,-1.959232240347132392e-01,-4.776651723845282832e-02,2.505286261222237076e-01,3.422391329287682860e-01,4.006003413681091807e-01,1.333270017526371753e-01,8.762254444178056711e-02,8.271767396956541951e-02,4.101532493455160855e-02,7.107853987112874861e-02,7.031735387267686044e-02,-1.460851747036792485e-02,7.131335054487275560e-02,3.506758087287859676e-02,-1.297715145571664425e-02,-1.308186935760638769e-01,2.783565468729740783e-02,4.636266944462977442e-03,2.603909640749930629e-02,6.418302504906692185e-02,2.837098358616206226e-02,5.606532193695867167e-02,4.783575245319321434e-02,2.975307732166304620e-02,4.177548750276607881e-02,1.471587274960893810e-01,1.805659346773887119e-01,-4.668265717368733081e-02,-4.817005891389831290e-02,-2.321888977577881569e-02,3.106095420180497724e-02,4.259562941438575778e-02,-7.886732314402702254e-03,-1.778686884751565223e-02,1.234765325812209880e-01
