-1.319439918580207066e-02,-2.269530174985306265e-02,-6.580276370270725893e-03,-6.675756593979610860e-03,9.082955413601904657e-03,9.443160701674476257e-03,-1.350770557497276564e-02,-2.195427948855172701e-02,-7.852951911221529163e-03,-2.417594207428083383e-02,-1.452846197761359891e-02,8.488223212139156537e-03,-7.674912961958246446e-03,2.274675541604536701e-03,-2.649404854898307262e-03,-2.226508458580297306e-02,2.168494247543134839e-03,3.561657360327715773e-03,-2.133447048726977435e-02,-5.575827149686925395e-03,6.406266720640867163e-04,-1.401327552517602978e-02,-1.392788561606528308e-02,-2.352474651237282388e-02,6.202288401802507310e-03,4.567607033743900473e-03,-6.185082756296631824e-03,-1.613674323071481948e-03,-6.121016558821298220e-03,8.362802939232805155e-03,1.727794082680484886e-02,8.388957440778617436e-03,-9.126798675470998781e-03,-7.805920522100052474e-03,-2.720316451088946458e-02,-1.267476312986011953e-02,4.179954155156175716e-03,1.075326851130692374e-02,-1.064270535600759376e-02,8.584462375440903145e-05,1.648910553221504330e-02,-1.277361138355231560e-02,-1.632192217692754466e-02,-8.311017985143382206e-03,-2.451775360785415220e-03,-6.418991469964390297e-04,-1.130520507385788381e-02,-6.729969860067899420e-03,-7.941976089990003193e-03,-1.327273293032012191e-02,7.729669247782040321e-03,-2.020731634483368538e-02,-7.179472762925198821e-03,-1.004180847935041802e-02,-2.328478201784359766e-03,-1.382159527912135222e-03,7.868341395163156587e-03,2.799536354480892941e-02,6.094441739468243503e-03,-3.431301129786968381e-03,-1.382084180702298701e-02,-9.294402105369527559e-03,-2.613370993355383295e-02,-1.597917588252688662e-02,-1.429033276507117763e-02,-2.145101434869651352e-02,-1.061957260288372805e-02,-1.125704635408305253e-02,-1.894851776992230452e-02,-1.480400366817513462e-02,-1.740691132257386059e-02,-1.733203711531929037e-02,-1.125501765109276908e-02,-2.517181941784589136e-02,-2.243534397988366721e-02,-1.084573729038238767e-02,-1.635517157501033270e-02,-5.069537258823204884e-04,-9.975458580553692341e-04,-1.530127686842603241e-03,-9.427065317055746338e-03,-7.517557189593650040e-03,-3.239599191046057571e-03,-6.098088207475369123e-03,-1.401071736662096515e-02,-2.593645452794447748e-02,-2.760701935194614931e-02,-2.001811735997045469e-02,-2.488857615008846155e-02,-3.648418080190801542e-03,1.032267808466568425e-02,6.584091378413158696e-03,-7.044564096402528876e-03,-2.672714291999039871e-02,-1.750664324778523906e-02,-1.304682518114059879e-02,-6.199338801396226707e-03,-1.133965803006761579e-02,-7.003070358612497465e-03,5.861193367840185180e-03,-1.448645104377971164e-02,-1.277396651546002480e-02,9.538006283584617509e-03,5.376944475759859281e-03,-1.167934081824727535e-02,-9.334314804536137170e-03,-1.096240243471443589e-03,3.055138559561651566e-03,4.360758569236072510e-03,-4.382824210740160140e-03,-9.894220910248108236e-03,-9.388284946417493199e-03,2.196998556266184944e-03,-1.594034157474673308e-02,7.030256121724802465e-03,1.338428169982266817e-02,1.419717009419628083e-03,1.198401006008024136e-03,-1.038484754347084385e-02,-1.355628588709279457e-02,-6.562339337474193922e-03,-2.017722602553661052e-03,-6.580709338779297708e-03,-3.796822675885934070e-03,-1.001660933781623429e-02,6.225817422385732970e-03,-6.547754672960992735e-03,1.586170476030081267e-02,-6.265983498647732623e-03,-2.020529323724721757e-02,-1.931934948515634867e-02,-1.323739118505442083e-02,-1.100100593768823555e-02,6.248140958859918666e-03,-3.385152466389373949e-02,-1.978475112193407368e-02,3.395989547403005515e-02,-1.811849048865736556e-02,-8.786301737378108059e-03,-1.970269076980545389e-02,-5.014418654158493520e-03,-5.246649620053154585e-03,-1.630374510016677561e-02,6.881980093567966958e-03,-3.185791498736916666e-02,-1.767955225068818317e-02,-4.636924779042966155e-02,1.008648905674547694e-02,6.603714364176550833e-02,1.023863920204889401e-02,-2.083867117397170208e-03,1.728549677445443203e-02,-1.720411904124238833e-02,-1.531395329530829165e-02,-2.041834101695441314e-03,-2.723388006451789994e-02,-5.632910147943529476e-03,-1.969857497224824366e-02,-1.940193595283557990e-02,-1.651359708974691615e-02,-3.806536193934310572e-03,-3.934299111993029043e-03,6.660069032137738883e-03,-1.663942142124198026e-02,4.687913813157543186e-02,-9.273831036339753864e-03,-1.453601127548205703e-02,-7.214480276591538066e-02,-6.239940179476869547e-02,-7.899779910238079184e-02,-2.510809669458137147e-02,1.838475683484128674e-03,-2.725721841332231360e-02,-5.551352734345819245e-02,-5.023465874684723137e-02,8.789153778389893409e-03,-1.204108729789348832e-02,-1.789671670367837253e-02
8.223636278742317562e-02,4.952252216707227900e-02,5.219247244031199884e-02,1.429280607762715809e-02,-1.095255144360502905e-02,-3.000235000232138929e-03,4.897374071906590576e-02,-7.445450872378724105e-02,2.518774351671155751e-02,-6.915236585949416370e-02,2.361245575247424011e-02,1.066720753320875986e-02,7.113643478798727451e-03,-6.536571531223550526e-04,3.104695091447973870e-02,2.845083167412825603e-02,-8.297237692546942378e-02,3.276475610960596918e-02,1.343191841935909535e-02,1.589154817377238724e-02,-2.068512553595813069e-02,-2.480316093093989536e-04,1.214761434886229077e-02,1.986238518346467377e-02,1.111628181641052295e-02,2.734134002687415785e-02,-2.533399264585117251e-03,1.458581885410361288e-02,2.472614747643664401e-02,3.196348161516267966e-02,2.188958272913079511e-02,6.002786209034235640e-03,-3.778415532993154632e-03,4.808923900631600218e-03,-2.094009305897657006e-02,2.469642690393921911e-03,2.082298979290924616e-03,-7.443275939053650876e-03,1.940781177453190093e-02,1.063035274565216851e-03,4.103616240679736071e-02,1.871836068522826635e-02,6.480166074926447736e-03,-1.066956818734026737e-02,6.945079143629189107e-03,7.509313832960444468e-02,1.073882942814417818e-02,-3.019835599712919136e-02,4.780776260628692709e-03,2.153319568338667514e-02,5.242861476398591458e-02,-6.220440007911485353e-02,2.595732030287994929e-02,3.066786481498200503e-02,4.710064118310951925e-02,1.957396618861600296e-02,-8.036512601701758726e-03,6.008702390616810912e-03,-2.628793340479005508e-02,2.684592577108638189e-03,-1.967426323502652601e-03,2.777974356308044943e-02,-4.535997733609088006e-02,-1.861040493524988848e-02,-4.932831710175057671e-02,1.124346498130149828e-02,3.997331510845994647e-03,5.858622008811699595e-03,2.484307983317071006e-02,2.773912256881596629e-04,-6.876392198806388634e-02,1.812324300245560238e-02,-2.123032502821748865e-02,4.485736919386136556e-02,1.410094783783320468e-02,-4.684262907533185555e-03,4.075380770395294061e-02,-5.727725018710440666e-03,-6.112991075380399750e-03,-1.524478193867398815e-02,4.888026137831903012e-02,3.755926193028130688e-02,1.870074862386675654e-02,-1.717655913251012797e-03,-5.324404882718789152e-03,4.111982751232205052e-02,1.035944071250286154e-02,1.015327851844824610e-02,2.711854402405919004e-02,1.228816207024113977e-03,3.431869666517842893e-02,2.460402171899907578e-02,2.657428079386403921e-02,-9.681625392679275507e-03,7.246937249833906337e-03,6.797873996485433515e-03,4.589982056069544236e-02,-8.844675967519692594e-02,1.642805937349618023e-02,-6.922293488751524171e-02,4.267039390460920095e-02,-3.087766279317234047e-02,-8.369366005811841591e-02,6.587613657685750454e-03,2.158516553117676220e-02,-6.889911838972260019e-03,6.653451801431192747e-02,1.239145308983180885e-02,2.102990489534281582e-02,-8.872366727241459347e-03,-2.707088295502969606e-03,2.669383668093853329e-02,-1.260659983586522558e-02,5.004078077398903604e-03,2.488879149474441943e-02,1.064431970312498116e-02,-5.687576616326498261e-03,3.152712232208476628e-02,-2.456667473789590078e-03,-3.101824644920078266e-03,1.479504027796725400e-02,2.905887273432626941e-02,-1.782136408697349711e-02,2.376412699771202411e-02,2.186599404170179103e-02,-4.868335975204837046e-02,2.850426065449462865e-02,2.014434656823645142e-02,3.826598553846351225e-03,-1.028283162285186132e-02,2.070433140950140791e-02,5.678925368238017801e-03,-6.286747266683080648e-03,5.096300352905172582e-02,-2.893454917480768260e-02,-7.542985037770177925e-03,-1.360814026155636805e-02,2.900544144711178062e-03,1.453230662909190535e-02,1.637209003794252646e-02,1.878050620848533553e-02,3.064072681688179145e-01,1.919055147434894568e-02,1.614130039101901171e-01,-2.219835255546216690e-02,-4.134364270347269665e-02,-2.112795682428218400e-02,3.117732291476600984e-02,-1.021352758000555402e-02,-3.134228256003285945e-02,-6.769375031103587806e-03,1.439605817548534339e-01,-1.731353012289628748e-02,-1.429443853797255151e-02,3.541875183043309561e-02,1.603017980784247065e-01,7.192288049010568673e-02,1.184896008706489701e-01,6.530457259962264838e-02,2.086112342342457543e-02,6.702124783766587324e-02,1.183499221550639302e-01,4.191479829441215749e-02,2.765519757799643139e-02,5.989614815138369006e-04,3.141297466689334239e-02,-7.112568629233836925e-02,-1.851499843520003075e-01,3.520378843497819210e-02,-1.404313080083421407e-02,5.874038257317069911e-02,7.603422362030921866e-02,-1.237744005593451047e-02,-3.824209740358004012e-02,4.942801759345418627e-02,8.858948737412994379e-02,1.253478432723934277e-01,5.832667835219053354e-02
-1.371957579869781917e-02,-1.235069023712815767e-01,3.343868625013028673e-02,2.688276741830097211e-02,-5.250075821331653611e-03,-7.505938991149757600e-02,-6.781327025834556210e-02,-2.492685430783365269e-02,-3.861563563492224904e-02,-2.396049205859331413e-02,-1.315126309535204555e-02,-1.966298701137357205e-02,-5.291193527431572834e-03,9.972436072134415949e-03,4.212154818761265629e-02,1.042084656759793317e-02,-2.685997418359177547e-02,-2.516976870280050044e-02,-5.091656700199583691e-02,2.208011338774702390e-02,1.462484901856962900e-02,3.079880833163806120e-02,1.150605973966023574e-03,1.332116754925786973e-03,-2.319754646802949308e-02,-2.339663756542301534e-02,3.517800328093159679e-02,1.898138078266861650e-02,-2.786646610916020464e-02,-3.339907799146289713e-02,2.311397559582371516e-02,1.409018627363179711e-02,-1.923742304541144893e-02,2.369463873045103350e-02,-1.397195224143194187e-03,-1.820039387602752010e-02,2.513432938744943751e-02,-7.112174128958617843e-03,-1.475443540084293154e-02,-3.763158159412714212e-04,2.673536306225097331e-02,1.315463552765687959e-02,-7.889311932331699020e-04,-2.924338453666269766e-02,3.591886397406464804e-03,6.805369055989903600e-04,-5.836235986903629295e-04,-2.950985337127938566e-03,2.920331280272416355e-02,2.276419221228326989e-02,7.794113521071635575e-03,-3.080974472312405978e-03,1.218869770797540580e-02,1.375461853432672493e-02,-2.584541268435521649e-02,1.866352108465174284e-02,2.682930534050013277e-02,-1.781981083282313874e-02,-4.024601688960642056e-03,3.747829694322751121e-02,1.370284613986247173e-02,2.970400486082403618e-02,-7.931351572654061002e-03,5.993034823856109583e-03,1.866989914637478751e-02,9.603677645317845897e-05,-1.760514807047999439e-02,-3.230358584185332501e-03,7.447712833862340717e-03,2.073415667720888630e-02,-9.914870575308057377e-03,-1.605645544148143200e-02,1.586661591177428512e-02,7.804997228396594322e-03,-3.048000301277678514e-03,1.357968342273881655e-02,-2.511421985170668794e-02,2.061321800503694915e-02,-1.577006732125718624e-02,5.179007370155826358e-03,-7.792779566626959441e-03,3.345451197300198468e-04,-1.414205916114268970e-02,-5.064368420029342552e-03,-1.605550334797547455e-04,7.117733121185649409e-03,-4.062678043793496035e-02,-1.069206306427450577e-02,2.054804363934896808e-02,-7.128497057671515265e-03,-1.323891677226933170e-02,5.974424167208456163e-03,-5.629564924747404615e-03,-5.024578995836178480e-02,1.202505216546873035e-02,-8.368138111798345546e-03,3.628352404996093572e-02,-3.227309420617309032e-03,1.367748777181933099e-02,-3.904953737267979202e-02,-5.275008462428109127e-03,2.007330486438328385e-02,-3.364364858130621146e-03,2.037799314228457351e-02,3.301220462760039859e-02,-1.459605791497948189e-02,-9.165478122233151892e-03,2.937425471513286854e-02,-1.315725528761796555e-02,1.865268791612364335e-02,1.108044938684927920e-02,1.854627419802046956e-02,-5.285925819769690844e-03,-3.684538404885826651e-02,2.489374042093450007e-02,6.383991071795148270e-04,2.450968911104347420e-02,3.436627034167258343e-02,-2.861219336102817151e-04,6.871146245332722738e-03,1.595011211276542440e-02,-1.943764298190706410e-02,3.389787552134869951e-03,-4.847765158814374385e-03,2.311030063825015787e-02,-2.811408751366986994e-02,2.052037042479351592e-02,1.121011957734200336e-02,1.188361208198650786e-02,-1.931266192128372472e-02,-9.221179345533099883e-03,2.548195855542595770e-02,-1.876939576409193677e-02,-4.141303066749955214e-03,-9.492677348173139337e-03,2.669542341944408127e-03,3.711773275968040936e-02,2.414871174500328802e-02,1.508900546884680421e-02,-3.150817655606523437e-02,2.393055302982717916e-02,8.039171729770165642e-02,2.241515006835576723e-02,9.098343454840731107e-03,-4.414781974156736094e-02,-2.122297389085481961e-02,3.366334722285291986e-02,-1.371519332894568372e-02,-2.869562613130567305e-02,-1.281419955213984358e-04,2.354252231607102674e-02,2.883137595336220799e-02,1.386752771927008895e-02,1.905105774411935959e-02,-1.471299710091379144e-02,9.099882943919522515e-03,2.616842005408169872e-03,-1.264174821261305690e-02,3.080222512316531033e-02,7.708448710676166042e-03,-5.528187317563026948e-02,4.739269921135573493e-02,1.174651435480290190e-01,5.891606637441006156e-02,2.289806037753289517e-02,4.986059570607125763e-02,8.782861819455661800e-02,-2.256001264204076512e-02,-9.219756087358149665e-02,-2.775628247979255656e-02,1.179541196432506989e-02,8.449209546482443212e-02,3.598631906398637448e-02,-2.789909304781129293e-02,7.236409075809435189e-03,5.823639284155723850e-02,-3.668104339060610647e-02,2.563437869390783330e-01
1.033897576730502116e-01,6.837900712146210980e-02,-5.407813692778106612e-02,-2.960302625741701582e-02,-1.010269059319451879e-02,-6.879411525123255849e-03,-2.233258404499459046e-02,3.256067509741974314e-02,2.133883078744546954e-03,8.493557059787104624e-03,-3.070976755533732366e-02,4.230158176331383357e-02,2.028064420503278981e-02,6.136127068300738230e-02,1.165884068537559153e-02,-4.165915178781628460e-03,-1.249053508566446043e-02,-2.524851462890080611e-02,4.875180576485485875e-03,-9.491261815649455758e-02,2.062557603034390410e-02,-1.028888301752588566e-02,2.666020319023288190e-02,-1.645776106074912926e-02,-1.756321063773767788e-02,-1.652161656612571167e-02,2.673149544828440707e-02,1.572105324292656170e-03,-2.017066971669875461e-02,-4.257455346816085145e-02,-1.105746384571485059e-02,1.229672200312539529e-02,-6.889684417884411188e-03,-1.830769674688463924e-02,-3.297506420356489248e-02,-9.161268964238881637e-03,-3.043736217288699544e-02,-1.932887637353637722e-02,-2.522383426207204862e-02,1.419395048810485893e-02,2.564077408781243600e-02,1.285092338589630297e-02,-2.608649320423919379e-02,-8.513317883864626734e-03,-3.054384581017327571e-02,-1.505667386172374229e-02,-1.386146389619900658e-02,-2.056661177208430127e-02,6.786388961851636502e-03,-1.406175412844400466e-02,-5.982748303669716515e-03,-2.653547655009295611e-02,-9.831667292271716041e-03,1.627420848825627750e-02,-5.688581438197465139e-03,-7.718247448612511330e-02,5.735906179653914999e-02,3.939627181744748130e-02,3.268311865964940166e-02,-2.238212786807744492e-02,-3.745221199597856005e-03,-3.905205074231196845e-03,2.948019884675282865e-04,9.042079517202480238e-03,-4.233152893579943989e-03,-2.736748004011132357e-03,-4.671558193342566917e-02,1.857226121213506262e-02,-1.578407160861478910e-04,-1.175674627807249753e-02,-1.379613435870841176e-03,-2.335837698308103946e-03,1.125291068241525243e-02,1.026475672131370309e-02,-3.126116865156811087e-02,-1.290856843398305136e-02,-1.334993294940817025e-02,-8.431406749646135068e-02,-2.295557537727653530e-02,-9.930419073711021019e-03,1.145309337726572313e-02,-1.644082108172329262e-02,-5.495868379465940548e-03,-6.123085401225474185e-03,-4.637765060321613446e-03,4.993228641537668377e-02,1.298030189474274655e-02,4.412990914688934719e-04,4.183243999656022227e-02,5.012758264437994910e-03,3.396502526098370972e-02,2.601653377250686544e-02,3.229923960979165509e-02,-1.557060564883054957e-02,1.025102677931835800e-02,1.997875743683931102e-02,-2.566990884251157262e-02,4.085714287048660548e-02,8.853952078996420519e-03,-5.235220046269757621e-03,-2.285867191209916757e-02,-1.553673467541011842e-02,8.335142553633042434e-03,-5.054075307809063715e-03,1.323415533988995217e-02,-1.571700564543009396e-02,-6.694500063899418672e-03,2.693044528635478094e-02,5.389197096728714532e-03,-1.126245615487140271e-02,-8.056169081680200975e-03,2.033590705744353633e-02,2.381003367282122710e-02,-3.924273354210219139e-03,-5.814867231909787160e-02,1.014636038059584661e-02,4.088695656370193920e-04,2.580748956721704707e-02,-3.137730251383027968e-02,8.742944268829419335e-04,7.040538951759150489e-03,-3.277904888984857490e-02,2.438384529702429526e-03,-9.331476662376611900e-03,3.494774560830322951e-02,2.186531766590437895e-02,-1.951460446994471298e-02,3.785788618422942370e-02,1.103056452483897401e-02,-1.366135047973465917e-02,-6.690251238585365363e-03,-1.332632436457615449e-02,1.274367475610826972e-02,-9.043949178073587905e-03,-3.916299444215654707e-02,1.058762781057552387e-02,1.406733005750752247e-02,-1.602843203064061722e-02,2.931089736509473465e-02,-3.201380429368819863e-02,-5.059782187716968527e-02,2.858423410661394340e-02,9.434150289536684386e-02,1.214550263531457008e-01,4.807953962412429838e-02,1.009152438620474282e-02,6.485901882308032704e-03,2.907665448791504556e-02,1.004563360739660072e-01,-6.328836547867235963e-03,2.953640233822039940e-02,6.265285118482737114e-02,4.161003584070371158e-02,2.933969698583089106e-02,1.938052212750767528e-02,4.068825273969831763e-02,2.704552169903549214e-02,-2.199309375213568535e-03,3.952893366303923683e-02,2.538335059707686261e-02,3.686908186988199689e-03,1.532705149348728008e-02,-1.656193588772246206e-01,-2.238487156697301639e-01,-5.996182784506656760e-02,-6.030348532160204750e-02,-1.770144427202303278e-02,3.236835808958971050e-02,3.040929979020996418e-02,1.033626668800807259e-02,6.469486901411655722e-02,6.038842644757672767e-02,-2.351396972627709664e-02,2.425118241549677894e-02,-1.525424728176708565e-02,7.787567813984544451e-02,4.435121097902554321e-03,-5.326872083442511091e-02
-3.052956979480729860e-01,3.498027349455457014e-01,-5.331983167538668911e-02,1.713629155378151858e-02,-5.023763374897609324e-02,-1.810584704805963119e-01,-6.866739394021996630e-03,-7.690677320302483078e-02,-1.321333531875659717e-01,-1.569768760391478547e-03,-1.917524474812947743e-01,1.402939349933761126e-01,1.014309178331365344e-02,1.745226151800513895e-03,-6.214009346733190969e-02,2.220141124616834341e-02,8.690037540612012903e-03,-3.296740171681383780e-02,-1.280637189709608707e-02,2.939922603030585904e-02,-7.629779158493942004e-02,2.167784725594673959e-02,-6.647750164595028766e-02,-1.629410061489152198e-02,2.649653652625823946e-02,1.000195152404144416e-02,-2.319720896276446578e-02,2.506691419026688128e-02,-2.168608581539215041e-02,-2.404164540759192240e-02,-3.550431677333087954e-02,-4.772094826877518875e-02,-2.149640363103075963e-02,-1.172464478927181565e-02,-6.693957320000558375e-02,-1.267091671979210261e-03,-4.371939220377547147e-02,-4.433081544643065197e-02,-4.490600682384597586e-02,-1.281076641046036656e-02,-8.863087307006808913e-02,-2.841850490505137480e-02,-5.145663722895279374e-02,-5.855566673383616472e-02,-2.898307938091916613e-02,-8.284435621485576606e-02,-4.775813640000386995e-02,-1.138035706421346334e-02,-7.243779522613874589e-02,-7.460729338201770033e-02,-5.836291675545460939e-02,-8.375866159426431645e-02,-9.126464311555183492e-03,2.899574519596528205e-02,-3.304862107802791771e-02,-2.799479544181148957e-02,-1.105225483011010312e-01,1.916014097423882623e-01,-1.196421660089281441e-02,-4.596387000427744340e-02,-9.839479041989697417e-02,-4.456614349744226870e-03,7.140308009956888857e-02,-1.809072009332872780e-02,-4.472099662233100514e-02,-7.830808298085773379e-04,-2.192945550172472821e-02,-1.012871671618651229e-02,-2.056760388646873203e-02,2.985326021894549667e-02,6.888840452676026072e-02,7.265103010884275958e-02,3.401446464977025963e-02,-6.303692189444683527e-03,-2.477272500262580820e-02,-3.178293600865728791e-02,2.457788454291302480e-02,-2.547186964720361477e-02,-8.540555147994194352e-02,-7.169734516802979407e-02,-2.339404658355449806e-02,2.081140054854927271e-02,-4.100311096946068073e-02,-3.499236327274135583e-02,-1.967834219644072277e-02,2.171137846161513146e-02,7.371321573033143282e-02,3.165699123812456498e-03,-4.226719751112642531e-02,-9.649394393447592588e-03,6.858173092063500620e-02,6.333351592682670561e-02,3.583100419231272787e-02,3.231678523740770526e-02,5.917427063389903152e-02,6.722690277921124224e-02,7.485341678444258628e-02,-8.888404339440095225e-02,-4.459455061395447423e-02,-4.208447555753976055e-02,8.478402897182938519e-03,1.971419462480547211e-02,5.780166792000596826e-03,-1.132203373280206600e-02,-8.249225442245371187e-02,1.203968197684093626e-02,-1.964511776955973205e-02,-4.810294457700559773e-02,-4.827693723637665330e-02,-4.171040580612005860e-02,-4.107216502895512378e-02,4.034245877802007663e-02,2.596771944848627264e-02,-8.354943173658436681e-03,-3.391319982178700454e-02,-9.795935135778463532e-02,-2.364794868662165386e-02,-6.324546635346976753e-02,-1.705580593434939327e-02,1.098888102241708450e-02,4.571145240985459435e-02,1.067390115784583662e-02,-9.661402058551789643e-03,2.778458168508947737e-02,-2.891469309128508886e-02,-1.447763509925388721e-02,-1.221847059132995413e-02,-1.134679158552243800e-03,-1.246282259436867212e-01,2.871530111975599195e-02,3.059546427487486175e-03,4.395849928850327666e-03,3.003450192924314241e-02,-9.630520240148531322e-03,-4.677770002519902187e-02,-1.936283198981621906e-02,-4.827912009890940326e-02,5.844728113619856308e-02,2.481436519309812225e-02,2.683371603835686334e-02,1.580193861344276682e-02,1.467773638225194355e-01,-1.061407274763707942e-01,-5.441210306159849353e-02,4.946491889378493850e-02,1.160167654541434216e-02,-1.130676175743935696e-01,-1.886491700775328184e-01,2.307733290943732585e-01,-4.148428851052980704e-03,-7.617351896725632621e-02,1.562331851919831205e-01,-4.042251162876785153e-02,1.860147660958388210e-02,6.678700918363771055e-02,7.238524171205491797e-02,-9.516373945549183588e-02,-1.314560689260676762e-01,-2.216049292341455701e-02,3.841449243947031578e-02,-5.698717073418045620e-02,-3.473957633569680487e-02,-1.863297683746457656e-01,-1.408845395088512698e-01,-6.377287704277097014e-01,1.360957488507884283e-01,-1.051510956920544415e-01,-2.221223451900383380e-02,-1.746129805583486808e-02,1.428831719773931454e-02,-2.205236192260402045e-02,3.106466964951445225e-02,-9.653585364039813169e-03,-1.446894774595729703e-02,1.404218717033092929e-02,7.552439844797741164e-02,7.708936538523797344e-02,-6.903762256704339129e-02
7.233054640639892396e-02,-1.653317823513321683e-01,4.439993024070000051e-03,7.444541038372184949e-02,1.254458467893302016e-02,-9.879509544218326514e-03,1.942383361812249215e-02,5.909567296592636854e-02,-5.759927567603031345e-02,1.041242980386051717e-02,-2.543931432238110690e-01,-4.614282192252040088e-02,5.880255487034479617e-04,-1.354657393549708877e-01,-4.076664043456457859e-02,-1.347599007203151289e-01,-5.252040988454306086e-02,-1.808804966188706440e-02,-1.034413866646259200e-01,-3.621205819881859883e-02,-9.179569401445199228e-02,1.108813779437484853e-01,2.558159952404227139e-02,-5.354520892863878084e-02,9.168471473765245003e-03,-9.330270536372184398e-02,4.052672675041593675e-02,-8.732052426402400064e-03,1.631985022569578878e-02,8.738758178830294265e-02,5.641996887570879804e-02,-3.353330353104794909e-02,-3.210872537108650643e-02,-2.292114145223243804e-02,-1.046854120996377618e-01,-4.502853173927438835e-02,5.146680782495853534e-02,-5.595154766832708543e-02,3.976901187989803112e-03,-7.905231431755847804e-02,-2.725618489440669381e-02,3.193031239977808800e-02,4.223753173634473349e-03,7.004334201123337683e-03,3.129140836213950561e-02,-3.198628418123138344e-03,1.060488199354393942e-03,5.870284345531827895e-03,1.252233942466580464e-02,-1.877908334419146549e-02,-8.376484659628025825e-03,5.982945633858238049e-02,2.710825248267174567e-02,5.635499314850742070e-02,4.156541513596942461e-02,1.398465866383913347e-02,4.682003961376510204e-02,-1.680329125304165505e-01,2.376271325525582817e-02,-8.867486929064237813e-03,4.399433924033412102e-02,-3.916674001469989952e-02,-1.081461754737809804e-02,2.484258942332149417e-02,-1.092239610227091137e-02,-2.627764749537588734e-02,-4.851117392899248482e-02,-5.751329069975207389e-03,-1.038951299602175991e-02,-5.184467691580648546e-02,9.222285506631528601e-03,-3.316677435673291794e-03,5.365871921084270496e-02,-3.916699489430816236e-03,2.793083082035331677e-02,1.347327150941202492e-02,-1.766405633581890830e-02,4.898246347642995491e-02,-9.620720727562438734e-02,-2.221319893109502397e-02,1.165085626572494662e-02,-4.702155084570219107e-02,-6.972333981696830427e-03,-8.313142783906815603e-02,-3.345091001240892148e-02,1.080299451206718497e-01,-2.108055471611872816e-02,3.194739387349890963e-02,-5.706685151772121489e-02,2.556753820012643355e-02,9.784319456663745362e-02,8.793648328626647859e-02,8.986158585601418392e-02,-4.749970259042003706e-02,3.157945751794162537e-02,2.631986228640454881e-02,4.796917219805968413e-02,3.016993160059742735e-03,-1.380977398247933575e-03,-7.157340807644733960e-02,-3.976816723100799061e-02,7.982008793434325344e-02,-8.175587858024217433e-03,-7.412449717994035528e-03,8.174120853761715835e-03,-5.642455015509025007e-02,-2.808157712849487439e-02,3.523849844858761848e-02,-1.048706159046563641e-01,1.153092041252962684e-02,-1.586331219035867421e-02,5.093234283313505945e-02,-2.728216876723782870e-03,-2.507871413441879749e-02,-1.704615154500283697e-02,-1.192477837950974007e-01,-2.680050101669546186e-02,-1.724772431511415599e-02,-5.584178111754034557e-02,1.872793238868085061e-02,-4.335529437880562137e-02,-3.178503563576527691e-02,-9.633807885057698445e-03,-2.500909825497494784e-02,5.036185822865871936e-02,3.653505686424317160e-03,-2.922900392585953480e-02,1.969170454167236059e-03,2.536338896031351941e-03,-2.580475772285495059e-02,-5.699604482704812708e-02,2.014063115181488270e-02,-3.899930249466979082e-02,-6.121291984119237549e-03,5.580999568576424340e-04,-2.180254170320936047e-02,3.393065267288539882e-02,-6.056689219697298371e-02,5.364519545165238185e-02,-8.255550344523607253e-02,-2.749644320145522292e-02,-1.378673597351585435e-02,1.589186869792372919e-02,1.365354110929429821e-01,5.428855983652668138e-02,8.938149186448403338e-02,1.474435309937763838e-01,1.092841160062239664e-01,-1.748514936027993349e-01,-1.759700254559739413e-02,1.514315688243659738e-02,1.405610601280024019e-01,4.612775325783526753e-02,5.851955664163916576e-02,-1.054730038064562725e-01,2.669143285944150859e-03,-1.516418041457307658e-02,-3.382550550433895131e-02,-2.631795276064217981e-02,6.321848298457895254e-03,-8.912191003443049875e-02,-5.728038839838151680e-03,-3.692395524615960795e-02,3.436664145274904297e-02,-4.678357154060873435e-02,-2.024709333114119991e-01,-4.824880635370187160e-02,-3.018175049653639558e-02,-7.178384156890231516e-02,-1.977989722093818903e-02,4.470702179410061816e-02,1.934003705176460738e-02,2.719197307699892582e-02,6.758160052940875677e-03,2.665796484200808059e-02,2.084435743357035409e-02,1.266647151025250984e-03,4.213647209390747328e-02
-1.241292787769001336e-02,-1.760900010224858148e-01,-4.697880848450736169e-01,5.217097738225725534e-01,9.703685331725508956e-02,4.055995603122243554e-02,-1.792274205081186358e-02,7.065267177737248605e-02,4.743801992769903358e-02,-3.571266236894641427e-02,-2.381388927222291910e-02,1.003516405211343221e-01,3.300390753198773064e-02,5.444200387672097283e-03,6.376260232167740676e-04,-2.806882926234811199e-02,6.253543025190592963e-02,-8.785738864715497698e-02,1.934651818995969941e-01,2.693600381019247564e-02,1.917438026219496147e-02,-2.838749178339215404e-02,-3.618089527220347268e-01,1.293904885988854669e-01,-7.839231963777661127e-02,-6.840861435329352591e-02,-6.920440492631481366e-02,-9.330568665640734394e-02,3.691257043218544587e-02,-1.811031183010412271e-01,-8.595691881797135059e-02,5.758317458919529758e-03,3.591693385430119040e-02,-1.143894868719901210e-02,6.459362153667118356e-02,-3.567285836759763375e-03,5.506516303423376890e-02,5.368710478642316208e-02,4.520817822750394788e-02,-2.941870259641398699e-01,5.528244165939595611e-02,-2.751657955271617426e-02,6.300679872123844498e-03,6.737582072881208002e-04,1.374763001581835037e-02,1.242726677350793063e-01,-2.906548116164813129e-03,1.328061875201951708e-02,3.534206153664119776e-02,3.011973526482540284e-02,-2.765523815972937421e-02,1.010045379676249300e-01,1.922353070561740171e-03,9.549850972655041237e-02,1.698910137003211418e-01,5.004658757747101200e-02,6.186063558393827683e-02,9.070606450754524486e-02,4.142664351511216037e-02,5.494324771773653098e-04,5.041889806095709720e-02,3.881020901820780161e-02,4.791221817737587735e-02,3.193370901538180456e-02,-3.293898179065016252e-02,6.506325762095849403e-03,1.622551230903759023e-01,1.160886500563502143e-02,2.923120206456821663e-02,-2.090144718965519788e-02,-2.039563931852879375e-02,-2.097940100275202599e-03,-1.400514523720889151e-02,-5.097576133119335363e-03,-1.255650273502104293e-02,-4.897633487831385551e-02,-1.985364148083953659e-02,8.766286051110180194e-03,9.093117094585363366e-03,4.666905765962598741e-03,1.776221166548659358e-01,1.755368135685778097e-01,5.592220364954579581e-02,4.103180178665553901e-02,4.924387935274871647e-02,-1.619093025905304351e-01,8.374171174114271744e-05,5.717543912984158344e-02,6.602161141264412114e-02,-1.365276833946046237e-03,-7.070772972773536891e-02,-6.135783485174706869e-02,-4.859950385634109749e-02,-5.194289847871744886e-02,5.225391504456253916e-03,-1.084349521233618219e-01,-4.750083427021027649e-02,4.451638648746974319e-02,-5.233911506264334740e-02,1.200292306057713920e-02,-7.750685795221780305e-02,1.951070938338313535e-02,-4.710613853247239136e-02,8.897615779861842850e-03,-9.790209070957558990e-02,5.203280719547010574e-02,-1.564394727871413343e-02,-1.844195778664037971e-02,-2.881091989627402108e-02,1.209111460836553333e-02,3.259796265070594862e-02,-2.657736117828829112e-02,1.414956242023852721e-02,1.496063522072079051e-02,4.078442516816082469e-02,9.539934838418841212e-03,-4.007585304357465239e-02,4.972803138210526303e-02,1.366146686439037583e-02,2.415014761506046465e-02,3.840122637361799429e-02,1.322237035656002348e-02,-3.490697922419300908e-02,1.451744828082771922e-02,6.540199952125817784e-02,6.573538440133029626e-02,-8.449811564246685613e-03,-2.401236090832236866e-02,2.571682053315156591e-02,-3.827624927948326122e-02,1.930638742490586174e-02,1.525246652726278997e-02,-2.813145081254260667e-03,2.516974636977640720e-02,2.680484183594186373e-02,-2.440524990256248694e-02,-1.501024203261047511e-02,-2.592944149759014716e-02,-8.854357139496614112e-03,3.309543153079744920e-02,-4.093877265092103063e-02,-2.490856693976712874e-02,-2.764088337043114213e-02,9.889882241969417953e-02,-3.203882274986385309e-02,-2.031317752417236694e-02,-2.399582925747504314e-01,5.663692851342525675e-02,-4.903447120223192873e-02,-1.514602795271662895e-02,-1.725031374557241259e-01,-2.514514618573456817e-01,-6.366570600429548310e-02,6.285329439113357397e-02,-3.328790100246661193e-02,-1.068791619520976371e-01,-7.031175537946950105e-02,1.384332768762225373e-03,1.012421764400907725e-01,5.418915648508497440e-02,1.070036473139212851e-01,1.769124787427807030e-02,-7.118306601720154891e-02,-1.075768998490602910e-02,3.789155932377950148e-02,1.903499451270255008e-02,-4.257065083168629083e-02,-4.473747165479121518e-02,-7.221192426379689777e-02,-6.128739417046037002e-02,-1.061691135997187320e-02,-1.031397653858260877e-01,-9.152455068814650471e-03,6.420029760115281321e-03,2.381515770749481620e-02,6.538919956080445350e-02,2.781113392257972966e-02,-3.230648958600195603e-02
1.066528289856198547e-01,-5.935326645584809713e-02,3.285233537261972314e-01,-3.869577421671550888e-02,1.147833423713131296e-01,-4.531780454237883948e-02,8.717303651927912900e-02,1.435000826112046990e-01,-1.165032080662688208e-01,1.479282970217144499e-01,1.201680175607184597e-01,-2.958369581307355167e-01,1.443421113678290124e-01,-9.218529458852314784e-02,-1.124647666508481192e-01,4.742256783851221513e+00,1.248475228830709521e-01,1.086223004084263706e-02,4.313348115407282246e-01,2.950448960384495847e-02,-3.005319290976318780e-03,2.562166250552518412e-02,-5.753026978954310644e-02,-6.214376648925575355e-04,-2.339359461610657775e-01,-1.514728609475049677e-02,8.163052083460940744e-02,9.004489752363304539e-03,-1.577195506096677746e-01,-1.767518296631409025e-01,-9.887774804501867076e-02,-4.577740003327889461e-03,-8.816223117429997091e-02,2.897454021664269339e-02,4.676889252426212618e-02,-5.085929325596089123e-02,-1.905740070593357760e-02,5.214270356382537386e-02,-2.245307363540026066e-02,9.031878846117995241e-02,2.708040559811353970e-02,5.289022369592476930e-02,-9.464373305728343566e-03,3.242820506982742323e-02,-2.998923413970338431e-02,2.566095074136272650e-02,6.594961446525518522e-02,1.751917796854958811e-02,-9.786214965349485095e-02,4.501440051129963066e-02,-8.902645845140534642e-03,2.418174335111995810e-01,9.686282690332477519e-02,1.709057666092692052e-01,1.194900780440322080e-01,1.244668415126512773e-01,-2.843804546361545713e-02,-8.077377964983438463e-02,3.312965275505336954e-02,-3.846701956334127454e-02,2.944901745951266081e-01,6.943640183711881353e-02,-5.712741198803494153e-02,-5.251321634260894267e-02,9.378641974492795547e-03,-4.765227261230048361e-02,-1.925141556202277782e-01,-7.800551195586880038e-02,4.336293575364202901e-02,5.696653289431816147e-02,2.865993947552640878e-02,-4.468514529601706753e-02,1.962126308098952054e-02,3.114364318203327597e-02,2.906833241116875063e-02,-9.726731271432149939e-03,-8.293358110096111721e-03,4.418391388989576646e-02,1.248096304432941422e-01,-5.909246064122268549e-02,-5.376052002617850295e-02,1.073095108507224615e-01,7.408271473604598374e-03,5.414261727059521689e-02,3.124018470603196970e-02,-3.893142266728776835e-01,-9.371504062888648401e-02,-1.297742129498113614e-02,-2.620257625038811908e-03,7.651200016410949351e-03,-1.667036130902656843e-01,-9.946112381602209562e-02,-3.283380255317316920e-02,-6.847779434675269061e-02,-2.180905742870323585e-02,-7.282153316662717812e-02,-9.649827211100091284e-02,-1.367561378494374646e-01,3.745160626542926030e-02,2.254700630231334588e-02,5.935648700318572196e-03,2.736817995151102217e-02,-1.442463214870402799e-02,-3.125163598070000714e-02,2.679222662811008362e-02,3.914392998866811357e-02,4.403967087425134097e-02,-8.482789271634646328e-03,7.552930954219807570e-03,-5.140544384569242786e-02,3.867962838528805208e-02,3.138713880706647807e-02,-1.579076850950589510e-03,-2.594220002149210443e-03,1.704969347159495177e-02,-2.004107753380053938e-02,2.568432715697953686e-02,-1.069929293475085780e-01,1.541111974645794150e-02,1.205154819386156512e-01,1.162595525999749052e-01,4.771396586863776990e-04,4.968920067434721977e-02,8.418756147444225735e-02,6.662972568692722419e-02,5.440379652739590899e-02,1.311920292344394626e-02,-2.848601882440331828e-02,5.663830163699879600e-02,-5.681579856509704277e-03,4.784963569940343443e-04,3.177635696854605452e-02,2.399172623558597922e-02,2.482185318371822255e-02,2.626164952241058503e-02,1.068886092572277763e-02,1.766422077745037622e-02,3.654456729324206260e-02,6.799334396591259592e-03,-4.133758136198096428e-02,-1.106061068302240935e-01,-2.612164893468406635e-01,-1.233380794182526580e-01,-3.509682352170532815e-01,-1.810166412197300456e-01,-3.299933049747935110e-01,-2.282534438268644661e-01,5.605961198930600048e-02,8.805602789656466478e-02,-1.788992114052523688e-02,-1.880201494603594148e-01,-3.605276574999178862e-01,-6.122106066825136472e-02,-2.015071251852763173e-02,7.538080383823442254e-02,9.285932389800048703e-02,9.888462410330243080e-04,-1.162427356367433245e-01,-5.108167278172909970e-02,-4.862260534776506604e-02,-1.320271742553149642e-02,5.198383698888537491e-02,9.388430878315669192e-02,1.902553220610765650e-01,1.654918396347698495e-01,9.437194245721948482e-02,8.943414945297060992e-02,2.494487655409641791e-01,1.213706115995487750e-01,1.124283680755440440e-01,9.154230725208306607e-02,1.407416730178028541e-01,5.366882349091342541e-02,1.418287523701708235e-02,4.142768623647718335e-02,1.083410861984321072e-01,7.983975602255413695e-02,1.033914091010528918e-01
-1.894492228747487739e-01,4.084808229146638658e-01,1.375162944937804721e-01,-7.069847031302439744e-02,5.211353698603904405e-02,1.718144051165134412e-01,-1.641513973423515405e-02,2.006214222861823007e-02,7.467094665824618172e-02,-1.970072315006308680e-02,-3.637194419820062585e-02,-2.988684985689681883e-01,-2.623634305897455318e-02,6.467048337494882282e-02,-2.121188361057431693e-01,1.404890976011931691e+00,2.694264899071520780e+00,7.338823077726837063e-01,5.255975034095949905e-01,7.521708284283435547e-03,-1.947125579613637539e-02,-2.674046563458730083e-02,-9.667446059660757263e-02,-1.562065156940600219e-01,-1.210209875375607980e-01,1.822278173309538341e-02,-6.895122486653461336e-02,6.946755286254578665e-02,4.032204046597568509e-02,1.076126699092842288e-02,4.808570199197285261e-02,-6.084611894583383251e-03,-5.431962512389743730e-03,-3.074414224700282652e-02,-5.704655610352955819e-02,-5.257719246263326679e-02,-5.032248651923501570e-02,-9.464858308152063193e-02,4.870992526561894465e-02,6.894025670704428954e-02,-2.691893337763229810e-01,4.851693985302259204e-02,7.303336508662885973e-02,1.048979807288516752e-01,4.944377604314799390e-02,3.360314426650267555e-02,-1.200191567929593389e-02,2.511378026875272021e-02,-4.061289401508388214e-02,2.999001903125720139e-02,-9.002467382784307137e-02,-1.406485051599521384e-02,-6.221738997400754617e-02,-3.389784459566647090e-02,8.938037750392568981e-02,6.250167513260543317e-02,1.859207852315942697e-02,5.932729721175730025e-02,1.285251683043899321e-02,4.092953186337643795e-02,-5.361574752766187779e-02,-2.561170528248122094e-03,6.131839006831158595e-02,5.136602062354924531e-02,1.729317628541288815e-02,5.925425910928188572e-02,8.911978256295868817e-02,-4.796875834340628281e-02,7.676285310740173229e-02,8.201258494490273887e-02,1.842420314000439707e-02,1.864477462590702697e-02,-3.522345574447862532e-02,-3.110454632575608124e-03,-2.003778204849867434e-02,3.517642364510693842e-02,2.157827430260139331e-02,4.368919274806087882e-02,3.492329904052368650e-02,-5.031703111350486557e-04,-8.224541237434354612e-02,1.068754572039939087e-02,5.390111741482691426e-02,-2.974847424024389467e-02,6.207999614888500689e-02,-7.177746295236503427e-02,1.690585289302186378e-02,-6.492029372995226921e-02,-2.149875760545149131e-02,8.007194930565809943e-02,-3.798650759315240662e-03,-4.101047012629396860e-02,-1.616706652236627427e-03,-1.224652949616220933e-02,3.442007936047385402e-03,3.137088866104212337e-02,1.834601427791273526e-02,-1.737697138371091998e-03,-8.934053374685173299e-02,-1.073104352853336690e-01,-5.612942454571481776e-02,-1.185715224180542565e-02,1.974151605577961766e-02,-3.489873689452178962e-02,-8.729465411112030324e-03,-1.015852334140472657e-02,-1.013528933644889107e-01,-2.422354623308270796e-02,6.951473984295717529e-03,5.048258130348377143e-02,-2.107976450124578530e-02,-6.793319213386167510e-02,-6.486652291526654249e-03,-5.358340809081700573e-02,-6.873387217436507934e-02,1.083816361956978312e-03,5.175494828401326630e-02,4.691121896998866336e-02,-4.676439693812140669e-02,-5.500508088240886606e-02,2.064971297500518138e-02,-4.807779094011989385e-02,3.063037300158193144e-02,-1.218310097299582645e-01,-3.791552803584091313e-03,-3.469001101778668855e-02,-1.631599928309688304e-03,-4.787444694670374423e-02,2.706752639182874367e-03,-9.966639672854386151e-03,2.797719657481919156e-02,3.489171046188997011e-02,4.596954974165100988e-02,-5.242806080115375994e-02,-7.477505654455823825e-02,-9.719791990240436719e-03,-9.500366754428760455e-03,-3.357425019192442073e-02,-2.452559892427473229e-02,-6.484394072463015024e-02,5.307893627095701394e-02,-3.553955246935459888e-02,6.683477192518069709e-02,-7.271704494195519071e-03,1.049698681295109237e-01,3.797576679826079188e-02,-6.777715659591435071e-02,-1.573694497122886740e-02,4.779790737422348612e-02,-4.040556752463383972e-02,1.157333371888059036e-02,-3.688128762905143465e-02,4.078596090756748255e-02,-4.874470999533958310e-04,-4.044009303215119477e-02,-1.737543599564139035e-02,9.040389134278039446e-03,-1.273446422555496726e-01,1.063179330579523268e-01,1.598995118203642984e-02,-8.367714398989577196e-02,-1.719239157977961105e-02,-2.053592337598632647e-02,-3.941380848178503010e-02,4.139949209883789921e-02,-1.212857537115910773e-02,-7.874432666047040397e-02,-1.371106169954208198e-01,-1.079627062340967614e-01,3.163249465149998302e-02,-6.399739700011457255e-02,-2.880413436520776888e-02,-3.294436987505141440e-02,-3.028398870167598594e-02,1.018375744822443314e-02,2.082582202905171320e-02,1.504077391410081274e-02,4.473705832128965082e-02
-7.972074960599088989e-02,1.098402759815793328e-01,3.371847409235693982e-02,1.202852425385739082e-01,1.033079118105253991e-01,4.146951104222832557e-02,-4.069871351175418511e-02,-1.915869851474647223e-01,1.002232565397476356e-02,4.296663693901543735e-02,4.932962086597494217e-02,-1.436448552427588565e-01,-1.057765324402799682e-02,3.066636390723037064e-01,1.528650843892314926e-01,5.400290217372788470e-02,-9.903091311027969468e-01,3.351154515203278894e+00,4.995314551585595675e-01,-5.514310818991235291e-02,5.006941121955891388e-02,-3.493564062128369507e-02,-5.388045820346762382e-02,-4.677074017070514261e-02,3.414898459023945482e-02,-6.616449714212875415e-03,3.715453323309039074e-02,4.691261567977596941e-02,-1.597151414522754165e-01,-4.666304072367311734e-02,-1.154335964476042031e-01,5.257520479344185427e-02,2.161780462742610501e-02,3.976531414425136385e-02,2.466809184491398910e-02,6.027939952558312997e-02,-6.840904789784180151e-02,7.010872680253031446e-03,9.411335274270959950e-02,3.937916285708523145e-02,3.986991972291812486e-02,5.999782358672266225e-02,4.181302936276136417e-02,-1.090389143776562403e-01,9.030418299634335177e-01,1.274294677588831692e-01,1.078076853064630775e-01,1.898803145285224078e-02,-2.497230183882576462e-02,4.051039269174900453e-03,-1.140358248950297700e-02,-4.499224653144566488e-02,-3.679222385677282520e-02,-2.892924679397944690e-02,2.593691738176614331e-02,2.351100312906182280e-02,2.591363996946700540e-02,-3.389842436596417902e-02,-6.076657997802851346e-02,-2.025329863302558972e-02,-4.726132803716075192e-02,7.327549045205951871e-03,-6.596642884984933427e-04,-4.668346945900134215e-02,6.160907061742641050e-02,1.036006367673373701e-01,-1.019112130874864908e-01,2.529071084778185957e-02,4.341114864870549567e-02,8.919861653127020631e-03,5.179192170303770909e-02,8.253293454115495642e-02,7.183974761499796469e-02,1.241591836929242278e-02,-4.032214991045066782e-02,-4.428357487957235855e-02,5.466152232148912236e-03,8.475238136267518319e-02,-9.590279884192566551e-02,-4.574161703174482035e-02,1.427188721774795832e-01,1.676402380229956995e-02,1.126386144040155690e-01,5.290081970618205204e-02,7.118802721694186819e-02,5.929868780799055217e-03,-1.257177346281929953e-01,7.530041882676509479e-02,-9.403512107820401200e-03,-3.076797011894526895e-02,-9.972304224608549705e-02,-9.823936350286317787e-02,1.313080174624247677e-02,-1.208920644115133586e-02,4.304693605190070688e-02,-2.859444719074863070e-03,-6.088799437210445226e-02,5.045878783285913383e-02,8.617183766240085752e-02,-5.837979641214131599e-01,-7.013333916833369708e-02,1.122293418435433981e-01,5.615129845517869561e-02,-2.870811795519803006e-02,-1.041799811539666498e-01,-8.965246724247033505e-02,1.218969521449787957e-01,2.025773292319246396e-02,3.420909889249074132e-02,1.663200243126261302e-01,6.439966913785435954e-02,-5.433811085646436320e-03,2.064473811101837641e-01,6.322147908012699935e-02,7.839552597191766503e-02,-3.493882322245658867e-02,1.675949668724767069e-02,-2.954285603047300535e-02,2.755928710191438494e-02,-1.730678076103514193e-02,-6.274860135743074926e-03,-1.207386422512067570e-02,1.637363976904200949e-02,1.180151437241547772e-02,1.896510165605968037e-02,-5.073869807617761157e-02,1.345156209691362459e-01,5.154776994123591582e-02,-2.698368360478252057e-02,-1.818916085066632771e-01,3.141044474405877973e-01,8.690657738985126113e-02,5.690303364483610682e-02,3.568674961690848635e-02,-1.986866015128780152e-02,5.223628570624392481e-02,-7.894296497725311612e-02,-5.189321640840573874e-02,4.561476374433399289e-02,-3.655548251353799970e-03,-1.710174101914887839e-03,-4.616676145120650332e-02,3.420586894151188967e-02,-3.554735867741619371e-02,-1.246339817557473445e-01,7.375647734197418592e-02,-3.463573703495315820e-02,6.655625441902565664e-02,-1.197825428107403278e-01,-6.188548559338789140e-02,-7.598596914535039881e-02,-9.522749418231427196e-04,6.230257945873315245e-02,9.727665973583506098e-02,-2.264186715994336019e-02,9.058256865323339665e-03,-3.236539463481150070e-02,-4.595798768445271548e-02,5.780667484995635763e-02,7.038928511210174044e-02,2.944912676859195045e-03,-3.080898376339710754e-02,5.173112606741536029e-03,4.226409046002761738e-02,-4.285198797612174010e-02,9.837400904939458401e-02,-1.479530354044559237e-01,2.768573375162438135e-02,-6.937754347804062083e-02,-3.833368582387083629e-03,7.542331703737165105e-02,1.296575605104670070e-01,-2.648685347902432485e-02,-1.055384413805022792e-01,2.856395678983231767e-01,4.808672515332038794e-02,1.057846619898107632e-01,7.956699404005970755e-02
-1.248917009695169611e-01,6.973548588356347222e-02,3.453941908726353149e-02,1.608928471007114308e-02,1.470263435067925284e-01,-9.446170330909321039e-03,-1.315815197598565189e-01,6.936598971202208308e-02,1.680019447345648675e-02,6.344732585752722864e-02,4.422262913180606547e-02,-1.076472283435451621e-01,3.000028730801279978e-02,1.743984340862118620e-01,2.489148744538449351e-02,4.333516105935362184e-01,6.422331278158281975e-01,2.140602999855350796e-01,3.967587675304296013e+00,4.469574490878702733e-02,-7.671324313604809854e-03,6.339556754655285842e-02,-1.532565169584031856e-02,-1.146337589778247817e-02,-8.496951180562181682e-02,-6.471566079736534860e-02,1.564299512459767921e-02,-1.868056950285664278e-02,-4.793339281302328413e-03,-3.037259950778500688e-03,1.638836224571642644e-02,-4.218338887902543799e-02,-3.931557627485653822e-02,1.212911005638094009e-02,3.169352107876714786e-02,-5.319439398749275377e-02,2.416114273159815362e-02,7.370727140944659250e-02,-2.725351008481532653e-02,8.614785487275851417e-02,2.655472051831840319e-01,1.269966272725812639e-01,1.116883820986878106e-01,-1.377927249414641897e-01,-1.481606360497491059e-01,2.207136379741815868e-01,9.000277017987305325e-03,3.474547445566928544e-02,-4.121824469912755903e-03,7.140420859791252054e-04,3.518236201761706233e-02,1.761073487575411656e-01,3.062416445313678390e-02,-4.158030242901675916e-02,-1.051549523210442011e-01,7.111250963334391157e-04,4.232974450815538831e-02,5.520236723467684264e-02,-6.083865711898464590e-02,4.716355734753784057e-02,1.965058926581137594e-02,4.030326187322924580e-02,7.793379928269622559e-02,-1.266510802062606814e-02,5.395480141095268523e-02,4.517487604152179564e-02,-1.236860757290923936e-02,-4.747744685171791795e-02,4.001602235496869164e-02,-1.110412970430784633e-03,3.973366349119342167e-02,-5.812791583547955582e-02,-5.913980570839885015e-03,2.947170132365047740e-02,9.844150845781916154e-03,6.781487089226978515e-02,2.273541065212213511e-02,1.808143887532963345e-02,4.835984776904964783e-02,-5.332653742341771086e-02,5.979030514187057277e-02,-6.353689291575094836e-03,-1.992868039399900426e-02,4.424014366784752295e-02,7.426871672485341191e-02,-1.424519347277885262e-01,-3.059968000228908622e-02,6.684887032074429518e-03,5.678909943396370091e-02,6.886791983428858233e-02,-2.612044812310839945e-02,-9.669927672360517645e-02,2.052788010396478652e-02,3.491594894833066620e-02,5.177002878534506247e-02,-1.329852157604308584e-03,-8.659245319463207413e-02,8.610899876213942705e-02,8.917560772384429402e-02,1.489264118001789317e-01,4.131097765988389278e-03,6.271441775557922566e-03,9.074891636165051054e-03,-5.372812458182331385e-02,-2.517956069913082282e-02,1.535047607258607262e-02,1.223870457534298045e-01,-7.038190639075227184e-02,-8.188605751048726525e-03,8.054992374271935374e-02,2.867715887985409010e-02,-5.119910152376588169e-02,-1.441200500770466186e-02,2.064923954269384104e-02,4.492782543711594523e-02,-2.687905594914570193e-02,2.938283612914640089e-02,5.710144923914079601e-02,4.381261062175140046e-03,2.132136920879495329e-02,1.944915999873566073e-02,6.487509218477592599e-02,5.932923138552893827e-02,7.610655118639088335e-02,3.679593836054296380e-02,8.012824371559768011e-02,2.140302444848567881e-02,4.505863501187284959e-02,2.419228748186162160e-03,1.196995023577370337e-01,6.598470224006172669e-02,4.220040009309128370e-02,5.289058887399735592e-02,6.950410547592131283e-02,2.458995567151791434e-02,6.102567728654848672e-02,-1.412841999808714388e-02,-4.711713395117892583e-02,-6.821097824970308310e-02,-4.046189591435859351e-02,-4.047864354475502746e-02,-7.173221133038180757e-03,4.762743700898190019e-02,-9.525766224905152235e-02,-1.427701523590575901e-02,-1.541108358056922194e-02,7.242382566391321330e-02,4.342108334040426648e-02,9.244920468785222071e-05,5.902990467516817941e-02,3.530172244770543588e-02,-3.257567207874783460e-02,1.081914565019218705e-01,9.004586542566729579e-02,9.309353471491967069e-02,-3.602934960704531203e-02,7.374644092262593043e-02,-3.880302708385389293e-02,1.515349327624891385e-01,-7.774399633777673291e-02,-1.253710270401378959e-02,1.938968088735905371e-02,-8.024257178158063220e-02,4.365194256992028371e-02,8.201316852018325498e-02,-3.772620475343774205e-02,1.016440296345489797e-01,1.439372361042275672e-01,1.473023384273227654e-01,-7.964148298079657198e-03,1.666375664803345091e-01,1.352123982876330122e-01,8.531619304461776632e-02,4.355549970369636953e-02,1.554863631358501842e-02,1.438959165223986369e-01,6.209420615213227107e-02,2.425637606738176993e-02
1.685606775941071375e-02,-4.387247681278197420e-02,1.220416383502685546e-02,-4.258793777456636176e-02,-1.081587917912947144e-01,-1.027687495258720191e-01,3.421864742774045898e-02,-3.083728324242528129e-02,-1.214474550826792343e-01,4.101586168179694597e-02,-4.995558508237227247e-02,2.971416277242521983e-02,-3.208623386388664844e-02,-1.028019301394821061e-01,5.843716652571138287e-02,1.350075158279265830e-01,-6.985256601648123786e-02,5.555572799284103774e-02,-5.161190046366596063e-01,1.481449140123069774e-01,6.543695891372383611e-02,2.058423225778161988e-02,6.519964422691886322e-03,3.990649122877710370e-02,1.126111464116720945e-01,2.313382867686463590e-02,-2.940519340189748712e-02,3.680005331471163793e-02,-4.750367135851766599e-03,-8.255250088386746621e-02,-1.699509631822499617e-02,-3.749825223557910064e-02,-4.982504624049329672e-02,-6.041249905859416569e-02,-1.050217203674354283e-01,-1.645683883396209177e-02,-5.587831381824363147e-02,-8.711503291156487416e-02,-2.957683273677563091e-02,-2.126954242169631221e-02,1.810712379985538823e-03,1.750611433303246936e-02,8.957808279803058937e-02,-2.746099469680378380e-02,4.770379559123882895e-02,-2.992165432371764883e-03,-2.192201151074836193e-02,-1.150749555949555913e-01,-6.969672099349712158e-02,3.851149837546312144e-03,-6.554492241177808931e-02,2.240952484906277506e-02,2.198252405843573523e-02,-3.300212060060015579e-02,4.599716726041426854e-03,7.377479334251091370e-02,-6.497899514553673317e-02,-6.632284922203576794e-02,4.937144620492839482e-03,-5.324107357576440824e-02,-9.883582162554684081e-02,8.632627982568017539e-04,5.209476794176375047e-02,-1.429424126565252955e-03,-6.281036904721985781e-02,-6.695656010007915160e-02,-1.855715981079071042e-01,5.022469322620710941e-02,-1.032728561770909492e-01,3.644391892946872557e-03,5.825137037426299236e-02,-3.033937386670911354e-02,-1.931160678263284941e-02,-1.734232628671187812e-02,-3.498962811420942842e-02,3.837238469455505480e-03,-4.637511903793537643e-02,-9.483119306941494714e-03,-3.886393163670597700e-02,-3.917476377719888991e-02,-4.575980557389045661e-02,5.585096442080325629e-02,-4.234132671630234934e-02,6.383279159792462631e-02,2.643016401173076818e-02,-3.643442699547912167e-02,-1.440108058915493261e-01,2.499426745844241307e-02,-1.533148707456858870e-02,4.171899117169242110e-02,2.206046161807053568e-02,3.876887286025467588e-02,-7.387651145557119596e-03,-3.112209324343508804e-02,-3.903217107353678522e-02,-2.559515627585612005e-02,7.493280827418938306e-02,-1.439396450662824567e-01,4.468927450460184747e-02,-1.005348092267480953e-01,-7.565361801621388674e-03,3.842581306842973027e-02,2.033566717208532340e-02,-7.572983007365782782e-02,-6.758449466965120445e-02,-9.553501534735552025e-02,-5.487839224996928639e-02,1.994880258825710087e-03,-3.181405515315998203e-03,-1.326195448831618377e-02,5.138960469021428001e-02,1.127713781051221074e-02,2.950200283436239107e-02,-2.767986252979072817e-02,2.458740851082896750e-02,-1.462938470680869574e-01,-5.283577156698840427e-02,-5.953405361564440695e-02,8.782664224577253417e-03,-1.062845139368110217e-02,9.967242607178197766e-03,5.540412339393300557e-03,-9.157745490629554119e-02,-5.125761130619357897e-02,6.413123577021061228e-02,1.940593032701221077e-02,-3.368420069942024836e-02,-4.914936043148087491e-02,-1.458531296122783996e-02,5.283341831101582946e-03,-2.949868592667637124e-02,6.759780927610105350e-02,-4.548426992921388023e-02,5.413166706505071618e-02,-2.070655111054199929e-02,-8.834866198228513712e-02,-4.267728276290976702e-02,2.166481170155653765e-02,1.178740723675418267e-01,-5.898935224042576447e-02,-4.628344681651741510e-03,-1.089781553422881216e-01,-6.208628863710807626e-03,-4.437468680241767049e-02,1.193307642063817370e-01,8.408748170055303783e-03,-8.910129938627804613e-02,-2.836291494381886977e-02,-6.922505918347403309e-02,-4.129211378262643249e-03,6.754242356539962196e-03,-3.404626116401913982e-02,-3.558177160427083291e-02,8.439674054272214287e-02,-1.282813602062804204e-01,-3.148395674951291051e-02,2.270716807804993437e-02,-3.392261185675374963e-02,-7.464107572011491332e-02,6.657638285963156377e-02,-1.487680841502450058e-01,9.392567994212715210e-02,-1.679931518988289352e-01,-7.016618786819285580e-02,3.943751481081002319e-02,-1.309373065595160757e-01,2.151334051434260555e-02,-5.259853045710756458e-02,5.383892696193730981e-02,-9.212225532850473741e-02,5.187197300678183381e-02,-5.500003393545058183e-02,5.020195674274378211e-02,3.578220471883971493e-02,5.641563037418879933e-02,-3.879157492734348900e-02,1.000130302434274962e-02,-1.661267500888616300e-01
4.879610513586320891e-02,-5.984724288803797837e-02,3.187618518844521909e-02,-5.069831569426037216e-02,2.249928697361666674e-02,-1.475987908661639536e-01,-3.794398967688789037e-02,8.999635854710062721e-02,-1.049663794310433038e-02,6.611882581621536525e-02,-1.443075914713208563e-01,-1.054862640606138990e-01,-2.239759406674056083e-02,-3.471250064171509803e-02,-6.756958936175666043e-03,9.836315882914994924e-02,-1.665356871267446512e-02,-1.646201010601106062e-03,-4.304676008861217651e-02,2.579107346096811207e-02,-3.464523006722758924e-01,1.896358012559313244e-01,5.560012542691979975e-01,-2.862172572875245485e-02,2.070264747790930560e-01,8.247977384373579579e-02,1.425280056903968917e-01,2.306399703885011476e-01,-3.280380733837470059e-02,3.592680243918384697e-01,5.923615195913826265e-02,1.420855021487658605e-03,4.135617723372175120e-02,-2.654555797696685898e-02,-7.980507083448813710e-02,-3.645836451645061843e-02,-8.106807942676326484e-02,-1.666257835596975934e-01,1.040352027717127564e-01,8.984834815527437124e-02,-7.735844686297557726e-02,4.409402603657784636e-02,1.519007347932825776e-02,1.119543101275838337e-02,5.828937503071165635e-03,7.085873967611784618e-02,-3.061432768001142585e-02,3.378689391260511488e-02,6.095939273770476646e-02,1.447297858912038535e-02,-3.042035847233114099e-02,4.340819768341250967e-02,8.816469390643072446e-02,6.401078641758117804e-02,2.516392557228507802e-03,1.292987949282101701e-01,-7.239414170839923723e-02,-4.547552165550419571e-04,-1.422938220381182034e-02,-7.359807427609516006e-02,4.670719711443643840e-02,-6.923094584538373730e-02,6.092750517992589349e-02,-1.091188359215184214e-02,-3.890418262770797136e-02,-3.035924589266542073e-02,-2.290691098198647385e-02,-2.603310824844216539e-02,6.723818815666657289e-02,1.956543524197456793e-02,2.205913535590014671e-02,-5.674941222163689541e-02,3.086785625080303713e-02,5.494086194135613943e-02,-7.892223701592811919e-03,6.710045863961998369e-02,-1.250584145845915970e-02,2.646378387544856894e-02,-7.769790260101182289e-02,1.382953239094440456e-01,4.766540520041390172e-02,-6.584334780378604812e-02,-1.359312424094040114e-02,5.799762192490421492e-02,1.266211585651696725e-01,3.757370366430580477e-02,-2.835896017971215391e-02,-5.633104119304822160e-02,-7.704733270160545044e-02,4.149429275427391622e-02,9.213327007854069106e-02,7.155269002025838043e-02,5.620723507446481748e-02,-2.103573050760259439e-02,-1.124969478826415119e-02,7.799748263228227507e-02,1.000559636589007650e-01,1.524420067093911271e-02,-3.114682031592170414e-02,-3.442886268213886901e-03,-2.432548728887047595e-02,9.956057491222901346e-02,-4.353955211609149278e-02,4.028947984320494641e-03,2.160540761378156038e-02,-3.144364670596623557e-02,-4.440850694711717672e-02,-9.598862059262379398e-03,2.568468891731553322e-02,2.837954777664569717e-02,1.692607487463110988e-02,-4.616942445399453004e-02,6.392234318254375047e-02,-2.489943644679676674e-02,6.662856718400173017e-02,-1.634940664833773455e-02,6.484199918220638625e-02,3.024475066374932714e-02,-1.164701035203696659e-02,-1.399537749110713047e-02,-2.121410581458678044e-02,1.495385654707456248e-02,1.960449736790568359e-02,-5.178667217478970242e-03,3.423745302722432798e-02,2.382835099794769831e-02,-2.625965397113125266e-02,1.416112116939606883e-02,-9.704537348145476699e-04,-2.242398260816847247e-02,-3.877681515810981611e-02,5.449387945175383080e-02,4.845457867340069620e-03,8.504614740674804052e-02,5.801159788556875530e-02,-2.749750571507304439e-02,4.945711747071834113e-02,2.196556000638740999e-02,4.771859519284860074e-02,-7.201229990260643588e-02,4.099612758714508282e-02,2.301921277712161429e-02,-3.058412569628693803e-02,2.509777038208179864e-02,9.584936234844443348e-02,7.759958656917182070e-03,6.572095252380213970e-02,-2.719050355986669595e-02,-3.524978127716825449e-02,5.329446754024318167e-02,7.635864893157817690e-02,1.814334161605573037e-01,-9.149822471089801446e-04,7.890307420548588191e-02,-6.585684958290605184e-02,7.757049686260794955e-03,2.979524515716201055e-02,-9.099421203404386982e-02,4.876093304043272944e-03,-3.721066282963240990e-02,1.559899972202757716e-02,-1.951548637695947261e-03,-2.939230814664304040e-03,7.328752708163914498e-02,1.137591182599160672e-01,-9.626883999407347126e-02,1.305341199089544990e-02,7.282228893876289966e-02,7.663527661083896492e-02,3.037758774521615371e-02,9.695329035966078479e-02,9.878826362940104633e-02,3.538839581461353245e-02,3.980633183081965648e-02,2.310759689924918661e-02,3.128720223130055517e-02,2.721665756404891695e-02,-4.053654497126864958e-02
-2.390402202885589383e-02,-5.800464899815454753e-03,-3.134604821993042245e-02,-4.509917466038688288e-02,3.398503812881777802e-02,-5.472807989034630949e-02,-6.810601506681018824e-02,5.126158903514406451e-02,-3.545241350327196783e-02,6.596007220670489779e-03,-1.214644605093333635e-01,-1.374613284446197792e-01,7.484174475869653786e-02,-1.946280051721371862e-01,1.104631298473199470e-02,2.710817349000591014e-01,2.573916155910406789e-01,1.811337103633131884e-01,1.307702898906641653e-01,-1.638328389197049248e-02,-1.329233434153943849e-01,-1.189587525938633206e-01,7.761243243222145649e-01,4.980371981070366716e-01,6.877469525957140561e-01,3.592171422181841822e-01,3.008723173128653450e-01,1.969938850106630890e-01,3.842778198533746119e-03,6.409966498458908868e-01,1.161267301228723070e-01,-2.601729201669510799e-02,7.367020513199543097e-02,-7.048315825552066427e-02,-7.518875534613035649e-02,1.704175283595815715e-02,-3.170723708130294277e-02,-9.923657151469132687e-02,-1.556746385080327588e-01,5.025828611604439278e-01,-9.630253602691887793e-03,3.821926191129383643e-02,-5.145708983796019875e-02,5.045261859069216648e-02,6.986273440813801569e-03,-5.624270370669206404e-02,1.115659875379128307e-02,3.979945754184079781e-02,-1.963759044856672881e-02,-3.679222196427871239e-02,7.257169742919555855e-02,-5.160891221464988798e-02,1.489750243802139169e-02,4.505767975139342470e-03,-1.218164457524512773e-01,2.800384337588720032e-02,-9.778788862252980885e-02,4.317432621758299227e-02,5.334627953396226668e-02,-7.145289224341271235e-03,1.700599249022313186e-01,4.536478176392221007e-02,8.072623094436236213e-02,6.818700538060194771e-02,-1.613703973129393659e-03,3.231758196218199874e-02,2.883903037549791909e-02,1.192560076826587254e-02,4.827400569590142854e-02,-1.997996222222921114e-02,-2.968386762391139050e-02,-1.502969018211381194e-02,2.404239323587211569e-02,8.561853321932014205e-02,7.214982407160031377e-03,3.156871463669491673e-02,2.790004177454216000e-02,-5.691701691238840871e-04,-3.618373948726889833e-02,-8.571103153146787668e-02,-9.670698319163284484e-03,-4.883293416818252491e-02,-1.048843018789026998e-01,-7.953898185654346975e-03,-3.562251460197236180e-02,-6.518129921711980634e-02,4.187275318055506956e-02,2.390785711873845421e-02,1.440537352776901335e-02,-4.181564388280854111e-02,-9.471262626116555561e-03,3.859821990087682064e-02,9.413126735564181571e-03,4.045286177024242508e-02,-2.155314941715350333e-02,7.638817251118643070e-02,-7.974593476523706218e-03,-2.607876242986739354e-02,7.230493074224334307e-03,-3.242073712685889647e-02,-2.599396120415384259e-02,1.266941175220966109e-02,-2.811807394234370691e-02,4.133840051469322291e-02,-9.081174944451075870e-02,4.231196381847413673e-02,8.803870875338557053e-05,-9.042831090608950337e-03,-3.652953418889141185e-02,3.563384738892728248e-02,4.220506743817677153e-02,-2.339801040873643392e-02,-3.611221477588530751e-03,4.162690293428576715e-02,-1.174992913228186178e-02,-1.169181685894543979e-02,3.113245260896407851e-02,-4.542239540273688980e-02,-6.665473193979583582e-04,-2.573431802377960237e-02,3.591018365975012956e-03,2.349485266482532336e-02,3.590178388254849917e-02,2.310803944815703961e-02,-1.260755759737472795e-02,8.135400548249141495e-02,5.952729505742471866e-02,-1.001218649679604502e-03,6.325457982780467725e-02,8.054692614378794815e-03,2.398082289606487828e-03,5.225097362088342717e-02,-9.640400006506658417e-03,5.480636846012729851e-02,5.794856588054305563e-02,-1.522409633812616932e-03,-3.373660430803189503e-02,2.712499965924967948e-02,1.905991763430047239e-02,-5.477519501321195805e-02,2.260491905415449101e-02,2.473474181048121792e-02,1.727582095939524630e-03,-4.662268702027244291e-03,4.417691107314470483e-02,-6.215917443039707842e-03,3.543374910243421438e-02,2.901580503704546607e-02,-1.541968106987341020e-02,1.745850413392448577e-02,6.403419073494540092e-02,1.667003350119392324e-01,2.374393396878860321e-02,5.063669257390046585e-02,8.416223848486149850e-03,-4.854560116027935995e-02,-1.236547691507980384e-02,-4.425607328987517936e-02,9.501553223028544673e-03,8.227087451485351824e-03,1.659563044994184430e-02,-2.995823012548809536e-03,-1.415045676966795452e-01,-4.861203301486945877e-02,4.281021239275286522e-02,3.313936680627119907e-02,-4.173904206523638277e-02,-6.846108897028495288e-02,-1.658961155640178986e-02,1.527771776183916262e-02,3.836066178604920912e-02,8.244355890045092228e-02,3.074978385326265426e-02,4.118341596983109837e-02,4.427880888477051663e-02,3.676479572189016859e-02,-1.948507870184412044e-02,2.233711643257662791e-02
6.466474861314617769e-04,-8.006735116555768750e-02,-2.318548447074661803e-02,1.864971186882039347e-02,-2.763113949433346054e-04,-9.154682808877241673e-02,-1.469169121955979200e-02,6.915235414302721428e-02,7.433276707500067158e-03,7.848591399239292221e-02,-1.284669031643677906e-01,5.904620684258593544e-02,3.296916997551406492e-02,1.338161756394279020e-02,4.448863668587346720e-02,2.091786870335466675e-01,5.767024127477004582e-03,1.047740885552903289e-01,9.053624046883283760e-02,5.723418132697374872e-02,-3.473158817163344431e-02,2.061036070502337836e-01,-4.050584224405054390e-01,1.960556294699356661e+00,6.772047424844664931e-01,5.483922623712852440e-01,1.044628435152579055e-01,1.937105600210559109e-01,1.882579223911417729e-02,3.020634403915386512e-01,9.074730514234863321e-02,-3.023058139087035634e-02,-3.095297619663019140e-02,6.005915269948817331e-03,1.390021016233595752e-01,-5.652892095329079686e-02,-8.114403060581668048e-02,-1.088988762377530450e-01,-1.870441550165007072e-02,-6.305449257055124601e-01,-5.407517558963222948e-01,-1.845932935650932902e-02,-3.247298080805025716e-02,-6.496477259355322442e-03,-4.899567848249017366e-02,-4.380134526854463639e-02,-2.584988661848246563e-02,3.274576235387855611e-02,2.397875138621744298e-02,1.229306091226298019e-02,1.237123369943667756e-02,-3.521040431093770684e-02,1.585664653192974533e-02,2.170419595294886123e-02,-7.262619042513360212e-02,-3.504564928907298680e-03,-2.352034578536809847e-02,4.920864967931214834e-03,6.086276566553898426e-02,1.435879875014166134e-02,-3.079297276427657611e-03,1.270133454042741451e-02,3.176363773575539146e-02,-3.271239977872340138e-02,-6.049509850539966371e-02,-6.568484959423481068e-03,-6.274680893899288459e-02,-2.930230808589370101e-02,1.093617588766517684e-02,-4.291526863221038074e-02,2.897787514440292034e-02,-8.655343924201071293e-02,4.473353642737122604e-02,5.824221811596610315e-02,3.790498522601831038e-02,6.137712897722051586e-02,-6.471319968594790861e-02,3.315126234911175418e-02,-5.069512381597038320e-02,-3.511248610718011726e-02,7.528011195238701325e-02,6.308672298504131547e-03,4.238910876025342636e-06,4.236851173926543118e-02,2.878185161387627686e-02,-2.521580521929427110e-02,-1.320385532023745333e-02,-1.849252616823690923e-02,1.039026854130783127e-02,1.057623783135481187e-02,-6.247302898987750625e-02,-2.166752559260326158e-02,2.644296293737663506e-02,1.466244562277514187e-02,2.209011708247368352e-02,-2.506140516902944856e-02,-7.859637665795216055e-02,-7.333791561525147829e-02,-1.567711490355167339e-02,-5.678914028983127193e-02,4.495284353125889205e-03,-4.901909127093324881e-02,4.392527461815894096e-02,-4.166234382889380528e-02,4.641382456021433262e-02,-7.480488333009666048e-04,-3.389044941703527047e-02,1.047085860947798153e-02,-7.225484082486739734e-02,6.890374911783929412e-02,-2.994202939580198689e-02,-1.357911292513533721e-02,-4.150097850066752914e-02,8.820147941826029028e-03,-2.651873207865163701e-02,-4.553239942539555329e-02,-2.103584226457405268e-02,2.238292818501133596e-02,4.532903002444129553e-02,-7.330933167417355567e-02,6.361000332775083865e-02,1.927305082394585242e-02,3.449355260836325238e-02,8.396025644471306892e-02,9.558821844435684556e-02,7.163545264644077815e-02,-1.366819307106707099e-02,1.563838544450404933e-02,1.828733452956659081e-02,4.898444146468813876e-02,-1.559983174677150031e-02,3.853898714097640787e-02,-1.164683787117834490e-02,-2.208952726380496168e-02,-6.666132541660592208e-03,3.478632532517671183e-02,-4.624339970860905091e-02,1.497055585047386839e-02,1.761665828669632325e-02,5.332280423046452042e-04,-5.892864005123820553e-02,7.413519065999796265e-02,3.636262297090848972e-02,-1.249214536163567590e-02,2.641354019182065582e-02,8.917735269978776733e-03,-4.948336325592984919e-02,2.384420348462655548e-02,-4.714783325835097266e-02,4.880636612893773235e-02,3.980451907460169918e-04,-1.234924614192560027e-01,8.282945966609269947e-03,4.546689047867665673e-02,1.329453979952863185e-01,-5.185895321891401816e-02,-2.387720419950132428e-02,-5.042000679145800662e-02,3.362743473509572506e-02,-5.075309687676204939e-02,-5.803181403207234579e-02,2.297643259921364201e-02,5.128509789964540676e-03,-1.217302456800736614e-02,1.111632698063508458e-02,4.248990559670748346e-02,-6.531349297784069807e-02,-1.204530262124109824e-01,-7.826590801945615405e-02,-1.202808289280862288e-02,-1.403412473005981320e-02,2.059365239755606928e-03,-6.029563396077459829e-03,5.321584570172195605e-02,2.219329607855500056e-02,6.804543967746645716e-02,-2.600781711570091838e-03,1.111845213013421818e-01
9.022008125640972043e-02,2.183003493907680753e-02,-2.756192859273193241e-02,5.176396560008011960e-02,1.331195320440665686e-01,-1.170686641817062813e-02,-2.235705520755113668e-02,-3.037845110195194938e-03,-5.654247849519404567e-02,6.667553797133847493e-02,1.856064421384762825e-02,1.938620595178998027e-02,-6.118067489948153526e-02,6.355693902346384871e-02,1.526863060797330716e-02,1.220272241089432608e-01,-1.371143633159290776e-01,2.666411224860884208e-02,1.393242063418615173e-01,1.135491043972011310e-01,-4.052921357285068846e-03,1.109253825776253671e-01,4.151945043008103964e-01,2.389275128495495920e-02,3.296428852179262403e+00,6.556896653541827158e-01,8.568946071298076672e-02,-1.909958461146847933e-03,-5.036784025342980198e-02,-2.131943594238928930e-02,3.412975518142704473e-02,9.211553948386692892e-03,-4.399662803939512201e-02,3.574571236793619433e-02,-3.404734165691963160e-02,7.342134033173572383e-02,-4.022177157044713736e-02,-3.933470054081128139e-03,1.061065448428754471e-02,-7.576132123056256162e-02,1.722339337706877416e-01,6.407204000875905969e-02,2.792285100638662240e-02,2.849637545917546935e-02,1.033050001371905585e-01,5.068504308114625545e-03,-7.046940461210550455e-03,8.211187381098190852e-02,-5.739384684583458823e-02,-5.080356567059610834e-02,4.217869762110430104e-02,-6.584965962642158610e-02,2.675219480619294918e-02,5.907837119296498012e-03,1.933514383391215716e-02,3.492716921673140462e-02,4.344407704071921034e-02,-3.707945739807556179e-02,-5.339872695552842080e-02,-3.226819090442265003e-02,-7.468802127714794549e-03,1.107231192371505718e-02,7.413594138463046931e-04,2.887892435069500455e-02,-2.554252971692574925e-02,5.127881807332675124e-02,-8.101501111967807089e-02,2.116072553698076023e-02,2.909768093652122592e-02,-5.915390750838341732e-02,-6.625655926124714157e-02,-1.162402681355562822e-02,-1.375069240369218744e-02,-5.323100892600110892e-03,7.435522108791667480e-03,-1.087451323002038527e-02,6.097280161477945659e-02,3.062883091148276005e-02,-3.525370810064513971e-02,-4.567483049780188264e-02,2.119252472256399553e-02,3.504085555197268553e-02,1.071972918975877681e-01,-4.408184750653149769e-03,-4.271135465588396518e-03,-5.154168056953899180e-02,3.671206720110451599e-02,1.792006176637633841e-02,-1.001461806836292066e-02,3.138280599108330543e-02,1.921777371314370084e-02,1.189745852271987397e-02,7.898654451697280365e-02,5.359599171342113028e-02,2.346005890320276496e-02,-1.771160948983273309e-02,2.700536029127360155e-02,2.622918816249579857e-02,1.856509525676844395e-03,-7.789505409015813620e-02,1.508661641125624668e-02,1.692103586168946378e-02,4.414030109324099116e-02,4.252970999037704314e-02,1.023173615226563972e-03,1.040326390072229545e-01,7.813095450857582280e-02,3.462871134274639329e-02,5.513832566791318501e-02,7.121966880284298640e-02,-9.765566323724215233e-04,8.755479001711405362e-02,-2.918340104076264704e-03,-1.177430522837982219e-01,3.498388334753507745e-02,4.920824396844429571e-03,2.737003005615924744e-02,2.336979412359531730e-02,1.065756497394794097e-02,2.575771791595704227e-02,7.416324841724817197e-04,1.499689416336639526e-02,-4.028065244056547312e-02,4.272411379147419280e-02,-5.458420089445845808e-02,8.191289408062664423e-02,-1.685287983089951355e-02,3.144231730381004397e-02,6.440380431957230811e-02,-3.106965640867027229e-02,8.358091950094974701e-03,-3.895247491774622445e-03,-9.867482462945146096e-03,2.291213700126838726e-02,1.560428492230500966e-02,-1.488933737450266574e-02,-3.232573305204381603e-02,6.775923929837900095e-02,2.631009039457495036e-02,3.310919995982517655e-02,8.855487712417789425e-02,-1.475887690504451566e-02,8.911143002044386030e-02,1.689271288039572577e-02,7.310879504124388750e-02,4.919406412228425479e-02,1.229880944076690644e-02,-4.148735073556234637e-03,2.442507209741735449e-02,1.235098375889719276e-02,-1.506959123108917581e-02,1.094219715992837336e-02,7.184190308737821440e-02,-6.456651896070818991e-03,8.345068794428482650e-02,4.863578733109769764e-02,1.578209670263991740e-02,-3.624999916784881621e-02,-7.125909815356190613e-02,-1.076740798642994781e-02,3.828328452220581407e-02,2.660360409685007255e-02,-8.755197906794133858e-03,5.566254446964246511e-03,7.257763798509953013e-02,7.193547074384393225e-02,-1.355822340510115173e-02,-3.838963135096315482e-02,-5.915475240987649180e-02,4.027464743182119361e-02,1.510152742668175764e-02,1.078850347034873182e-02,-5.112228068170268647e-02,-5.183921960719204899e-03,3.351096644035053002e-02,8.251010906225321462e-02,1.175874358742357191e-02,8.497129548185299031e-02
-6.338916814616042672e-02,-9.192263144213640158e-02,9.101007423140754227e-02,8.453809148383384375e-02,1.592434466064854837e-01,-8.462850886297897113e-02,4.111833616392114588e-02,1.237007712967080029e-02,-1.042287183046749499e-01,-1.467680316016836684e-01,1.719671072262496381e-01,3.660293167462123909e-02,-1.358825103607775864e-01,2.749795467839626431e-02,1.805150530947410570e-01,-6.319806663625904264e-02,9.157599837335940809e-03,-1.948533333965029035e-01,9.085456400126828980e-02,1.125414845446307960e-01,2.019463050650265323e-01,-1.037040621945884908e-02,9.647113617220136328e-02,-2.391235044718585667e-01,-1.121255862589881858e+00,4.282129495855493850e+00,1.910348873557801697e-02,9.207326592909710616e-02,-2.014448513871519297e-01,-5.715890057008619907e-02,1.991176668436794306e-01,-6.660556506811059901e-03,2.056568057508770947e-02,1.151820688290825789e-01,-2.989512010337621109e-02,1.280843728608678511e-01,-5.968151629545023068e-02,1.437937415833757948e-02,-3.090673508421410559e-02,-5.210678610665232802e-02,2.999778074725534954e-02,-3.461934109097825757e-02,-3.781747043324500124e-02,7.928556996078266195e-02,5.853224793218747557e-02,-1.954450484672494437e-01,6.660511632632465373e-02,1.627198845648735182e-01,-4.883485884514013331e-02,-1.306085591601117112e-02,1.540112943466082594e-02,1.510702508602496975e-02,-1.794752655373903494e-01,-6.516317900965677701e-02,1.138171370350787581e-01,3.622131632314738031e-02,1.260929960083294887e-01,-5.409685928462760335e-02,6.492760668594493856e-02,5.855467395729079677e-02,1.663780388382304215e-02,7.660311048424446601e-02,4.299194332263496510e-02,6.911507891287768657e-02,-1.091177489297658759e-01,-7.546658994535851428e-02,7.369735986556136265e-02,-8.263209832250432985e-02,-3.003638026606959572e-03,4.650020306429616251e-02,-1.100238198219919972e-01,-8.237075224646389637e-02,-9.899498281174848313e-02,1.156668416890775652e-01,-4.484442337081147312e-02,4.801449733189243341e-02,1.620588636517454884e-01,-1.422052424410162087e-02,6.607706332187861069e-03,-3.656371798821047431e-02,-4.885358858834187162e-02,2.483944451786765095e-01,-9.387422631227975572e-03,-3.413596477532825774e-02,-3.615360428989618929e-02,-3.703428684631949325e-02,-1.673392758860017468e-03,1.910457989828857287e-03,-1.057449503594270895e-01,2.269489240469774877e-02,-3.054588716120064384e-02,6.709953125480774827e-02,1.650943313516892164e-01,-7.257349765635527639e-02,2.360942461567493156e-01,-4.013581547978323921e-02,7.726728872939664372e-02,-5.193382841957348839e-02,5.163875492078259799e-02,7.615131756929577334e-02,-2.820401448329636074e-02,4.534943319658012867e-02,1.132193349306050006e-01,-2.559201560080971993e-01,7.012980629751135175e-02,3.847696067142344911e-02,-5.866603514100951489e-02,8.221201940069124137e-03,4.365217242710962148e-02,5.431709227419481006e-02,-2.537470965766705153e-02,1.177968875680121680e-01,-2.626740645578005962e-02,-1.265330887761858536e-01,-9.910559754681638744e-02,-1.059083024577288715e-02,4.491788111322442267e-02,2.706016596567987695e-02,6.358591001116674357e-02,1.315708078095345068e-01,-5.510535548817240697e-02,5.444595858988926507e-02,-1.042989684400893458e-01,2.338663841091970577e-02,-6.389688036666395232e-02,6.613924402038795503e-02,1.933181272955251384e-01,-5.314149813199364053e-02,-4.330048139521079642e-02,1.751226143398307289e-02,8.280096264376593518e-02,7.985182481012442768e-02,9.646254572544220307e-04,5.129261419302553375e-04,5.368048572405816066e-02,4.116089235892090442e-02,5.156275793155367868e-03,7.678975144752495097e-02,3.477380150693178823e-02,5.105575593689976738e-02,1.911964529707678440e-01,-2.046897792025378655e-03,1.192385090631440103e-01,-8.370256926072126846e-02,7.908482555247141332e-02,8.533964858621755079e-02,1.395790938487956045e-01,7.552859884033683371e-03,-2.984976209761620869e-02,-1.171102419819357449e-01,-1.428767747686353617e-01,-7.109898678425635721e-02,2.891440830077334767e-01,6.916156003986716032e-03,4.056366997277736919e-02,3.940719275719488379e-02,4.317925660828909190e-02,-1.854595403768837525e-01,-1.487400364434565136e-01,1.242748038168043773e-01,9.258520722027777095e-02,-4.961017982505130930e-02,9.581542059006679934e-03,-1.297179258155098658e-01,1.542146718465907049e-02,1.120376053989515300e-02,1.118343291816114443e-01,6.939181934953732485e-03,1.662223542730556156e-02,7.591784447076005415e-02,6.166014204631616036e-02,-4.203280492341860547e-02,4.681430886163738536e-02,1.131529463670417068e-01,7.130045147938336714e-02,1.103671803248861827e-01,-2.187652786497647911e-02,1.093952912237724368e-01
8.463885490935242617e-02,-1.891541849273987441e-01,-3.852794250463629101e-03,-1.201341043149258409e-01,-1.523666861990898846e-01,-1.375266303638174592e-01,-1.191083135537882726e-01,4.701145737890861237e-02,7.213796982382794654e-03,-3.640732704101511119e-02,-2.120711874735925484e-02,-5.160505794880045766e-02,7.173904688853691147e-02,4.118425289567823055e-02,9.853319505448582261e-02,-6.087597229676283694e-02,1.079328353329347817e-01,-1.062467306462196587e-01,1.830838265316949223e-02,6.851833492011008553e-02,-7.357071676938205240e-02,3.067406718807772978e-02,-1.773509371002660595e-01,-2.918749645896814293e-01,-1.546990643902643459e-01,-4.008936415896528493e-01,2.116003463403616003e+00,-9.264889135019023850e-03,-1.592097077954587325e-01,1.228487911367689867e+00,1.689762799177786934e-01,5.901825754659304618e-02,2.126982682076079822e-02,8.174379486580682364e-02,1.025612491667773074e-01,-1.219345240940995431e-02,1.083113997743609946e-01,-1.284025226397008182e-02,3.820760013340517708e-02,-7.312332438150748182e-02,-6.259303027791034146e-02,4.605031859746958750e-02,2.625959843344380026e-02,-5.915838411709512662e-02,-2.452699096373376145e-02,1.484055220634831751e-01,6.311736524763492118e-02,8.618274375111155405e-02,7.798427575234408160e-02,3.688343499111572388e-02,8.765969920406031790e-02,-8.832225306696762923e-02,6.312770543374716416e-03,-5.114119500660625067e-02,1.908523679491578098e-02,1.088557496142577158e-01,-1.180361973071769946e-02,-1.341809898462066088e-02,1.214939718332711249e-01,3.327783208960517075e-02,5.311995330278110328e-02,-3.793503845314016854e-02,4.870952376816604229e-02,8.091166487186957079e-02,4.690826265991084737e-02,-5.234330306948189321e-02,-8.910476699274783030e-02,3.815155312440036278e-02,-1.289203972207818988e-02,4.693174482815578447e-02,6.706318913638585621e-02,4.683166536259348450e-02,3.157294966306824907e-02,5.761135258959877020e-02,2.193253367541793744e-02,2.223975550604612855e-02,6.003219004238974582e-04,5.595511480977571894e-02,5.542179480068752662e-02,1.983104313911281114e-02,-2.263006038320445820e-02,3.348651433001074984e-02,-4.969218467964426830e-03,-5.921806394844918208e-04,1.615675351717121150e-02,1.730242487762409867e-02,-8.753600045050845269e-02,-2.684674041499337388e-02,3.140862334348765161e-02,9.756712775506497237e-02,9.616559169108493399e-02,6.347619036201961051e-02,1.064716615175890779e-01,-1.551267491734659686e-02,-6.309575445109089076e-02,6.819252165856898307e-02,-3.099476808348158689e-03,-4.307059397848618520e-02,-3.404840342162170769e-02,5.397794275437457073e-02,-1.193447539521873442e-02,1.817186704383502438e-01,-5.097728286013990251e-02,1.797382983547929011e-02,2.354476249028700577e-02,2.349473046310630170e-02,-6.567307555950625819e-02,4.636237616195616057e-02,5.798139971755631589e-02,3.175390986547294014e-02,6.587821946490891737e-04,-1.959596723878120547e-02,7.555383454008111899e-02,-4.521184599087297445e-02,1.813037499031016492e-02,-4.127106808572768293e-02,1.410523736056706022e-02,-1.277427501574747090e-02,3.417422650085534530e-02,-3.676453255164770229e-02,-7.482408015563014880e-02,8.793367012383029868e-02,4.767058859767067669e-02,-6.006436577076432887e-02,5.655827141204224778e-02,3.971131294264482192e-02,-1.272753410316659339e-01,6.225459964769351762e-02,-9.673746932883324837e-03,1.786102189600641266e-02,-7.394133323661684909e-02,7.139840505445313153e-04,-9.196971809340744042e-02,9.665403408434801100e-03,4.264489346839956535e-02,-1.897307942284830184e-02,-2.502611763782171608e-02,3.841728599048330195e-02,1.158305113845870260e-01,1.602808364246715092e-02,-3.775619254970864758e-02,1.689114416178037065e-02,1.782807003725299030e-02,-1.036370865286703920e-02,-9.390108631427440677e-02,-3.431280443149669485e-02,-1.009404893979225504e-01,1.155055881153177894e-01,-6.541833541642776140e-02,5.206619454038400457e-02,5.707922958492912813e-02,-2.297793919393357684e-02,-2.290127232006731323e-02,2.232557237497291569e-02,-2.559047079351591328e-02,-3.431869970189688288e-03,3.371228474324103330e-02,-2.070573257383428664e-02,5.717203509082596780e-02,-8.902223316019268473e-02,2.120489667651812710e-02,-4.909365694072219399e-02,5.588225370649845501e-03,5.683168926513134517e-02,3.923278486269507481e-02,-6.474032709163189681e-02,8.074246332195009201e-02,3.739384121261621341e-02,-5.643704391598601544e-02,6.711816075559823291e-02,7.002598215987269892e-02,1.811589189671397940e-02,5.914238247834288642e-02,9.460362457731856523e-02,-3.865542438150055410e-02,1.109835581320573888e-01,-7.880685983973310937e-03,2.431575809616310160e-02
-9.642229693829268422e-02,-1.837391265277075747e-01,-1.117422807971364257e-01,-5.076585932888676156e-02,1.169707273040532791e-01,5.819139516654114191e-02,2.373373371645686250e-02,4.178166167576838341e-02,-1.680846967156152810e-02,5.896459001317200938e-02,-1.253371792076745095e-01,8.847354078915478648e-02,1.032429244434809879e-01,-3.283614630641504533e-03,-6.547511887917550899e-02,2.860468527866372734e-01,5.961997250870936654e-02,-1.126698979949024848e-01,2.165795014408764818e-01,3.024617506706068701e-02,-1.052575936560032205e-01,3.477853063396874056e-02,7.455981964793670369e-02,3.306702762227031744e-01,5.528158018506917210e-02,3.799302484091726662e-02,1.922857033067820465e-01,7.093357280892552907e+00,6.976030224554022330e-02,1.029012906485861967e+00,-1.768317732966990380e-02,1.630445881293314265e-03,3.946457949213507538e-02,2.427217178816130916e-02,5.262780205866404715e-02,9.092247889890162083e-02,-4.535754084461016133e-02,-2.721464551130375886e-02,6.932521865107246772e-02,9.525414474574321957e-03,-2.124991921767897460e-02,4.374852997545476165e-03,9.671038093530587298e-02,3.797642105169763554e-02,-5.444681997726479039e-02,-5.543089582299520063e-02,-8.343143211869251397e-02,-5.299642502074309452e-02,-3.744018819972856540e-03,-4.969150084958428443e-02,2.772985400579542140e-02,-5.596011232541657499e-03,-6.225851199528559948e-02,1.583001316617559939e-01,6.648666330992385187e-02,3.917996445505016884e-02,-3.349411878355912364e-02,2.408752283864492097e-02,4.421870718035098881e-03,-4.774216051409208017e-03,5.516616916000954135e-02,-2.481392821072206378e-02,4.143026217613809264e-02,-4.031282319121421744e-03,-2.007799218743619094e-02,2.528440483091970448e-02,3.744215429733815242e-02,4.646786347807092127e-02,1.505896148222805528e-02,5.903864074476353890e-02,4.657486636613489966e-02,-1.891715544749216285e-02,-8.298323349597586801e-03,4.896017859640158787e-02,-6.127690198884051115e-02,2.522078909507729019e-02,5.050790414389984273e-02,4.713309427229454840e-02,-2.777746352409914132e-02,-1.278056389793455483e-02,3.901217363677225020e-02,4.885515504605198768e-03,3.178408213454569919e-02,5.150198731713554606e-02,-3.341414599238642230e-02,8.209645065342528747e-02,-2.757168761005807101e-02,-7.318269034982587129e-02,-3.088984847125021693e-02,2.174105204358911872e-02,9.089669791350256378e-02,1.201363189988434582e-01,7.328053439526110990e-02,2.639516042835184442e-02,5.178429962329973019e-02,-8.661214039700473877e-02,9.355711780685141421e-02,3.159128872844456370e-02,8.609314835933078169e-02,9.950422510152423516e-02,1.046946841530934334e-02,7.426005845886994583e-02,4.731436915396404486e-02,-2.848427737299279866e-02,-2.749489525944448162e-02,2.373682031661594749e-02,3.599483599806153206e-02,7.508890559595479686e-02,5.185714272176950024e-02,-9.811795719398146848e-03,-6.997102633440237252e-02,-1.252875992847600831e-02,6.851399210096355274e-02,-7.922372099629998443e-02,2.689742967624490257e-03,7.889530970233921137e-02,-1.224912158485531449e-01,-3.508637293505643268e-02,-8.566691552244284913e-02,-8.641601105842692740e-03,3.642794998828444153e-02,8.901270160073551652e-02,5.192920719662678583e-03,-3.822519737668178541e-02,7.449106930534410420e-02,7.947116575629618873e-02,1.105681897758854920e-01,2.522391059511296801e-02,1.177297345073754012e-02,1.695061440477464709e-01,-2.287630714955840236e-02,-2.021681403936226480e-03,-4.426970586307032128e-03,6.440528458849942295e-02,3.135633263349704020e-02,-4.291688519380262162e-02,7.053658660203601660e-02,8.724864934464339472e-02,5.395540422565473643e-02,3.087188885699848270e-02,-1.067475748904947799e-02,-4.495356566287572742e-02,-7.090046566076644782e-03,1.605666047014382702e-02,3.449707812914488969e-02,5.810423328918181557e-02,1.199971013898045585e-02,-2.249336357729511335e-02,-1.587505693021502504e-02,1.134504693706847762e-02,2.350788366551095215e-02,-4.904348736610079224e-02,3.305101080044197791e-03,1.017868548761964032e-01,-3.932317891433058724e-03,-4.990129478270837610e-02,-2.544155171301335991e-02,6.632445637809339378e-02,-5.725887685813674938e-02,2.939541671436130335e-02,-1.505500585865065383e-02,1.735433415155679567e-03,-3.334308191385000619e-02,-8.620327211303491222e-02,7.434741501264201247e-02,2.387450331226432382e-02,5.231990711308526221e-02,-4.849506090564607158e-02,1.307956900022868262e-02,9.499376310152142511e-02,1.345702594654464047e-02,9.275086681352963380e-02,-5.861394704787736831e-02,5.690375913873139263e-02,6.241821004225694275e-02,1.607095286188923999e-02,-6.021900054580085065e-02,6.625039291682978393e-02
7.429315832748900617e-02,3.147732647805837058e-01,5.470705060565794059e-02,5.483040648121913913e-02,2.960481089389983139e-02,1.033599329286236934e-01,-1.180053521136924591e-02,4.580903291954419726e-02,-6.596548879951873168e-02,-1.384512905455938074e-02,-5.336095448021877657e-02,-1.002554138296815472e-01,-1.146656683594239959e-02,8.829707724605752317e-02,-1.054172592562719196e-01,5.837023628983799978e-02,-1.224645727160470800e-02,-5.915236434194542231e-02,-5.063063761320726885e-02,7.024912535891632281e-02,-2.890805750408241819e-03,-8.641682948109202789e-02,-1.299909567019690015e-01,-2.289035566422787382e-01,-1.780661824622536693e-01,3.278629053323278697e-02,-2.115052140376256773e-01,5.142209430658012392e-01,2.877935266446596252e+00,2.991648867342317164e+00,-1.090988200939193263e-02,3.826071621131246769e-02,9.261988823660106951e-02,-3.372574702248631352e-03,-2.172040882546543913e-02,5.949872565739127784e-04,-1.573052221905406681e-02,-1.386107932216043385e-02,9.319593151433228084e-03,-4.819205550987234327e-02,-8.738110085845693376e-02,9.376239506411549601e-03,3.738520395426121051e-02,-4.019636020129972037e-02,2.840692434735470062e-02,1.002642622192584793e-01,7.027433239225389094e-02,-4.006832066705472845e-02,9.570901864775530066e-02,6.365747009833899739e-02,-8.236934984318660877e-03,7.018224611233470078e-02,-1.162137654943091493e-02,-4.238481388539445255e-02,6.743425217148167616e-02,-4.317978291250339912e-02,4.521683507585936256e-03,5.749597025309606535e-02,1.808992161171821961e-02,-9.813296954378358458e-03,-4.040513854500536045e-02,-1.804721532104804765e-02,5.500207460817879007e-02,7.023473563721067958e-02,3.675164319645064098e-02,5.097258704253106697e-03,4.131881498886646326e-02,-8.817677838019868236e-03,-4.331379592754323882e-02,6.975938453076142853e-02,8.899183889681062942e-03,-3.086013578811140374e-03,6.576494577432494271e-02,-1.490276072876595137e-02,4.300924164006197231e-02,1.064768398956497802e-01,7.021505874762701271e-02,7.660241261802790136e-02,-7.122330595054715552e-02,4.743263055547452395e-02,-4.468449022432176287e-02,-3.828728822383628549e-02,1.368331801441736301e-03,5.596248449301984701e-02,-3.431095128017806056e-02,-1.297479001637402880e-02,2.617597711576085534e-02,-9.237553669285829272e-02,4.969969935556740881e-02,-2.763825607824699562e-03,-2.068490458258340561e-02,-6.847451811599236660e-02,-5.556489067710467661e-02,5.113880628689983221e-02,-2.322721118060450118e-03,-2.292510131299631618e-02,7.002966108487135299e-02,8.728055899354393576e-02,1.625514766078548293e-02,3.475001066131432753e-02,5.669723158150502540e-02,-1.487947646927023811e-02,3.174023242412742085e-02,9.146368993867386166e-03,4.941573388784716719e-02,4.799009560417702436e-02,2.573501151076249688e-02,-8.401061831596879498e-03,1.229474774089128059e-02,1.324157786387686851e-02,4.412066297408355833e-03,-5.946920217619596459e-03,5.576267621280139516e-03,-8.994840577301345397e-02,-1.811376347823732231e-03,-4.887890772906081788e-03,3.483342304958560089e-03,2.273547059431927590e-03,2.685145567734005534e-02,-1.041629366148000280e-02,1.910606690352464887e-02,1.285897537882496958e-02,4.487896361142411361e-02,4.136370784974889581e-02,-3.649522124122821058e-03,8.457192340911755951e-03,1.897238195711936290e-02,-5.562045880624322258e-02,-7.761482755127116322e-03,1.625917886711399779e-02,8.555277364604563575e-03,-4.404834695570641889e-02,3.478923607513502436e-02,-5.362208574730283062e-02,3.642585083767416188e-02,-3.900199741870303822e-04,4.854749196093784830e-02,-3.137806385193452584e-03,6.759987568870229335e-02,2.870385064477746530e-03,-4.418436123314536945e-02,8.616967043427120609e-02,-3.285683395110741700e-02,-6.013160568470770490e-03,9.870021459903000061e-02,-2.905736939404260019e-03,-4.840104556315952961e-02,2.233466475692276812e-02,7.463846682413066702e-02,-1.901769404551632500e-02,-3.461603363408474049e-02,5.866454776835314938e-02,-2.793148759358385011e-02,7.685773780945608091e-02,2.686732080783364642e-03,5.944806873126277924e-02,-3.779644055112101747e-02,-3.958469559267476651e-02,4.262192850358389323e-02,9.758992370836027871e-03,2.542154050545399058e-02,6.085577534016457096e-02,-1.485749987266767741e-02,-2.129875639834570913e-02,-1.302823059861284508e-02,-4.612220680593133275e-03,-8.491120823225298264e-03,-3.112226092499842042e-02,2.200129023809220888e-02,-4.268039741374489958e-03,1.798977365892608440e-02,1.419283861081133413e-01,-1.028760612041860617e-01,3.428317467549204817e-03,-8.857959294363592848e-03,3.892589142834207427e-02,2.874399176684503537e-02,8.637115181198501412e-02
-7.142221777752224415e-03,2.243200236586832819e-01,5.884928983434265654e-02,-3.732901030028179523e-02,3.636941846499223280e-02,-5.223643579545862031e-02,-3.105940856047737300e-02,-2.869814277502075531e-02,8.646530001050237169e-02,-2.774308719682486504e-02,2.800032911708452699e-02,-5.534265504541781983e-02,-6.268840553046155228e-02,5.546394387112613122e-02,-1.919142330529123369e-03,7.232351938217521092e-02,-1.446969699797039377e-01,-1.384490614998768188e-01,1.718273235571387419e-02,5.378779163727630958e-02,-1.582469592790811813e-02,1.988827695142731181e-02,-6.427264465883295030e-02,-2.995847474143189387e-02,-2.022555936441693680e-01,-8.131345360612268758e-02,-9.734594446938696355e-02,1.215141179689865070e-01,5.174048068961217828e-01,5.457681626490871629e+00,1.788487523308086510e-02,2.556359420909590230e-02,-5.541409652443499839e-02,-5.038900449225842092e-03,-4.380351943529498665e-02,6.764960760903614145e-02,-5.347606593171692901e-02,6.449725048288537654e-02,3.371063990465328342e-02,-8.359782109289557936e-03,-3.311554213629343962e-02,7.989814578831033742e-02,-1.034584880839845011e-02,6.099334107157795837e-02,1.300009247060223382e-03,-4.496667536319438885e-02,-2.286231217668623777e-02,2.999658641541967999e-02,-4.920126294849118398e-02,8.928832640118891315e-03,-1.733252574657138598e-02,6.804362540130419468e-02,-6.085385628709447797e-02,-4.244634128705614823e-02,5.166343804631800402e-02,3.579629076806917914e-02,1.756507346875693307e-02,1.952425215603632025e-01,1.468931136601500827e-02,2.182183381552621135e-02,1.203450125447667884e-02,-5.685500856715962337e-02,9.323262475693675985e-03,-1.311062320460536224e-02,1.846493869240472402e-02,-6.601454344750538883e-02,4.043369688486284086e-02,6.987033810871577655e-02,1.957746628783396323e-02,-9.673893743537193002e-02,5.025382984142044707e-02,-7.868843715592620247e-03,-2.378146768338001982e-02,2.599035241755518616e-02,2.177018933217290259e-02,-3.160369231781068322e-02,-7.846307996658599682e-03,7.158853296200962113e-02,4.632233789218694053e-02,9.047138602155585518e-02,1.847254354360130038e-02,3.573029376149563369e-02,-4.048863836479051070e-02,4.903141230963050518e-02,-6.103781150232644170e-02,9.489389665827461726e-03,4.004172661906098274e-02,-7.704612464419992313e-02,2.160745790521960332e-03,-2.506403021801286227e-02,-3.745844635242692039e-02,-3.579776013147546038e-02,5.421316969882822301e-03,3.873694739130412179e-02,4.886256135113168503e-02,-4.559723782326544593e-03,2.709166615509288334e-02,6.294961229176788964e-02,-3.912992326101855795e-02,-3.829864261711362489e-02,-1.585882674432220404e-02,2.214849107773968900e-02,-8.745174012650626730e-03,-2.512421176172717832e-02,-2.519810577023557166e-02,2.296317486143048883e-02,-2.143048968606735272e-02,5.811898326752719390e-02,-2.951686861961264063e-02,-4.639479390803175757e-02,-9.429491252793379893e-03,-2.837294509870128684e-02,5.165666911631879021e-02,-2.039816191548959184e-02,-6.752715704420804432e-02,-4.850389013402937877e-02,1.719951453996596338e-02,-7.333861240281568626e-03,8.406072172623230143e-02,-2.399630333563929768e-02,8.025665157869009414e-02,5.198770701997566107e-02,4.831687063152036860e-02,1.809167880536248279e-03,-3.519805128493846188e-03,2.249516800645958922e-02,-1.139323151135680778e-01,6.596096889379843287e-02,-9.224650382039800700e-02,-5.549451455813985551e-02,-1.178703187310509506e-02,-1.469784792887606287e-02,2.891062321741987018e-02,-9.675817918194849765e-03,1.737616856085255623e-02,6.687057673244059530e-02,-2.737590286552036775e-02,5.064715520291567658e-03,3.649468895880786119e-03,1.608528328954814688e-03,2.125985646148426458e-02,-1.342734879748038943e-02,-2.392423355956556710e-02,1.873048219231944825e-02,-2.928928065357006699e-02,3.343086827674118106e-02,-6.779868130676647286e-02,2.002106508674725283e-02,2.598502137907498719e-02,2.448587123792867956e-02,-8.108467528025008197e-02,5.101956289136357764e-02,-1.800592547120775933e-02,-6.222438076287369058e-03,1.882757841535717680e-02,7.070347083797126619e-02,1.778267015005501051e-02,3.934265440541829736e-03,2.006006495109138171e-02,1.374702827027493753e-02,1.151883418188448527e-01,8.466101286539041981e-02,6.857047042208371142e-03,3.106328671974789221e-02,-1.380083510790628201e-02,6.767829799149222871e-03,-2.197144371537385066e-02,7.115764412825426044e-02,3.361541976724724545e-02,-6.929349683983837549e-02,9.166369117995759597e-02,3.682243145125411315e-02,-3.545113341540971630e-02,2.310350242895385653e-02,3.233471940551727042e-02,3.579593803822918308e-02,4.526849930523198229e-02,6.374981885931993442e-02
6.536264886513389050e-02,1.232026559410189931e-01,2.517286508875468676e-02,3.279255671732103639e-02,2.406835688378544669e-02,-2.525656182443106190e-02,7.519764852668701233e-03,6.723732185169975506e-02,-9.107848710157566419e-02,1.779467502125118422e-02,1.474551179894665470e-02,-1.058162947032808762e-02,1.033604552825592299e-01,-6.753050332455296824e-03,3.098113416148342777e-03,2.462988489639719725e-02,-8.406103280511872944e-02,-4.636867940698466417e-02,-6.608648497600247418e-02,2.101019897274664094e-02,7.404212870681045611e-02,-5.013203746198352517e-02,2.790554486027251035e-02,-3.467778646378502638e-02,-1.904260138573930436e-02,-5.734867001644046447e-02,1.122218133177475402e-01,-1.356371571537942078e-01,1.393829036178157984e-03,-7.523763606750635269e-01,-2.055643183313414502e-01,1.343110086296724348e-01,8.926002217347303071e-04,5.316606329530165070e-03,-6.867662740360480633e-02,-1.088442690224665221e-01,-2.217332640622825604e-02,1.768831106627867869e-02,7.091647033629347452e-02,-1.600735793776363915e-03,-1.115882883621223225e-02,4.433740110570312531e-02,2.389194390851420366e-02,-1.156084698120651323e-02,2.215769071004851723e-02,-2.377990628620204119e-02,1.272505968010073304e-02,9.964659856227540968e-03,-4.805271685979793650e-02,2.192616513004962478e-02,2.157193934140280017e-02,6.271734759229792696e-04,-1.782628946490753905e-03,-3.157193539533370650e-03,1.020699807021391466e-02,-3.764446158656688246e-02,4.924441886334046843e-03,7.304849257052927966e-03,9.487939470625235405e-02,3.758311171970591530e-02,-1.871746576735826631e-02,1.365929617976799175e-02,-3.440767195029521136e-02,2.079745400961373683e-02,-3.517021982455812573e-02,3.336726145998602025e-03,-1.489601629297248875e-01,8.381138448428704368e-02,-6.127558512214906217e-02,-2.133865294942847296e-02,-3.589877862860853946e-02,1.611810572914126882e-01,6.238371392561441187e-02,1.395209404132641317e-03,9.971657095294466852e-03,-3.172174839830367576e-02,-1.103662887515247520e-01,-3.651555604641969210e-02,-3.806687453820414846e-02,3.539221612725283045e-02,2.703343849356619130e-02,-4.026129755756992223e-02,3.767421078000002255e-02,3.389963760981994090e-02,8.173742180938982013e-03,2.590629505625138547e-04,-5.572792755951320315e-02,9.079146123809615776e-02,8.630179227464754299e-02,5.757009517292951961e-02,-2.557179556432543147e-02,4.047593801674014696e-02,7.698378373920647388e-02,-7.561210920183994433e-02,7.848783223019529728e-03,-3.374231345716793840e-02,-6.903292454250278126e-03,-1.820138926199678653e-01,-1.915679043047556832e-02,2.367434755629234736e-02,-1.009834227417454565e-02,-3.562068902095293088e-02,-9.032298101659497203e-02,3.582271313795712397e-02,8.333273892281503614e-02,-6.193267664060113364e-02,-3.516506698931000938e-04,7.335227248024889235e-02,3.311008602710213689e-02,-3.705640778501944482e-02,3.396591358549966994e-02,-9.901211432304693819e-03,2.133728931233130205e-02,-4.236379048342372305e-02,5.205840114524015738e-02,-5.908776678844587446e-03,1.946614807395975755e-02,-2.051231096948570413e-03,4.039104271716129589e-03,3.001177193293047551e-02,2.867989340811880495e-03,-9.100676330570961481e-03,-6.455446784476907840e-02,-1.900790424705048332e-02,2.350512217646956361e-03,-5.416595729750799462e-03,-1.932837078320312485e-02,-1.350458891822456549e-02,1.423836469013338522e-03,-5.479856751141678334e-02,-1.522889836219188352e-02,5.313047070143742112e-02,7.729040952395298432e-03,-6.826695071173599638e-02,3.279967567516718641e-02,6.249498863327099946e-03,4.736614638027041024e-02,6.972474122365175664e-02,7.186760222252676356e-02,-4.314891731901569771e-02,2.736625220077196219e-02,-1.058330698256215591e-01,2.970187065783708169e-02,4.885534523781320804e-02,7.334853447185393782e-02,-1.224884783250706176e-02,-3.591849695093406875e-02,2.241238860200444813e-02,-8.692773866479885925e-02,1.868490815969843163e-02,5.102495194597104350e-02,5.167647029720771890e-02,-7.651765018082652171e-03,2.164219507855273672e-02,-4.152358182469012560e-02,-5.483289909773706589e-02,1.741121009254549372e-03,-1.245239572859634276e-02,-4.556251710379219388e-02,-3.712520770608089549e-02,-5.631818643166654897e-02,1.626850885584167974e-02,-4.254103341842442598e-02,-1.326870663609150446e-03,-3.532437594387309587e-02,5.045209733869832763e-02,5.834877982294977422e-02,2.318156427354509802e-02,2.905715976532245379e-02,1.291294161846712543e-02,2.242579291329439839e-02,-1.593801996348488681e-02,-3.222631486668579154e-02,-7.576147043443072146e-03,-3.856428457939312104e-02,-2.544315102129218742e-02,6.266589677755457499e-02,-1.345973628700990361e-02
