4.390384511318669303e-02,1.008171742819254091e-02,-3.235183156521884151e-02,-1.734532566553939126e-04,2.758238548941851272e-03,-1.009760739523116006e-02,3.562772158598995903e-02,3.753581752157740363e-03,4.277555171854253643e-03,1.399248696367868736e-02,-2.255224748324296744e-03,-1.653499415254035612e-02,1.552479616246476082e-02,1.175066393112613860e-03,-1.019132164785333493e-02,1.085132179862829081e-02,1.275931948228346130e-02,-1.905219388481552839e-02,9.668439360424614659e-03,-2.960771956555682122e-02,5.489003748864784531e-03,-1.852376172138846255e-02,-1.297020115636821069e-02,-1.524421646190437900e-02,-7.119025693738612742e-03,-7.955639810867331206e-04,-1.721529632079445496e-02,-5.767516458789450316e-03,-3.239284381935060770e-04,3.210542311118423815e-03,3.629886462700856499e-03,-4.834665218867700148e-03,1.297519689349457481e-02,-1.313217298349422281e-02,-5.611306043770657170e-03,-1.351806792540213246e-03,9.615340642013083319e-03,1.575350958169943662e-03,-7.616254564760725418e-03,-7.970126465547924116e-03,9.551407135724263031e-03,-1.314705481190866230e-03,-3.467753858790813964e-02,-1.818557802108623821e-03,1.362697453344068835e-03,-1.257273098554305716e-03,-1.380538079870373760e-02,3.158412936718583541e-03,3.546034459548982193e-03,5.471617118687690552e-03,-6.127647150583962789e-03,-4.325487680325444673e-03,4.828237511616003232e-04,-3.650289987624735170e-03,-8.272097284440831089e-03,6.287331431729962714e-03,-4.786481354487526554e-03,-2.106370280190088609e-02,-7.283494314519661783e-03,-1.509967712481663851e-02,-1.078126917414440507e-02,-3.923875436127935261e-03,-6.107771724981741210e-04,-9.220702618629065400e-03,-4.148094996154988098e-03,-5.658162508886987671e-03,-1.204613945437721899e-02,-1.090294808818029204e-02,-4.643659622334985262e-03,6.331673066722507629e-04,-3.845610949861012393e-04,-1.853762778857825574e-02,-2.315708229233530771e-02,-8.447717149397080197e-03,-1.513956848584514445e-02,-6.135429968739788444e-03,-1.283909252722396791e-03,-4.817700533490209755e-03,-6.865975118841797370e-04,-1.801481198769316720e-03,2.051781876952456641e-04,4.880011451463292169e-03,3.506971404456457261e-03,5.942852055730247010e-04,-1.061403032533924512e-02,1.151564965937545634e-02,1.296945454698404665e-03,8.545604478890567656e-04,-6.053411670396823853e-03,-3.383911375158490291e-04,6.280992053116175519e-03,9.892392436633592849e-04,-4.357163047060739688e-03,-1.899458392869042209e-02,-4.749384037999606657e-03,-1.219617201507566156e-03,-8.159179836178569872e-03,-1.135296717426177542e-03,8.490457470339100865e-03,-2.179038437352890344e-03,3.808406074653329382e-03,4.686158968144141408e-03,-1.469401506098402463e-02,-1.378141772102279075e-02,9.437549920440291631e-03,-1.137296819779244801e-03,8.918938978524735151e-04,-4.268849550050827710e-03,-1.423582503977701731e-02,-7.486512366864767586e-03,-2.550750340601229578e-03,-2.036473080239564575e-03,-1.258134972860045289e-02,-1.884186852171066198e-02,-7.312233325586552958e-03,-1.360586501909995770e-02,2.955354172779229172e-03,-1.205385600688832666e-02,7.333456483504184305e-05,3.852759981854987636e-02,3.881579270614790578e-03,1.345596064265586894e-02,2.222033758228405750e-02,4.475953249109899251e-02,4.254771888546507279e-03,4.053988671897896384e-03,-3.587617572022401644e-03,-1.039953278777194269e-02,-4.118426938283958894e-03,1.255804344167966470e-02,1.172839021960016444e-02,2.461338755709940353e-03,1.582171821288417407e-02,-2.182501208542471371e-02,-5.870689699107886281e-03,-6.006955286943507603e-03,-8.389787193541670433e-04,7.861791844792702724e-03,-2.814773788016253393e-03,6.355066262189314565e-05,-1.257320579908394013e-03,3.858524410914696261e-03,-2.488598047236727576e-02,-9.712949616511633646e-03,-1.347472246357033984e-02,-7.107184688735710722e-03,4.236645307323863227e-03,2.916755840041506884e-02,1.665634428766763486e-01,4.804122681276692952e-02,-2.137944552091842684e-02,2.719326909995528063e-01,1.136381437818877044e-01,2.939340495129883976e-02,-3.428887276732733164e-02,4.891795261494835678e-02
1.195273082419020944e-01,8.592290178472407336e-02,7.671569779400250200e-02,1.366682591233139843e-02,2.737351713651378724e-03,-1.024215122040507964e-01,-2.894591471032333108e-02,-8.529038328538074420e-03,-5.418542086656279178e-02,-4.001675051030418456e-02,-5.370466821738376778e-02,-2.319126356908702159e-03,1.944686515882611266e-02,-2.272455132073922593e-02,-1.457310338162729479e-01,3.148644790105612629e-02,4.661973328438187569e-02,-1.995584638393575749e-02,-7.610196233857266512e-02,-5.423537341410872292e-02,1.637651499050335122e-02,-1.189183842251804457e-01,-1.828524001986252534e-01,-2.524226562446683225e-02,-5.697729613021630668e-02,-4.318919002270218271e-02,-9.503609304433922877e-02,-3.921438258293572648e-02,-5.876817428523059550e-02,2.229655522253280731e-02,8.013750124207694517e-03,-5.817013621802981718e-03,6.563845768841595867e-03,-2.081593961652318178e-02,-1.111816302513360041e-02,3.899219382706926688e-03,-1.868153161763496523e-02,-4.953514892401981312e-02,-7.406707204125521395e-03,-6.087424917616188202e-02,-1.020349749690959706e-01,-5.584247514831506285e-04,-1.392607661949894493e-01,-1.257988816409772448e-01,2.567171886141911274e-02,4.965945466014865667e-02,-9.214714564045638906e-03,2.183946577874046335e-02,4.987910262883119700e-03,1.248853525572594242e-01,-1.122149398044840485e-01,2.643479999875487929e-02,2.436803962780744598e-02,-2.412596916624326626e-02,-1.653370554447159205e-02,1.312179685595222037e-02,8.539604975771141956e-03,2.055758436368770523e-02,2.692270165710748675e-02,-2.563413413024425921e-03,1.885413136569476580e-02,3.574767121108894663e-02,-3.621796906525451970e-02,-1.501023909799929952e-02,2.266373557081303655e-02,5.265636595951845439e-02,1.040306233730227403e-01,3.453022857972448678e-02,3.318884665203020168e-02,-8.463728596680790070e-03,1.122619707823805102e-01,7.717481572268694578e-02,8.413128422090855596e-02,1.219530782399982222e-02,4.881840702744254246e-02,-6.228756403544825210e-02,3.672014908985803214e-03,-6.592803276833555937e-02,-4.438837412805604859e-04,-1.691420083289368534e-02,2.789952560374852480e-02,-3.743240125952605052e-02,1.784779311958257370e-02,5.533798984177289854e-02,-1.098649994807467632e-02,7.528763566402262020e-02,3.813003416608461843e-02,8.289842495607482528e-03,-1.179375544672817480e-02,2.654582780176874962e-02,-4.337597883412181582e-02,2.125094428041323855e-03,4.008297809946907361e-03,3.694647970397159364e-02,1.113688493131208823e-01,1.048416353896851339e-01,7.025137248258452038e-02,1.626245443241083194e-02,9.407321896353113000e-02,5.577787441060097495e-02,2.562252319781376658e-02,-1.902130500236798305e-02,6.374828180711183956e-02,7.701737989130494344e-02,2.782252464065685174e-02,-2.188182827880439177e-02,2.308968113743824907e-02,3.173951677346007610e-02,4.709941236017986532e-02,-1.702289572380142691e-03,1.518564025429291475e-01,1.255953646478892016e-01,4.880620302764009100e-02,1.047983166545244418e-04,1.987501072004251718e-02,5.516862346199857131e-02,-1.963400585172172391e-02,1.315876762052711584e-02,1.383655821105271022e-01,-1.845714602476816735e-01,-6.320621271947378904e-03,-4.131245624362676894e-02,-6.329052791858061355e-02,-1.868263594028276783e-02,-6.486149058636352105e-02,4.803288762286309771e-02,1.930031973639497189e-01,-4.348587539266010431e-03,7.560379628712689259e-02,6.152065463540820622e-02,3.227905208989852170e-02,7.128990069789066519e-02,-1.863178109649861469e-01,8.479145848896522952e-02,-9.400653017408731882e-02,9.507757773715883390e-03,-1.912162166175344069e-01,-1.255818868232794205e-01,-1.476819688154349941e-01,-3.157767615020352081e-01,-2.227317512506749586e-01,-1.903300487578885036e-01,-4.834130935359070014e-01,-6.233797086217691095e-03,-1.429153066726058241e-01,-1.502363410522252751e-01,-9.805509585460323030e-02,-2.237993534847042276e-01,7.146707670904002552e-02,1.186805375516779837e-01,1.344976524193436940e-01,1.189084586595934440e-01,3.732916406994257058e-02,-2.497406225614135205e-03,3.747628040307413033e-02,8.195775362919702212e-02
-5.419068079877012098e-03,-5.767577519331260755e-02,-5.538541554192132760e-02,2.757465784415014803e-02,2.769379642346437437e-02,-6.794311433643986965e-03,-1.353719981911716622e-02,-1.328798606045780879e-02,-2.179409879751406653e-02,-4.142046813884148193e-02,-1.052960229333928417e-02,1.629091616168838047e-02,-2.533485328044170204e-02,-1.229720560355739532e-02,-3.117462927115486823e-02,-8.737486302823647272e-03,1.129292732477914750e-02,3.812870295843955731e-02,3.011554543855799251e-02,2.313268396441949329e-02,3.628896584781312468e-02,4.712165399252710683e-03,3.661910597205285389e-02,-1.616927828237382098e-02,-2.794251037722613948e-02,-1.244283001875508320e-03,-5.380797926217361152e-03,-1.171332401007656350e-02,6.837852173262513877e-03,-1.164911626424657703e-02,1.977569078199958169e-02,2.194171911571446767e-02,-2.875085814547836960e-02,4.059260858632911945e-02,1.803189712061024561e-02,-6.790955857031106234e-03,-6.497594514746422335e-03,2.106458013606715002e-02,3.104867742315767926e-02,-2.826101369411801456e-02,9.018317288623505391e-04,-4.328066317112087662e-03,-1.120543510231636342e-02,-9.093680934027376095e-03,-4.358126014420304201e-02,-2.771370161133369925e-02,-1.104890417958700848e-02,1.919593218262823434e-02,3.724497306874627062e-03,-7.156560336413253553e-04,-6.645137034359427375e-03,-3.011813514435015757e-02,5.110997768877066118e-03,2.906621698838283627e-02,5.259000314660122397e-03,-7.792867567872217328e-03,1.534971227929630803e-02,-4.888780115262235208e-03,-2.483701983699473925e-02,-1.965464813089524282e-02,-4.072096344593002120e-04,3.194054277762888028e-02,1.451849233549360428e-02,-6.386118728959056835e-03,-7.676693267767413335e-03,1.664338817503063436e-02,-2.902296413743379790e-03,-3.354444589174216534e-02,8.749012803478229501e-04,-3.743414445178093746e-04,-1.067227246940530283e-02,-2.908911968655772742e-02,2.653501257599872806e-02,1.412642162845028325e-02,1.047191667787500695e-03,1.272225393369415258e-02,1.662072981754240952e-02,1.784512266223714158e-02,-2.278556430836943883e-02,1.820423902206188063e-02,2.548695517605322272e-02,1.183927840311011642e-02,2.950428385898972231e-03,9.082010390160540764e-03,-1.859812974580749012e-02,-2.981492283617194830e-02,-1.067492425784351967e-03,-5.830584560360583223e-03,-1.452840437036022857e-02,4.111258424864785294e-02,2.192206204180709508e-02,-1.699044749315325661e-02,-2.759975751694906596e-02,1.131119896278061192e-02,1.959655562171712384e-02,-4.579462748562315721e-03,-1.624066327449041891e-02,2.273500592138480436e-02,-8.939140261274318086e-04,-6.483654335628054148e-03,7.401835020293397009e-03,1.030666854346954514e-02,-2.873366081230589730e-02,2.867808701275383065e-02,3.139062325117914984e-03,-1.610954661662322360e-02,2.026759849765834634e-02,1.821861296734761035e-02,1.424911190782347662e-03,2.034929520545749292e-03,2.704976504020741024e-02,6.698079018187652785e-03,-2.045756917085203228e-02,1.145302648648145565e-02,-6.246388352364485967e-03,2.165215404764832610e-03,1.431389399174415843e-02,-4.437048504865710730e-02,4.386313800620700309e-02,7.127315042385048982e-02,2.472036660285040210e-02,-4.544263032824264609e-02,1.765457246958801398e-04,3.669702446857425054e-02,4.253421948407249548e-02,1.643647783134360302e-02,5.725878012999639777e-03,-4.433158206170488558e-02,2.363012167661822024e-02,-1.926598437759407048e-02,-3.307434629297911072e-02,-3.999796099418796019e-03,2.855417509321175537e-02,1.372885166952803049e-02,5.952778915208276934e-03,1.558140206372719307e-02,-1.171853094436838862e-02,-2.403875445105048761e-02,2.893344808541711832e-02,2.133125422402117055e-02,-6.200076791333641521e-03,-1.218917162412748272e-02,3.092091103910240071e-02,1.169485947038334354e-02,-3.067299863681822569e-03,-6.643222806282805988e-03,-1.849885737046209899e-02,5.461964784486584429e-02,2.150154135183162951e-01,3.545118693530249776e-02,-7.701290965070228811e-02,1.539274103986721098e-01,1.329385258136812388e-02,7.110259604058674458e-03,-8.108972426377659970e-02,3.229444296146898874e-01
1.435552539587889587e-01,1.865522334840643282e-01,2.106679257344214184e-01,2.860493242669931088e-02,1.710974617530785277e-03,1.000267862413743714e-01,3.222349379213888809e-02,5.608972068728583504e-02,6.972780610668477541e-02,7.955969536202452119e-02,1.572425913289286770e-02,4.569314356619252199e-02,-8.503231360781433879e-02,8.294683647209893929e-03,4.226879739476417652e-02,4.500528224842990227e-02,1.600667915837409097e-02,3.857703214455814739e-02,2.629620164740164093e-02,4.484247816824611654e-03,2.688558835116681631e-02,1.563172477992081852e-02,4.938051205772361202e-02,1.224544779249426771e-02,4.566124677030347634e-02,2.722872385219862745e-02,7.605361998495825671e-02,4.570775549851192193e-02,3.961769930537298312e-02,2.298793812978487325e-02,4.084120693669207602e-02,3.156528655208883094e-02,2.222969924304159933e-02,-1.803757511778604841e-02,1.172388393883223336e-02,5.084218721742791991e-02,2.368617709950055980e-02,1.235265780890882660e-02,3.323861181448711094e-02,1.271607091726339490e-02,-3.008913198538139960e-02,4.634230631096985034e-03,7.140971792932950500e-03,4.305797083876526654e-02,-6.966024258681160174e-03,1.863007181112803431e-02,2.254461216647657418e-02,3.527583665808115606e-03,2.546377026842465419e-02,2.708874172608550027e-02,-3.720741607802674489e-02,2.357537531674669048e-02,-5.080120302249966843e-03,2.489595660750557743e-02,4.791450160321061164e-02,3.913293548774016140e-02,2.759672928873126846e-02,5.177572930534649065e-02,7.874016006795070757e-03,1.498888816558191159e-02,2.051188337764415712e-02,-1.264254200225675348e-02,1.321521520209759451e-02,1.008077607863039522e-02,2.311140189097374634e-03,3.900654913447968580e-02,1.011454282106346615e-02,-1.914909280101192036e-03,4.119059801152194500e-02,5.139597963876619234e-03,-1.372172819246847073e-02,-1.946343031014733868e-02,-4.560898493508306478e-02,2.690766193237193946e-02,2.963704726640515718e-03,-1.279704673913213209e-03,1.364657568097817596e-02,1.865909142489079187e-02,3.913991990324770451e-03,1.924669767992417263e-02,3.568388767554307034e-02,3.810119140556820355e-02,4.285072072871076720e-02,3.616808926131021007e-02,3.695990965435098918e-02,3.895892442004173645e-02,1.993580629341404342e-02,2.330693246230355550e-02,1.288031365630181585e-02,2.438546063219646648e-02,3.757208699310386757e-02,2.326607369862484457e-03,2.335315160585105243e-02,1.274273451528888483e-02,2.289221740554838597e-02,-1.386385351616130867e-04,1.689030533879685991e-02,3.877103204794384722e-02,8.317184683523241515e-03,3.743949997283418929e-02,5.816042773393977072e-02,2.829474943607883722e-02,6.166015541028958130e-02,-5.758614171441522878e-02,2.866761827872817137e-02,2.062893531469839337e-02,-3.781779815918751703e-02,-8.303250882941431857e-04,-1.216633408213169641e-02,1.082625880341039383e-02,-6.127933675993341156e-02,-1.706161447951855953e-02,2.979332365355373199e-02,3.631844893857167494e-02,4.380624037352669198e-03,4.089076632681791501e-02,3.072417435306154174e-02,7.684992297641569242e-03,-1.505391872066069725e-01,1.264540226999704975e-01,5.310570870608347094e-02,5.664547228273550394e-02,2.175405403234498616e-02,-3.203670459380333208e-02,5.446161647733002015e-02,9.779827748096681095e-02,-1.147056786000351103e-01,-4.431838510600690645e-02,-1.232215814619288217e-02,-4.732152176629848134e-02,9.737988889745653395e-03,-3.658723093878403498e-02,4.594492851671438255e-02,8.206143962010113702e-02,5.587504306897433113e-04,6.594315575599192514e-02,-1.344749052463774762e-03,5.221793094446468275e-02,8.648327959820109601e-02,7.543449190352244371e-02,8.035149888507849003e-02,4.974951143028358280e-02,1.576746098061931611e-01,1.046429461604018486e-02,5.039884598743998162e-02,1.127653054567380186e-01,2.459708317951358678e-02,9.590573160781983020e-02,-1.301577332422592381e-01,-6.710083459668847623e-04,2.779495961534249673e-02,1.836898941546965813e-01,2.670915079902143330e-02,1.115966387421464118e-01,3.036498643297326147e-02,2.024253341258626659e-01
2.857394486703624878e-02,4.867733341783151563e-02,1.393905396063784344e-02,1.881603436962935375e-03,-7.818517469694079292e-03,1.605772593845855405e-03,-1.897297588176179509e-02,5.744176535453534432e-02,5.273099170911762362e-02,3.654440510497282413e-02,3.272209230485023657e-02,6.035826668354422192e-02,9.275305800149054314e-02,6.464775944063834781e-03,-1.295696496041386613e-02,4.644419970343496157e-02,2.324440650711954472e-03,4.102513056522505419e-02,1.843616219682278970e-02,-2.034965314302860165e-02,-1.564525101992994549e-02,1.310434831555777613e-02,2.766015747384632101e-02,2.314018451687188237e-03,-1.763283814872361813e-02,4.478222879734423262e-02,2.704221265742530814e-02,2.956166302934852552e-02,2.630958630898538181e-02,-2.202788178698552105e-02,1.135306408120101244e-02,2.995822597181108451e-02,-6.586460658369404711e-03,4.882006996914371733e-03,-6.979616309797384045e-03,2.136228018326497002e-02,2.464266352655467701e-02,6.636477204358679285e-03,8.193590207086225499e-03,2.300386996371864973e-02,3.963297898699928712e-02,2.384882869105791128e-02,2.054818272807254140e-02,2.983895441152981196e-03,-7.653316209191849025e-03,-2.483192066174375046e-02,6.741113149528877961e-03,3.050596237366963795e-02,2.215686220924560287e-02,3.925552814014963629e-03,3.020643625213540948e-02,2.974329628607208856e-02,-7.529187056716954603e-03,4.370126593549480618e-03,3.125005026408373549e-02,-2.516530093246090866e-03,-4.176019562753204711e-03,-4.743843415860672479e-03,1.662049180840834139e-02,7.098780580274955537e-03,-1.372112404858837932e-02,1.211674669959626749e-02,3.458761131035262976e-02,1.617728528337740446e-02,-3.047587972993660507e-03,-1.232266011103687851e-02,8.770688472799314031e-03,1.992653182420328281e-02,1.573281503079463879e-03,1.350293839913161049e-02,2.014110304031400608e-02,-9.997838396037040179e-03,-1.611409944028936725e-02,-1.344034497499315382e-02,-2.888827079943437348e-02,9.732049044794742129e-03,-1.170138879831954942e-03,1.552759151814855562e-02,8.627968861345839888e-03,2.244444620082023181e-02,3.097496276853400898e-02,2.232561346317448944e-02,2.345177395958796939e-03,1.054295730979827247e-02,2.105614138572022356e-03,1.260265428405453816e-02,1.644541134454254039e-02,1.054319887430254241e-03,2.589998516250598473e-02,7.536487963516045295e-03,1.124304185429393817e-02,-2.120035640105049149e-02,-3.465032282759551024e-02,3.825776762853830976e-02,1.113013849361754390e-02,-1.684209080313151322e-02,5.851640197997378876e-03,1.823612828519822343e-02,1.828712601671160856e-02,9.534349656917594229e-03,-9.634427259440227209e-03,2.932116304359719261e-02,-5.286551657267891599e-03,1.066162569369334678e-02,3.704496062418031338e-02,-3.625780390882218929e-02,2.888307140953825028e-02,1.681818076433336945e-02,-1.098575385587386571e-02,-3.191859703769957691e-03,-1.251216670733439583e-02,2.999647400864353941e-02,-2.800341876452549367e-02,1.562511508414460423e-03,1.145739456572307524e-02,-4.142412039619811602e-03,2.260008978414116548e-02,3.525422722530209985e-03,2.616334174228780382e-02,-4.000904892457593509e-02,2.945355251395284646e-02,-1.812927108256988037e-02,4.889815490108161133e-02,4.396148580831645697e-02,-3.635537218092057404e-02,1.100207972032444040e-02,1.926424868133372412e-03,-5.918110330508074765e-03,1.461349310780618756e-02,1.098070597230640412e-02,-9.311027514304076255e-03,6.543070070666037741e-02,-7.071499327329216870e-03,-2.778292586849129275e-02,1.423844218828369118e-02,6.391931412785756272e-02,3.595758555109574567e-02,-3.490471637459191534e-02,7.321405802041974775e-02,2.371997528814050529e-02,-6.410973542282019785e-04,1.594162322673834536e-02,5.300657997625522061e-02,-2.374708838361262384e-02,2.937625809630274240e-02,4.587414172892001333e-04,-3.054179441516286994e-02,7.677046282072205741e-02,5.283386377246048621e-02,9.630276371761602172e-02,-6.075012998213576154e-02,4.517445840815264430e-02,4.106782442545398731e-02,9.460753140939002354e-03,-1.899378766652716141e-02,1.022203332884674271e-01
8.451019853817999528e-03,1.273102751623553797e-01,1.270205598784608647e-01,2.748026309346925100e-02,-7.214006783015579696e-03,2.914645980664801878e-02,6.012121231882441158e-02,5.368032682990197396e-03,-8.492529510672506632e-04,2.452634591687395671e-02,6.950656648189611946e-04,4.766293286012848393e-03,8.766855506895304684e-02,2.310149013858393136e-02,5.620056586203363985e-02,9.486505030086833309e-03,1.397791892322172540e-02,-2.371713995757671316e-03,-4.139032198701574766e-02,-1.530017026447551103e-02,-1.921544644526829854e-02,5.051950874335987135e-02,3.712465974548492115e-02,1.647551569118909862e-02,1.591492669827305681e-02,2.352132966620652105e-02,5.895558140781871799e-03,1.310272728893636246e-02,8.138449070089242210e-04,-3.714340575366045089e-02,-4.079107274399090474e-03,-3.131899880838420747e-02,-1.739286355429270001e-02,-1.357635354604075709e-02,4.777067747766516881e-02,3.687309840903345293e-02,2.130745681391037899e-02,2.380742851394814993e-02,5.719675094034843733e-03,1.919282089099090191e-02,-2.104160469214398643e-02,2.197565548800183705e-02,2.281373012971085745e-02,-1.852217171642418087e-02,6.262464653633704158e-03,1.148278082189892885e-02,-8.544818253378974951e-03,7.523052916065195612e-03,-1.824224272849429840e-02,-1.545900869117250995e-04,-1.359480018599484863e-02,5.610680517745674292e-03,-2.588979209441489432e-02,-1.112257386262186258e-03,-3.723821483891315981e-02,4.518454761810465278e-03,-1.195569806383617317e-02,7.521656940603862638e-04,3.154396543747228950e-03,3.547378828880547869e-03,-1.482823225083673702e-02,-2.515410414964016489e-02,-3.654376058098901970e-03,4.156725427105205373e-02,1.339608192000164150e-02,-5.944933417775944383e-03,1.630056304231298353e-02,2.108110488416248263e-02,-1.514104440118202617e-02,-2.252804246382866804e-02,2.053161096917023934e-02,1.411819760755300170e-02,1.820757550642418746e-02,-4.615727794636114746e-03,-1.616549696532685459e-02,-1.854708265655040118e-03,-1.333551151181828175e-02,-8.288114103469801375e-03,6.591753176060691742e-04,1.179210608925668376e-02,-1.009588335173741171e-02,1.530813634235271732e-02,-5.576779089499147050e-04,-9.959669900772072371e-03,2.840003925797007084e-02,1.233287143794745307e-02,9.462853205429321360e-03,-5.052661226911157356e-03,1.192281613791457140e-02,-3.085712642531120327e-03,-1.620862127114481091e-02,8.804314055755550067e-03,8.165513913119416128e-03,9.830821521897928090e-04,1.576003133412004834e-02,5.629890183745722004e-03,-1.406509855538641378e-02,-1.021228713899235974e-02,-3.697125444632132652e-03,-1.673847826127508858e-03,-3.794941229525468362e-02,1.110425347685749936e-02,-2.358848925823906623e-02,9.406635219434140993e-03,1.151702119732059965e-02,-8.258807214664456303e-03,9.605836238757225337e-03,-6.066457015103988298e-03,7.439032451686670641e-03,1.967776531801692166e-02,5.435463502981112242e-03,8.161997623162262072e-03,-6.802827918925306513e-03,-2.699150950694363671e-02,5.449768981712661484e-03,8.997008709728788675e-03,-7.748866725450534801e-03,3.972844145321222098e-02,3.786102750504935499e-02,-5.055842610513860275e-02,4.380151711509768300e-03,2.226512815184588517e-02,1.100091522642008234e-02,-3.681351224688390877e-02,-4.282803902287783682e-02,-8.630248464486019178e-03,-5.697018498264553449e-02,-1.792117999756830116e-02,-3.859951981288013700e-02,1.738064147558978506e-02,3.056967349948875104e-02,-4.909526101312716717e-02,4.048400269001253306e-03,2.547220280360620176e-02,5.492970675445322387e-02,6.801672437865249887e-02,6.106395406746130405e-03,3.443666329315561020e-02,-8.501810793481225656e-04,-1.092496229965810722e-02,8.588964115583882022e-03,2.117796226139850857e-02,-3.775865407603761631e-02,2.007421792299567478e-02,1.050259086641860094e-02,-3.034157120136969643e-02,2.488123333916449770e-02,4.019787241121814542e-02,2.342197532199286891e-01,4.967542502904614965e-02,-2.774551391233304742e-01,-1.786647693044203788e-01,2.040131402742233896e-02,2.793080304346195683e-02,7.931350307836443347e-02,-1.077143472891721465e-01
-1.724483425927943181e-02,5.657718642056055840e-03,-2.964368859265661613e-02,-4.493923038012025313e-03,-2.885900942933152078e-04,-8.907054568640864834e-04,-3.677666754428499107e-02,-1.528492617003479950e-02,-6.487595619472440872e-03,-1.413164053873004061e-02,-2.156392180256760992e-04,-4.583767050763146167e-02,4.452383714521471192e-02,3.360829245091440792e-02,-1.091163046549678203e-02,-3.038389781856107308e-02,-1.984241256008857299e-02,1.075189211620929813e-02,-4.343397124773466789e-02,-1.647749048558552060e-02,-2.812469195731136587e-02,-3.144602888232549825e-02,-9.032546410281417151e-03,1.400674724540083502e-02,2.834285701595167515e-05,-1.659216445615838142e-02,-1.802133607356783129e-02,-9.278079017113104177e-03,4.626029729300927193e-03,-1.953996010237753558e-02,-2.082678514118073334e-03,-8.343441631501751984e-03,-4.438739439693624098e-03,-2.630702789370685177e-02,-4.365569846429304124e-02,9.520285261524215337e-03,-8.340215033867632438e-03,-2.157197131623383654e-02,7.255903828274270530e-03,-4.729328347281376056e-03,-8.772290602271599208e-03,1.076505796029473931e-02,-1.423461114720494906e-02,-2.472205791758387561e-02,-9.292121843846532989e-03,-2.484680144046133923e-02,-1.483309705878686595e-02,1.051392012855058809e-02,1.742538261132205559e-03,-1.780356973793962433e-02,-1.641933871396584164e-04,-1.476249459145112866e-02,-2.636428580761265850e-02,-6.691913416656267502e-03,-2.228281714989520726e-02,4.635514768398013054e-03,-1.101478130312466032e-02,4.390374535782609958e-03,-2.513559533571478946e-02,-1.633528499920177193e-02,4.850111890640114443e-03,-2.677722162262022310e-02,-1.021024391411523916e-02,-1.961499035913678510e-03,-1.698797166129652897e-02,-2.941766482871888133e-02,-2.566903444567169082e-02,-1.409815538147332929e-03,-6.379612715461093798e-03,-5.029176225256639515e-03,2.295718314943347854e-02,-3.345096940792360776e-03,1.496561300167258829e-02,-1.118366093272882104e-02,1.066244448350347172e-02,1.192403802505078922e-02,5.140098057873798698e-03,-8.531117800461351236e-03,-6.835723678317535100e-03,-1.750244500065179648e-02,-2.155556623449213921e-02,-1.301010003885799335e-02,-1.859545309570152100e-02,-4.563325952015630932e-02,-2.371712675093247749e-02,-1.315853671772774375e-02,-6.301722708490370591e-03,-9.348022902340068219e-03,-1.263912202872853954e-02,-6.503111925175964272e-03,-8.929486701227668096e-04,8.422229886059808684e-03,-1.117053548144606237e-02,1.056483246224967053e-02,-2.264950536670384817e-02,-4.326251976650434170e-04,2.901688564119082967e-03,1.478911624619192421e-02,1.754167043834883909e-03,-4.994031725163978032e-04,-1.429343181785051875e-02,1.073649605915207549e-02,9.089916132820521910e-03,1.311545713913264861e-02,1.408262395144108288e-02,-2.353650853724453644e-03,1.480028411265786386e-03,-9.759961965011023505e-03,-1.927563951642673190e-02,9.865297538419363216e-03,-1.734105967725208669e-02,-1.890410763249196838e-02,-4.989897274397155254e-03,-5.294053282022125224e-03,4.885055938195376549e-03,-3.573471573659434131e-03,1.643267985654780355e-02,-9.808524303570713160e-04,1.468746003609035060e-02,3.162773061972262711e-02,2.155384268194320690e-02,1.592433492090487802e-03,-8.440950029477428326e-03,7.120394092965322448e-03,-4.384325023119474765e-03,-8.999293103989127861e-04,1.876710530015898368e-02,1.087404699068974384e-02,8.350612744527464515e-04,-1.724335710094933175e-03,5.453544789556097859e-03,1.419066765259660839e-03,7.620958435486639704e-02,3.237257376192299169e-02,1.467807199062123001e-02,3.213563400836522144e-02,6.215483329219985420e-03,-9.523026017398180526e-03,3.873378419437950321e-03,8.113404615678847590e-03,8.202543385418517921e-03,2.055055054634996256e-02,1.132654370494593637e-03,-7.025804681352078133e-03,-9.618886430391209103e-04,-8.199934403642911498e-03,-4.867579694213284430e-03,4.965027895280366144e-02,1.816189970167960965e-01,5.714077674399137795e-03,-1.181417250270593577e-01,-3.940082543062266296e-02,8.001684763737353535e-04,-5.966123894840043990e-02,-3.044373614548613258e-02,-5.767561053041629637e-02
8.013817354869326448e-02,6.715698179338394636e-02,5.245108966161103614e-02,3.848847960690002235e-02,3.512686094494435474e-02,1.140610990813231418e-01,-1.100905653773747439e-01,-5.235501304402993827e-02,-2.305097056879414422e-02,1.487308378340753204e-02,6.783588496841107436e-03,-2.707526695606543923e-02,-5.117100720769294370e-02,-2.941033896512374596e-02,-2.321685713363072501e-02,-2.053534490401810048e-02,4.042285711664082154e-02,4.917484723518943286e-04,5.697344670580923275e-03,-3.051853114656711760e-02,8.805873709382071313e-02,-4.530488284192882992e-02,-4.051897208300303532e-02,-4.022833339063421748e-02,-7.528921411968726718e-02,-3.471173278874874202e-02,-8.028415575252427494e-02,-5.395928478657088107e-02,-3.515128045466395235e-02,-6.832945557896066835e-02,-1.729860877467100794e-02,2.222666186935042670e-02,1.338038732734392160e-02,1.476632323232856224e-02,-6.139018152683767965e-02,2.606401681958080835e-02,-3.486875092767664774e-02,1.733921772369339045e-02,-3.966781236048499970e-02,-3.528583517559988336e-02,2.654663295078563481e-02,-1.385708939326774775e-02,-6.141096629071383928e-02,-2.345167159117651778e-02,-4.184668964169740990e-02,-4.618668025288594214e-02,-7.164053671177062800e-03,4.111088542867793322e-02,-9.060364115191659601e-03,-2.506049895342366864e-03,-2.243081836047531447e-02,5.984719919480067929e-02,2.115545199155398348e-02,3.694868371815310248e-02,-9.308482864245289784e-03,2.500947777547617157e-02,-1.414287253729951468e-02,-6.834780090115488704e-02,1.930023951662357103e-03,-2.597775032193758507e-02,-1.564165110365388009e-02,-2.089074182102307331e-02,2.180318203237949920e-02,3.983005692348941251e-02,3.006880343873090389e-02,-3.008822205365221936e-02,-4.442533071453605431e-02,-2.452068679918733077e-02,1.906084641751093489e-02,-1.524584210523650084e-02,5.493211877747095767e-02,8.673705755688343455e-02,1.010181741500351532e-01,-5.643326576301920666e-02,-7.186640686096469784e-03,6.878003241805576151e-02,3.916069238018187598e-02,-1.007502554240762363e-02,-1.752860542038107289e-02,-3.809194780409069780e-02,-2.718605869295573699e-02,-4.666136022034554631e-02,-8.362827453795819432e-02,-3.160576869555252466e-02,4.056299320668071279e-02,1.072336243764098057e-01,4.240013253927605447e-02,-5.591069879843822699e-02,6.153211096836590406e-03,1.724560040613003567e-02,-1.256112518872996506e-02,-1.913344740860884602e-02,1.968199953798758714e-02,-1.770069510762652121e-02,1.726146941443200758e-02,-8.427206972917015981e-02,-5.247737536269302117e-02,1.616083149117115980e-02,2.597352498082907551e-02,1.987718499251565213e-02,-4.097854805943205309e-02,2.332227607462573904e-02,-8.277356185323192159e-03,1.027088076966729130e-01,2.859053201332911048e-02,4.398703026698754653e-02,3.474824317919540662e-02,8.703125753870681602e-02,-1.799266848664431097e-04,5.181798814176653140e-02,2.768252012569673987e-02,-3.865644455084443765e-03,-4.300068123117403718e-02,5.522728899351046772e-02,-6.435052426415789097e-03,2.174320540637426566e-02,-1.120484270816692329e-01,3.577289683922281471e-02,-3.298875920638103670e-02,9.162845954287453243e-02,1.716123622754577374e-02,3.480855152665499313e-03,-3.296951377208453410e-02,3.251186765364493664e-03,7.773811711833197857e-02,7.368609852302250574e-02,1.117573708100523672e-01,6.333227224813947620e-02,-6.790053431709924814e-02,1.203211135314078556e-02,6.870218469940582440e-02,6.953621334146597999e-02,1.161145500255922614e-01,6.788846668848122143e-03,4.175427659710224948e-02,2.481074646953927362e-02,-6.141269669313550311e-02,5.146486120623246230e-02,-6.114543188216467473e-02,2.102024031743059129e-02,4.018664208237915370e-02,5.272300008673488914e-02,4.440492480026881489e-02,2.916858530970980763e-03,6.258334563770789893e-02,3.188386384106545873e-02,1.318952110179445920e-02,9.281495002266378080e-02,5.544927438155616839e-01,-1.610623184347086123e-02,-1.487718385782881014e-01,-4.655546022370266740e-02,-9.176943418808244934e-02,-4.326083838150508731e-02,1.089796990453229947e-01,-9.252653905626459507e-02
7.792247779208323274e-03,5.550593228005705482e-02,7.363381392500968799e-03,-6.013102292874938914e-03,1.135680621521622169e-03,1.327144615237485330e-02,-7.502606686713097182e-03,2.606902035422774440e-03,2.679762302857943354e-02,-5.179704064731873760e-03,6.237363370685494735e-02,1.806790024333790323e-02,2.837113550101688642e-02,3.345788147698661869e-02,1.396652021369608303e-02,-2.517196670335233866e-02,-2.883311090983840808e-02,-6.320553300774928857e-03,7.535512886279627232e-03,-1.060948637604081264e-02,5.548987371295519520e-03,1.755651730962106902e-02,-4.511216721016760370e-03,-1.185646239266494907e-02,2.962479528201258233e-02,3.320275302634371258e-03,1.762541983497263598e-02,-3.485647011945024881e-02,2.958454760863140839e-03,-2.569653587258217270e-02,2.975146638695406326e-02,1.221894264809902410e-02,-1.061781053778415411e-02,2.032954801747718226e-02,6.709428088926433498e-02,1.129977214977374682e-02,-9.167630630366123412e-03,-3.165913014192679731e-02,4.432143337322118522e-03,-2.238229260000834317e-02,-4.595163999404894978e-02,1.115640257896801692e-02,4.496352179271012606e-02,-1.100751574669871441e-03,-2.046655208213599489e-02,-5.753923247812492425e-02,2.367076409417823504e-02,2.130427708166516068e-02,1.799090686702233682e-02,1.533294978122310727e-02,1.538512539154928034e-02,1.747310603588504664e-03,2.005568688046108564e-02,1.697808416678429216e-02,1.712238254292443307e-02,-1.856340360167721762e-02,-3.753549295056597679e-02,-6.584316501948606591e-03,2.050564780820385291e-03,-9.160253814028667535e-03,6.603364886779395163e-03,-1.748346253098568420e-02,-1.527997127173368573e-02,3.410832364087355677e-03,-2.075256831250407025e-02,-1.618781214199426985e-02,2.669016430523300093e-02,1.121986061058780244e-02,-1.315950772272695551e-02,-1.205250774906053111e-02,4.479332522156034141e-02,-4.946610895981225220e-02,-1.986670260083135686e-02,3.288191720112950550e-02,4.432746426244385529e-02,5.716456607051041694e-02,2.541678964351091682e-02,3.217484276241763808e-02,5.566684710443732835e-05,8.652609076009797756e-03,-3.876773915199535972e-03,-9.623625563567026614e-03,1.156083273116319601e-02,2.670298187093923456e-02,-2.559401710954409964e-02,-8.540950932830089493e-03,7.597214055504048109e-03,-1.459904364855260823e-02,-2.408474601035130724e-02,-2.829587753569108230e-02,1.742297228557109640e-02,2.808553283425708775e-03,-1.428100197317033054e-02,-4.615940601254549421e-03,-8.835579479271561329e-03,-3.606469516428831984e-02,-3.560953207495453710e-04,3.359614678581233915e-02,-1.303093605417043541e-02,-1.896766041716249629e-02,-6.125372881167434613e-03,4.647822865695501460e-02,-3.625420269797824890e-04,-2.638857029543717134e-02,-1.216504236835566632e-02,8.052904018786805063e-03,8.645355990860272705e-03,1.380061793895886665e-02,-6.841219706114452792e-02,9.774851076593130475e-03,6.330827744587257978e-03,-2.074927129504938392e-02,-7.203377367698917712e-03,2.056337528195533934e-02,2.110637378018233312e-02,-1.936899130667387933e-02,5.320518735109603520e-02,2.620403544815899308e-02,-3.242024800351938491e-02,-1.331343610187074415e-02,-1.819905034314093714e-02,1.310801958612734831e-02,3.148219297218107283e-04,4.344672347253953487e-02,1.638781073746848130e-02,3.071280071914915880e-02,3.870348717628148416e-02,-2.844815581068515717e-02,3.543740006074968391e-02,2.168453127285080093e-02,-3.347576656396385186e-02,1.078472258769168357e-02,6.685440468422254590e-02,2.499429488333040732e-03,3.406559765188994782e-02,4.979805121756229747e-02,4.830558644759214842e-02,1.907047198988639364e-02,4.874932501416577579e-02,4.435547749585960070e-02,4.555907059835889727e-02,4.044903458764138177e-02,7.395081859587421258e-02,2.121409106569623754e-02,3.989469761225995781e-02,4.565552467724373620e-02,-2.781316681438515334e-02,2.899119958563336694e-02,3.720600778869224134e-01,9.913592882566335529e-02,4.074073167747460644e-01,5.110809870267004479e-02,-6.959384884924577075e-02,2.997794799722958842e-02,-4.291334741231855182e-02,6.796161744698461793e-02
3.829702837073584859e-02,3.217493610852169977e-02,-7.900543868155644744e-02,-4.294807651355412453e-02,-4.063580056396852436e-02,-2.887119405818317289e-02,-2.524978848800635625e-02,-1.850836622580353738e-02,-1.957295491494819017e-02,3.648822278443405315e-02,1.273632581416742245e-02,-3.634617639191953242e-02,7.233945785331517830e-02,1.069465650545729785e-02,4.751535469526527340e-03,-8.416066967485834327e-03,-2.990476770217088617e-02,9.268000296504146085e-03,8.526069560067862929e-02,1.306949690570819236e-03,-1.565209413520611201e-02,2.580746314895332461e-02,-3.714208588387562376e-02,-1.265262687220171899e-03,2.156971204338928305e-02,-5.768147869441742071e-03,-4.314476068350677623e-02,4.686295601872605618e-03,-1.638959821999541946e-02,1.508035547619419707e-02,5.735408105105635479e-02,6.297848178084551433e-03,-3.411388775204686474e-02,-1.064477279042550829e-02,1.102985557971912084e-01,-7.056635786297390384e-03,-4.713106160953240559e-02,-1.751003723274795892e-02,1.213705163575504349e-02,-5.160764313826626121e-02,2.141571187851864372e-02,6.173076968324738012e-02,-5.630757362159094287e-04,4.621094039066218906e-02,3.568687933471077853e-03,-2.027449113652423501e-02,1.464760753670727410e-02,3.591151554602133728e-02,-3.019469040077531023e-03,-5.553797447507420951e-03,9.095492843221607282e-02,5.085865733479780215e-02,6.531745677479885992e-02,5.559098948984440847e-02,2.268872074188777593e-02,-1.270809533076616617e-04,2.252428165515580824e-02,9.972461870992059899e-03,-2.399180904826100566e-02,-3.093901859145034572e-02,-1.206447954073488343e-02,3.742957843258502143e-02,-1.222968837404754105e-03,-2.952616066030894909e-02,9.162229315223008319e-03,-3.007666508887684581e-02,9.281573293987523121e-03,4.920963669992999695e-02,-1.258942782729935601e-02,7.105351655589227204e-03,3.013062385703831753e-02,-9.328357494159599753e-04,2.628211471977840233e-02,1.033267149199380668e-02,6.014781341618481020e-02,5.511099279485335428e-02,2.139954674621662167e-02,1.867606569616653278e-02,4.245685132818001473e-02,-3.552631122676071923e-02,5.100674368355805066e-02,6.056925875068087939e-02,-4.120610002766954120e-04,9.253228128410109429e-03,-2.098729663069811083e-02,4.082458748729264619e-02,-6.397558645588013841e-03,2.566864794169267452e-02,1.648504317179957587e-02,-1.753016964005921566e-02,1.798983960645051533e-02,9.421529509926231116e-03,7.487230823663944333e-05,1.724996908697700587e-02,-1.151641402639715268e-02,-3.716784949132015490e-03,9.820561474038825341e-04,2.154953747060098929e-02,1.012011616843569613e-02,1.526639503418244365e-02,-1.436078330977846179e-02,-7.184470746587514993e-03,-3.079607875418440346e-02,5.510328239457309117e-03,1.468979917363674899e-02,2.726722818571521850e-02,5.279511495221635847e-02,-6.441659466831338584e-05,-5.557621178212002883e-02,-4.227395496804726288e-02,7.172120816794838073e-03,-5.256488630372677107e-02,1.352736700071782532e-02,5.893859114414035788e-02,-6.433235376964951263e-03,-5.031953683505729046e-03,4.868063161844090464e-02,6.121059618709401989e-02,8.357569828459600336e-02,1.455056696034399411e-01,4.598245699578845311e-03,6.114631261159694797e-02,1.410713091254939787e-02,4.880625135713657914e-02,-1.947258748697753075e-02,8.840065827734305826e-03,3.628165780217801426e-03,1.876169336041486405e-02,3.824637751843048411e-02,2.321282470495348443e-02,3.187612607340298276e-02,3.235850344497903652e-02,1.481690816077986250e-01,-1.687377159381388964e-02,1.896997789214505473e-02,8.696163490700660470e-02,1.243037699075197899e-01,2.855995746621000850e-02,1.082840501529558006e-02,4.506297344799342630e-02,1.071587878307091735e-01,3.428065975110233116e-02,3.228322855477299552e-02,3.328810561972105758e-03,1.034218714983536035e-02,5.950476631824058033e-02,2.374329435142057913e-03,7.608563366476657486e-02,1.009522638699176911e+00,4.351046687435031202e-01,6.431547341883065982e-01,9.705321047646620070e-02,-3.630531164222301765e-02,-4.492355821732881005e-02,3.876132765310937728e-02,1.004716849951517166e-01
-7.110297716911767596e-02,7.064681991072953304e-02,2.132521397563219567e-02,-1.604566068503614495e-01,-7.809941940016049133e-02,-7.414233824131422068e-02,-9.479947227373641816e-02,-1.866201878812374371e-01,-1.141149800113029494e-01,-5.652439949791587120e-02,-7.819464142504935211e-02,-2.196556554141230466e-01,-5.851277851014577598e-03,-1.402128262827303726e-02,-2.815137335823048384e-02,-7.696122035144721540e-02,2.069424718063212973e-02,8.318080571355836172e-03,-5.950374716282344489e-02,-6.903585939696910145e-02,-1.256902829743211485e-02,-1.225011038407108899e-02,5.253791716215901880e-02,-2.563172166538740544e-03,-4.763193232410400935e-02,1.488678893058316237e-02,3.178746167002597604e-03,4.599250527914906274e-03,-3.735630471531783264e-02,1.727174890492496825e-02,-4.556279899133227479e-02,-7.625278323671524916e-02,-1.668824509818692473e-02,4.623659606125102815e-04,3.258376100395785069e-02,1.257495946055708358e-01,5.166391449119686619e-02,4.611841347565094618e-02,5.422941213259571680e-02,-1.105073442318637578e-01,-1.109021374661273290e-01,7.473301233835596968e-02,1.904190414506336249e-02,1.434291182179470853e-02,6.118523333835918822e-03,-3.807117839267315507e-02,4.488663688998811158e-02,-5.812573179641543526e-03,-3.402533112787625713e-02,2.435071668442019208e-02,-6.300757857939356943e-02,7.592985126566605125e-02,-1.491727250293032637e-02,-6.308287653903023318e-02,-8.373941952498963059e-02,8.643026986247442922e-02,2.186243429365828522e-02,-2.753624089216506407e-02,-5.929593321593502192e-02,-4.044256546711526984e-02,5.327165233921561660e-02,-5.981070645898627774e-03,-4.143883426338413473e-02,-3.023557475685120267e-03,-1.772009075916816667e-02,4.810850966865033024e-02,-9.744851120603405248e-02,7.925343378131914640e-02,1.015675927214443330e-01,2.001577237272699622e-02,2.095267520764926977e-02,-1.821266298789672375e-02,7.987409424221073029e-02,-2.982489724488693317e-02,4.926075789470626964e-02,-4.785029625723806468e-02,3.441457902701800659e-02,1.723522904276267309e-02,2.027635905322591053e-02,-4.021611187877098537e-02,1.059947294499860859e-01,5.293468952098851626e-02,4.780333935855495681e-02,-2.523035081360341242e-02,2.356008123092587919e-02,1.053086046925561237e-01,3.791925695926173789e-02,9.240406428682333695e-02,6.355679126532574885e-02,5.783882814141528411e-02,-1.736359526656510929e-02,-3.181596139904444703e-02,5.010755844254705105e-02,1.981283492630444079e-02,-6.761682418112079443e-03,-2.019458293833545012e-02,1.911550439211807950e-02,5.600856093641226607e-02,2.612963950113145195e-02,-1.209094890664557699e-02,2.721735580341559657e-02,3.526564321948902347e-02,-6.570362394804047691e-03,4.603243117690301173e-02,-1.012742684693666156e-02,1.224860019385637377e-01,1.001303988445202547e-01,7.520975628373913202e-02,6.124424224200062869e-03,-4.086275427849312618e-04,4.877721507586375155e-02,6.537835204371066078e-02,6.920902802173990037e-03,-3.428573342040772305e-03,-7.689195490997759175e-02,4.203540771103325691e-02,-1.271993935309088386e-01,8.218002577652069873e-02,2.284777037870163174e-01,8.011358130377519426e-01,-5.754043666305666549e-02,1.775456427733228537e-01,1.144670575670350271e-01,8.563312182650675841e-02,2.370273190950598907e-01,-9.178543953335964803e-03,1.002391862057134680e-01,7.663475264130177600e-02,7.446042731469926235e-02,2.687874720944253421e-02,8.954340007152372660e-02,-1.987285899826370626e-03,1.313465460020413478e-01,8.416886893593331087e-02,-7.062699023983447580e-03,3.894370758669536692e-02,1.401839410229086674e-02,4.385478931261818647e-02,2.867715117887177645e-02,-2.723903849889935513e-04,8.658625980562136004e-02,1.346427296683177233e-01,2.092827939577494301e-01,4.967380727396136092e-02,8.565385568998568067e-02,1.180094202059109587e-01,4.839083415154856599e-02,1.077312961597952645e-01,1.455116555879961693e+00,8.909292261749500730e-01,3.932643157636426690e+00,1.167205050342281641e-01,-5.171057625585690626e-02,-1.473782827527715493e-02,1.051812550936227914e-01,1.527001313249027048e-01
-5.212598307137313036e-02,2.123858899936742761e-01,1.796810620714547543e-02,-5.176936346083244565e-03,5.592506444585382090e-03,5.097631671833975642e-02,9.908586958223741803e-02,3.550612565017359501e-02,1.077618444011910724e-02,-5.864558916047783732e-02,4.797455941947752212e-02,1.036662420356406489e-01,-6.943381646072578628e-02,9.016579307286774411e-03,-4.959506450274515921e-02,-9.023274254074438450e-02,-2.619069230062896422e-02,3.442251244433541801e-02,-7.067947875699351346e-02,-8.769045273866891976e-02,8.802170690549628029e-02,-3.029382100761516400e-02,-9.790472296851643330e-02,6.830246052186586536e-02,-2.944786197700932986e-02,-9.220150332440665841e-02,-4.801981894657625372e-02,2.766101433725379893e-02,1.374281167746743693e-02,-1.337223957283276143e-01,-5.666884635941880216e-02,8.047004175443314700e-02,-1.204151405187778301e-02,7.398623723748518587e-03,9.464867298720036626e-03,3.823642117635681070e-02,-2.480777248139963767e-02,-1.442807661235648645e-02,9.921728102585873274e-03,-1.078694602975113492e-01,-7.017141229434965821e-02,2.449990503426318147e-02,5.770039923744314792e-02,-2.912754522045036057e-02,1.050954073355545894e-02,-5.089039310373191100e-02,1.182360994507153235e-01,-7.085407856795088166e-02,5.331408161012415881e-02,-5.893381141977357962e-02,-1.098298193556986879e-01,2.388458881181369439e-02,-4.693685028507728341e-02,-2.636122307078091545e-02,7.279448457967059583e-02,1.204747494803291713e-01,-1.963016787415052672e-02,7.316802317256848598e-02,-9.780584040599203666e-02,7.268485096017224256e-02,6.010288266504534849e-02,8.054980932627336943e-02,-1.854446305032163983e-02,-1.872523409214025755e-02,1.330159626599076647e-02,-2.887990901778692346e-02,-2.497904593375000620e-03,8.675007609316080781e-02,1.007713375172275723e-02,6.631494638902500627e-02,4.805543523245024706e-02,-4.186660801925125297e-02,-2.404626671746752306e-02,3.952870525339647473e-02,-2.102552466719828303e-02,1.309832863343405596e-01,4.804076462987996732e-02,-3.329073275141656955e-03,-4.173747548448347722e-02,4.105637814825145726e-02,8.633303635912024931e-02,4.850292159799682312e-02,3.924651875387364514e-02,5.097009090285176819e-02,-3.610909632075454817e-02,-2.836887005214409375e-03,-5.709933849121300725e-02,7.202239128510995285e-03,-7.363136645030050886e-02,-5.166501714959558997e-04,-2.720952648830292364e-02,-7.808608254605541033e-02,3.571212110587299125e-03,2.614910059395510189e-02,3.572012812574867219e-02,1.744948534203267024e-02,1.179272666527679120e-01,1.127155434965867176e-01,9.548930362156785034e-02,2.994248550298725040e-02,3.452125561664759479e-02,-7.850571918693229068e-02,2.609139361585544742e-02,-3.200269518448102101e-03,4.161691725659075192e-02,9.833536515886712182e-02,-1.437045654917377957e-02,-3.379137896422172715e-02,3.606823781861479093e-03,1.413903433294948914e-02,-1.004374362870481402e-01,1.168302802977099104e-02,4.540301557892699458e-02,-4.317202534475111236e-02,1.201351531114629168e-01,2.972495364975323226e-02,1.267159479641652431e-01,-5.455273507325080623e-02,4.758772860662227600e-02,6.464371109001190718e-02,6.440912340681508030e-02,4.278626559901357700e-03,-1.402364361372602508e-01,2.407041644065252561e-02,1.091980740895907021e-01,1.882661511127280834e-02,-5.248017901359413456e-02,-3.789326592895120999e-02,7.495032641491702896e-02,1.182438346115424893e-01,5.113808082509158776e-02,2.658180647323873935e-02,1.562531053047503116e-01,1.210416272909720786e-01,2.384746429720351404e-02,3.576149489644397245e-02,6.372159977863027513e-02,-2.266898767665013678e-02,5.106070424040140554e-03,4.680659762925786643e-02,-4.142203631743244380e-02,4.854286512140714577e-02,1.995763312796816069e-01,5.477953750379985220e-02,7.780100424793572056e-02,6.869454452792500554e-02,6.048987044660125018e-02,1.124695406861843661e-01,1.922518924271829910e-01,1.838535365571020708e-01,1.765198662508117855e-01,6.590770915887354808e-02,-5.959204315802951041e-02,-2.424496859097523965e-02,-1.308059795258758318e-01,3.124287501035264980e-01
-5.926616552948099637e-02,-9.922234080199038644e-03,-4.123886147679787367e-02,-1.251116336438023446e-01,3.201926998230190252e-02,-2.202268369001260037e-02,-3.207430274025423883e-02,-5.728031702853209062e-02,3.884909365395653597e-02,2.731184239277349712e-02,5.982263752093016501e-02,-3.163027260907146782e-02,2.287955724821578649e-02,-1.467996320599260392e-02,9.302732808516740726e-03,4.678978342479137020e-02,-6.720589409324156938e-03,7.205926057909857983e-03,-7.628130652850018123e-02,-2.620317373209245237e-02,2.902029267985508851e-02,-3.789941592569009976e-02,4.113244311976162887e-02,2.566697685542973159e-02,4.298824145378456890e-02,-1.427267037022398807e-02,1.460734022248176209e-02,1.238403718999418930e-02,-1.063410523746476273e-02,1.384363161265533826e-02,-1.011338017939066442e-01,2.978143789562497090e-02,2.085955552132406562e-02,6.395565808798339691e-02,-3.618501654709259385e-02,-9.694317866345409512e-03,4.948259850404856247e-02,-1.553967918707669649e-01,5.915372784615965246e-02,-5.254098430385829854e-03,-6.997607153005512559e-02,-1.694470308727668087e-02,-9.537540735567491199e-03,-4.450394350148419165e-02,-1.814858788954250594e-03,-2.373706910167221185e-02,4.326170250645186522e-04,5.446857229664746336e-02,3.932985880856162270e-03,2.340768394783032322e-02,1.563350121200569876e-02,1.501511661022864779e-03,-4.973917462763490643e-02,-3.751668592950002461e-04,3.667963529233734393e-02,3.607280796787316196e-02,1.634674430402501336e-02,4.043502882575063240e-02,-3.992485135565324028e-02,-6.918947300488090084e-03,3.832291263950642762e-02,5.545818023350425341e-02,-1.379412263133073142e-02,-1.423693656948362037e-02,2.713190723445571551e-02,-4.997659078618975348e-02,2.746225821793029168e-02,-2.455712716512316318e-02,-1.807330106596563915e-02,-6.544655461844086329e-03,-1.241777825087850978e-02,5.335061464474329974e-03,-1.013981833885943366e-02,2.338168497848200009e-02,1.585804888913596236e-02,6.661859621094706925e-03,2.896411845343357591e-03,6.034676374615498273e-02,-2.227650739605607430e-02,9.113797511759330616e-02,-1.636749015678766721e-03,-6.440145797098559277e-02,9.185827329191674495e-02,3.779801188267458562e-02,2.263650313912654241e-02,-1.168069681715883275e-03,5.717975909691506292e-03,-4.791320665290714487e-02,-1.358236657921619607e-02,-2.371717347991374181e-02,4.234110088424440643e-03,-2.305188434922285021e-02,1.024015227883131804e-02,5.246249868924484153e-03,3.298731229204145132e-02,6.363336532900185603e-03,2.611601926134765259e-02,2.606597580433834410e-02,-3.135390017449264655e-02,-1.459030745152345909e-03,-6.909230516654681076e-02,3.723388495698443795e-02,4.603257703533743250e-02,6.300280325519424032e-03,-5.254822321772852772e-02,4.599242784118664357e-02,5.365123456721547501e-02,3.464761580278902936e-02,-1.753390290915261274e-01,6.414577902959925360e-02,-4.751378823894226999e-02,4.405091652821675752e-02,1.295055417929234093e-02,4.245755984406807820e-02,-2.199672915564104478e-02,-3.959569524998543533e-02,1.353038024516564353e-01,4.426851618684091855e-02,8.090188933962749046e-03,-8.473288016642450959e-02,5.282348827546404918e-02,2.367676099270470125e-02,2.227017539175681765e-02,3.945184003546824136e-02,-1.232101784820172248e-02,-2.510672435104534250e-02,2.875790164770046162e-02,-4.394607552046421624e-03,-2.964665390183026522e-02,3.316530807395412506e-02,3.624522683474722118e-02,3.451415076723030745e-02,2.245520977357490233e-02,-4.695789181562970427e-02,-1.363205616802572705e-03,1.299613086098155845e-02,1.029703482142663986e-03,1.133284039395126295e-03,1.406200660756925722e-02,8.464606555989904677e-03,3.541797419782864720e-02,3.486746066918506443e-02,-4.613109028641414894e-02,5.065681714557594001e-02,1.303466658468899891e-02,1.011363005006781120e-02,1.520070573457749617e-02,1.512947919541799378e-02,1.301860874414650926e-01,6.828376285978775100e-03,-1.197936584192113574e-01,1.977605470175071434e-01,6.408193355027422267e-02,8.649071586766954312e-02,3.476783186470516762e-02,1.444154536438048420e-01
2.424380851045006974e-02,-8.016141805638947460e-02,-1.753442947859525916e-03,-2.985079382518081997e-02,-1.410161934870125117e-02,8.253517207464448543e-03,1.812690681045943733e-02,1.013529447933284207e-02,2.741861060638094150e-02,-6.022574504629819858e-03,-3.158430622861440468e-02,6.483218951060604196e-02,-5.343290057579186403e-02,-3.905826257388637923e-02,-4.001528000391420259e-02,6.184152330343280213e-02,7.993866111941234573e-03,-9.450397960123535501e-02,2.461973277796440304e-02,-8.970462426428075370e-03,-9.351442469730323823e-03,-1.207830693015562173e-01,2.994024945792165410e-02,4.822251817783503730e-02,2.817415245059616893e-02,5.564699402274788514e-02,-1.718765198853168530e-02,6.304549329275534186e-02,-1.706959112539935264e-02,-3.758481906908056613e-02,-5.443012269280114723e-02,4.531001536178612399e-02,-1.374612096523823018e-02,-2.779107630254257222e-02,-7.052914121635214806e-02,3.786390802100409597e-02,-4.022326699740765010e-02,4.115980008715381527e-02,-2.506197458327436272e-03,1.183535600625028501e-02,-1.012398080413622233e-02,3.610734682130489238e-03,4.904242032864796624e-02,-9.518387275352160892e-02,-2.889238147601224998e-04,6.251032548091982333e-02,4.273182712654324117e-02,1.468273545767102665e-02,-4.489980605564236962e-03,-5.241855891906995607e-02,-7.229340414597491826e-02,-6.507259748715754806e-03,-3.863505588572708344e-02,-3.431150259666631425e-02,8.616510623312342854e-02,-3.761975839879597855e-02,1.692426644507303082e-02,-2.457490746375302557e-02,8.048864326831946248e-02,7.098149127884333109e-02,6.509141454339261931e-03,3.263329163702784197e-02,2.796180731822368176e-02,-3.773465750084015191e-02,3.519183547547576063e-02,-4.535334002944860221e-02,-6.506362369224501230e-02,1.421953050744709061e-02,-1.059206417339864786e-02,-2.151197326834422552e-02,-2.362749174544062289e-02,5.545937706978725477e-03,3.421628740750620734e-02,-3.021549100472403944e-03,2.879145560544660309e-02,-4.844609482167176046e-02,1.156533555066989807e-02,-1.394723589620099069e-02,-1.848484608328988116e-02,3.855786146152172938e-02,-3.856235665332903573e-02,-7.152824919452546726e-02,-1.106402875356479326e-01,-6.647674067681276500e-02,1.062231532401591676e-02,1.222513308951062591e-03,-3.760861683574047432e-02,-2.377861177506275861e-02,-3.869939826744839967e-02,-3.620519843159041712e-02,-4.845535935956009344e-02,-4.429734618018834301e-03,3.017546159081358273e-02,5.331045175647865231e-02,9.409964760263576922e-02,5.413983550393133143e-02,-2.343410868232071939e-02,3.235139767392351123e-02,-4.480229282629687171e-02,-6.191000232167483130e-02,-3.620580774117142242e-02,7.459360487278798857e-02,-5.075268505002776542e-02,4.089700133713733421e-02,-5.432229393784827887e-02,4.814768050750451583e-02,2.640531182643964664e-02,2.062941446844711660e-02,-2.964073709495196329e-02,7.214967199500933216e-03,-6.767652826998479809e-02,-5.385655970388267960e-02,4.472187219164516780e-02,-5.657389678046162440e-02,-3.779631051537453434e-02,7.485258801058203293e-02,-1.998702582174869888e-02,1.473801874217871288e-02,-6.923752903230497024e-02,-1.347577565515322706e-01,-4.757595644318413086e-02,-5.088526541263244801e-02,7.539811002205222545e-02,-6.697948955169685803e-02,-8.893074422998895057e-02,-7.081193824956494298e-02,-5.226025105178142005e-02,-5.390606422547138121e-02,6.512824103395818687e-02,-9.516817232354863113e-03,4.256638342774626826e-02,-2.664154111054245835e-02,4.298496041107210258e-03,2.260407179385673024e-02,5.487124554879012350e-02,2.065419405771786593e-02,-4.638431834256222935e-02,-5.115002750937026194e-02,2.084945783046022322e-02,2.829324869278779936e-02,2.140324624150371363e-02,1.237100959707670977e-02,-8.075832790430272079e-02,4.748638211008017473e-02,6.966210531445103660e-03,5.481081559195730146e-02,-3.857531175158620401e-02,2.525256274830579850e-02,-8.363590466260666101e-02,-1.020921651786612788e-01,3.239206319474639134e-02,6.473334979571380987e-02,4.507760583647066333e-02,5.636161070218880659e-02,-8.738470698720026200e-03,-5.702188255267271605e-02
5.798410478978941948e-04,-6.444717718798978479e-02,7.654756906654587578e-02,6.146785754920141426e-02,3.873361749869458359e-02,2.220205022049348206e-02,-2.685510287684289565e-02,3.438399128828437817e-02,3.845232385415614518e-02,1.821269000733009846e-02,-4.394676666598897746e-03,2.201245649195983714e-02,-8.598381449295396453e-03,2.553723129592283883e-03,2.392009675904163343e-02,2.355121321877454502e-02,2.955550166376859703e-03,2.646472392018549974e-02,2.300501725773960171e-01,1.039511175287130829e-01,3.514522063116182898e-02,-4.550201749011492658e-02,1.122198948613846621e-02,3.929078737068201349e-02,7.105621159733004066e-03,4.501372720833918609e-03,2.959756602773138193e-02,3.220665676481267864e-02,2.095644873619985360e-02,9.837000031399663336e-02,4.196559415671907711e-02,7.517899312140243102e-03,4.096098073550413082e-02,2.646122778582000665e-02,-1.003769523693267586e-02,-2.485808602807299331e-02,-3.516515855632960930e-02,3.808349543051865044e-02,-1.247811714400737931e-02,-9.420938357907383820e-02,7.109690678555696114e-03,3.768055242452455350e-02,9.163167485506749227e-03,2.443970117347401064e-02,4.456476458957631115e-02,6.294929798560035261e-02,-3.615972958389040287e-02,7.465940821480611389e-02,2.653326826252219110e-03,6.010538888184507877e-02,3.833132334008242104e-02,2.440635128795298064e-02,6.434491468683864457e-02,-6.356434023598195315e-02,-6.060861518773883079e-03,8.349310078520474909e-02,6.965418668970149371e-03,3.916487498196075806e-02,4.942474488035100699e-03,1.217435686102563523e-02,5.260336877252320270e-02,2.545719234654393939e-02,-5.236736746161648609e-02,-1.806078307297517491e-02,-8.142366258600939764e-05,-1.300859853662068855e-02,-1.083651940206805525e-02,1.594192498738111405e-02,7.500240997678633316e-03,-2.915406601706294065e-02,-2.429112181357660424e-02,3.376206340646195625e-02,-1.879103155239082376e-02,-4.657605335081784620e-02,3.472685723773785010e-02,1.523861916336651835e-02,-3.406306118068595378e-04,1.854783722612573333e-03,3.819018562729495359e-02,-1.296201162696698772e-02,5.517874403771903802e-02,2.177980251257013306e-02,-2.842362162765867811e-02,9.014006533791787869e-04,-5.278409365061199551e-04,4.249418467143723475e-03,-2.586400933994432993e-02,-8.918644515848365636e-03,5.923448583305552378e-02,1.368776237413766618e-02,-4.291654836188808948e-03,-2.418548876882993526e-02,3.587939168639404236e-02,3.241914656077837104e-02,-2.419866624938263149e-03,3.915968637508829286e-02,2.246705546868134860e-03,-1.647388622313807061e-02,9.723382230963006564e-03,-1.107292629245720285e-02,5.139126640750969754e-02,1.753955767539089675e-02,3.749989664050797089e-02,3.085716662880331335e-02,-1.504976519542286506e-02,-3.943795264983818161e-02,-1.447287156879631387e-02,-4.953230970037818259e-02,7.624875133871853632e-04,-1.681330832585631666e-02,-8.189566925883283791e-03,3.926072991444486820e-02,1.856192652866127044e-02,5.979974801624554637e-02,2.813612901144450090e-02,3.882835568162062295e-02,3.324378420820538194e-02,-1.323470802563134555e-02,-8.503925843259426114e-04,-2.054248354881898359e-02,9.509939264241627083e-03,-4.288306409312692136e-02,-7.913383665439291739e-03,-1.241451735685715312e-02,-1.368173776573185620e-03,-1.044409223002377811e-02,7.250851031663131663e-02,5.613432672689832453e-02,2.469589969332968565e-02,-3.139014692525787797e-02,2.296705852026631467e-02,8.382874737507935159e-03,3.688701547037064044e-02,-1.707653239948290569e-03,1.178517878024967075e-02,3.058574337540306831e-02,4.458518164052918675e-03,1.277641253116165330e-03,7.416868253376790107e-03,-3.486406123957037917e-02,-6.268293880840820897e-02,-3.259835258658709545e-02,-6.807186868547560055e-02,-1.933640378796577103e-02,-6.729595879194069652e-02,-2.692547853679207615e-03,-6.588260827247266471e-02,3.387481236896084519e-02,1.811883519270601761e-02,-9.025104314868151456e-02,-6.232418740408391528e-02,2.906551716704011135e-01,5.684037963458609538e-02,-7.534798939139288054e-02,-4.750323745004454007e-02,-4.761461473795349647e-02
2.232211871083214852e-02,-8.538088730244938751e-02,-9.254112881427807580e-02,-5.010793641465333126e-02,8.877053798529797174e-03,7.522441556387002813e-03,-6.629076662217982252e-02,-6.652991447904370304e-02,2.610699900987310980e-03,2.904381644494932399e-02,2.265278344221809473e-02,7.472233614359510313e-03,-4.975719466761056170e-02,2.503240170325487721e-02,5.251198666548086147e-02,1.551279469077574032e-02,6.399046770732744194e-02,1.829628842217919868e-02,4.002655058150540734e-02,4.370304267298152218e-02,4.090466183694396046e-02,-5.670419750462916963e-02,5.638966843705967708e-02,9.475099556623955976e-03,3.097458824631449479e-03,7.274155184284364362e-02,-8.928048958237710941e-02,4.591062914026059621e-03,6.193633603278961980e-02,-1.541875065804518274e-02,4.522055743846640358e-02,4.403950168651266095e-02,2.016456546971375288e-02,3.438231815493877908e-02,2.409516220054526772e-02,-2.988567183117333409e-02,1.007577211654757908e-02,2.643633960800568020e-02,-2.895648669378235365e-03,1.411062251852267246e-02,4.753399243253281226e-02,9.159924911390768254e-02,2.986360875710726125e-03,-2.253577955389101523e-02,2.551598650572854676e-03,-3.850471245859466308e-03,-1.084238602946334569e-02,7.045512625674683893e-02,7.748421316698617112e-03,1.289659610127623542e-02,2.757319814928375218e-02,-2.471709022102393585e-02,1.094233448495776119e-02,4.376527253495629544e-02,1.142093499266141898e-01,1.766997020648706368e-02,7.163856094391746199e-02,2.099952092364516104e-02,7.257986578756317475e-02,5.959043210373361765e-02,4.179710891853070931e-02,1.356270688854868678e-02,4.119279778368006330e-03,-6.938576774927224244e-02,1.585118975792662111e-03,3.265072345753897848e-02,6.544743759771398661e-02,2.116833869288672551e-03,3.672980760423558838e-02,6.489133629703641021e-03,5.326977307477519241e-02,-7.367462728686567652e-02,2.773416513361278216e-02,3.190885581758357015e-02,1.905314221776171699e-02,7.778619396463441749e-02,8.466942436473287592e-02,3.951150767595772162e-02,-2.146496401894229522e-02,3.061083892134277423e-02,-3.564470713499842246e-03,4.164017164092942425e-02,6.716614945469778775e-02,6.151974466102817091e-02,7.905430422937460844e-03,3.599854646856154999e-02,3.973458844891784164e-02,8.534937062627589999e-03,-1.999414174375084216e-02,-9.751897924063926762e-03,2.160807404736442977e-02,3.056820376511617393e-02,3.783700024294816416e-02,7.259081388233118437e-02,2.214630235764195910e-03,4.207570256043665323e-03,3.069635198985789029e-02,1.907305430954310890e-02,-6.031279423718369052e-03,-4.347026114548399600e-02,5.284798578648439160e-02,-1.024134021850617998e-03,-4.252615741574385794e-02,2.195621597130712616e-02,-6.561059408291265715e-02,-5.766009849516396529e-02,1.466505880621851547e-02,-1.935678016347319036e-02,-9.572802183590254158e-03,3.306454589303065711e-02,4.601986824359571154e-02,-4.567196142186361746e-02,1.606263192011399624e-02,7.286034459223594828e-02,5.218684769452937994e-02,1.336741165701938773e-02,4.056118471285632965e-02,-3.249149813260084063e-02,5.549286078241187463e-03,-8.124539931931129555e-03,6.546686593802593379e-03,-4.242656770773700625e-02,9.204273782174454341e-03,3.217544654810861743e-02,-5.872332831441651711e-03,5.378694015577989256e-03,-2.482178948910364336e-02,-2.883535540366369276e-03,2.964895857287875441e-02,4.757773662183777813e-02,2.448149871654386675e-02,6.977710593937466732e-04,5.764139571337633522e-02,-3.844778128511124049e-02,-7.953428345889896819e-03,1.033562067519649547e-01,1.499244076538588065e-02,2.465435769698633844e-02,7.642188011320380676e-03,4.598485689587496900e-02,-2.766052022603761665e-02,-1.285347333029230547e-03,-3.128425795769408657e-02,8.268052630928977159e-03,-5.897060223013730722e-03,-1.528017769497269120e-02,-5.493267851598542667e-02,3.254106411982048402e-03,-2.821171096423753452e-02,2.092441039987665355e-02,1.230514795620331198e-01,-2.642236231967020135e-02,-4.550188260958541037e-02,-8.204889805076126530e-02,-6.056903786793620820e-02,-1.717842234231720111e-02
2.045245959637436717e-01,3.745629302605566618e-02,8.107294059342321987e-03,-9.459679815559678129e-02,-1.925892745186921426e-02,2.694148398811597837e-03,-4.027579059005979151e-02,-6.533807643967687317e-02,-4.521792204499028127e-03,-3.213005012439046348e-02,2.369272460614157624e-02,1.173470415555148347e-02,3.025654257571781455e-02,1.815805346849009780e-03,-3.782680676593464658e-02,-2.495386621747162220e-02,-5.638888599134346535e-02,-6.752918538164685673e-03,-6.736475108931276601e-02,-6.998147393635144320e-02,1.262846247805441205e-02,-6.594275746610652779e-03,4.234362724996346898e-04,2.551909604629835557e-02,-3.081069192878586882e-02,-1.822380332002904862e-02,1.389172767484010956e-03,1.559338164994602746e-02,5.434491777260617301e-02,-4.852655860410287625e-02,-4.974884934251337654e-02,1.134782021056611641e-02,-1.536345976527133880e-02,-8.019197928004843587e-03,1.335093527662434276e-01,2.344487164620663155e-03,5.323625101342692456e-02,-5.263522550115556919e-02,-7.488380053809853484e-03,-3.760187585804687649e-02,-6.142360357315075625e-02,5.396559159630511665e-02,3.951966292650771484e-02,-7.475636360783233236e-02,2.908427327732801895e-02,4.710869276589127463e-02,-3.002393229254424548e-02,9.537303937710850388e-02,-4.568032481365472824e-02,-7.264293059869582347e-02,1.756347908476691561e-02,-2.950835778239824583e-02,-7.723719616282911926e-02,2.046277678741012171e-02,4.765072638291090873e-02,9.574502701076330335e-02,1.492546322334726075e-02,-1.612514923002007425e-02,-7.031983846351104461e-02,2.236086520296623817e-02,1.696266731186246712e-02,8.306419882083097839e-02,5.457157073542980019e-02,-1.248837692545775755e-04,-2.780660502382157132e-02,-6.992843146902968932e-02,2.036881717973238956e-03,-2.505273058685269366e-02,-6.573488824648952150e-03,1.008403028406703802e-02,-1.600091148111484820e-04,-1.022696083887949343e-03,-1.115926962618862296e-02,-8.771271415136583371e-02,-3.837592921065397650e-02,7.347676900838315261e-02,2.509572994396615242e-02,5.344945532641127289e-02,-2.368668942818098061e-02,1.998086426383827857e-02,1.571784642764620030e-02,-6.843627119712063223e-02,-4.589221164059672370e-02,-8.705229528457235355e-02,-2.608751689179734587e-02,-5.808598027985293483e-02,-3.723718337069509970e-02,-2.894141625162660603e-02,-5.242067563552370996e-02,-1.611970245267484517e-02,1.605410731136354408e-03,8.512468716753871997e-03,-8.239327696477210389e-03,-5.293214127411940279e-02,-3.723776391249689760e-02,2.512837159586793837e-02,-8.319434140587544935e-02,5.042499388295837437e-02,-8.916721378960573707e-03,-6.216310520052314992e-02,-1.154511515149856359e-02,6.569202308645744059e-02,-3.155948855983942147e-02,-3.328150125670177595e-02,7.273157074514852161e-02,1.569398598310614568e-02,4.620838921185658338e-02,-6.604020054818927898e-02,-8.290386319818118799e-02,-1.647835052290818865e-03,-2.881492870510294485e-02,-4.085625361460303029e-02,1.337724312626688977e-02,2.918320708293404425e-02,9.246238062900075105e-02,-8.638246192439934246e-02,1.592082834075888575e-01,-1.695723356151713698e-02,5.576080907816055587e-04,-9.102087979388887029e-02,1.973843397589310766e-01,1.429670821935654645e-01,1.152676396166799899e-01,-1.726434180548911540e-02,-1.054263117181851407e-03,-8.399458274643636230e-03,2.028793990783956704e-03,-5.100411183835151796e-02,-1.007511395825115563e-02,2.935923484454202800e-02,-2.441619566924081372e-03,-1.307132501101794140e-04,6.622574712102032024e-02,2.939440835454791914e-03,4.537291046700329261e-02,-2.746546496997084429e-03,-5.969445166260402020e-05,3.528450610863926445e-02,-3.066305731307814725e-02,-3.006055946676235158e-02,-3.365794346358366024e-02,-1.461252151868846182e-02,-4.280984252069364865e-02,1.160043675183257753e-02,9.836415007456945914e-03,4.579245293679701928e-02,-1.518986115861270352e-02,5.052408407097976756e-02,1.097259736869844599e-01,7.602654150644541642e-02,1.468636658787252358e-01,-2.880161262987273110e-02,-3.504219804642854513e-02,-4.684009278096773476e-02,-3.721971917673414648e-02,8.840748222689544245e-02
-1.056180796416508055e-01,5.284046800454272885e-01,-9.144418364423746726e-02,-2.366079103114478860e-02,-4.097332951880728463e-02,1.177025212980303132e-02,-6.218472245255502601e-02,-9.254123173544430425e-02,2.407574176654451309e-02,-1.896057700424802483e-02,7.677081032376545551e-03,-5.043946535546441068e-02,-1.972420728947257493e-02,-6.579177141500403003e-02,8.803762622567469498e-02,-1.520997523520350656e-02,5.769004785012882275e-02,-7.496441729454060565e-02,-3.576466187278150022e-01,-6.041447471122659424e-02,1.237099407091225844e-02,-8.681550679231349321e-02,1.318575436178835714e-02,1.058453431409404552e-02,5.048930428104388135e-02,2.273528810367377376e-02,2.061163216129342085e-02,2.880410542978417351e-02,3.542277703269151867e-02,1.191990183688911992e-01,-2.955360148123465508e-02,-1.812468398449915835e-02,6.444951259065188898e-02,6.045626033014352141e-02,-5.718803184152101982e-02,2.060178052410016336e-01,4.597765713226253936e-02,-5.631781789067879379e-02,-5.147638223753987774e-02,-4.679230738567627390e-02,-1.332880870416183750e-01,4.069305877054591597e-02,-3.924092677691875392e-02,-5.661581431064569014e-02,-3.010804300014531532e-02,-1.270446276557133866e-02,-8.051204281972063059e-04,7.493885207829750761e-02,-1.641543373748919829e-02,-4.385590649437354910e-02,-7.074346923490752725e-02,-1.722107137088200318e-02,3.890971287671121659e-02,-3.004660894042790464e-02,6.847361031504944906e-02,7.076111065075762867e-03,3.701898027220541093e-02,-5.117777067675877145e-02,-3.820663876206763926e-02,-2.506724835295862444e-02,-1.366623512052789029e-02,4.647676338250141675e-02,-8.398230663993022649e-02,2.358037775621076582e-01,-3.834789368730646963e-02,-6.519917418200682491e-02,-5.364146938018913430e-02,-3.337462187946555608e-02,3.080948655810546166e-02,6.182141783628512799e-02,5.458816728301880972e-02,-2.012285183881389397e-02,2.458678905939392506e-02,1.917594829068567167e-02,-5.356548760231800294e-02,2.250188442311932407e-02,8.602602318878761062e-03,3.133267923025269408e-02,-1.383072158043136164e-02,7.223998990251149013e-03,-2.606198081333595956e-02,1.407970113391012433e-02,-7.329423507050787656e-02,-3.533210282022125615e-02,-3.269878494648519041e-02,-3.947194748845768431e-02,-8.492936872235559709e-02,-5.173517936245771581e-02,-3.297395149990073326e-02,-5.122478245145422812e-03,-5.176671021100582963e-03,9.547157747766581853e-03,-4.590453581010461165e-02,3.173317531595289120e-02,3.926821174085351474e-02,-5.484276791166328019e-02,-4.515342604557625455e-02,2.904213735343661937e-02,-3.276172306645017823e-02,-3.034831546038028668e-02,2.206077132248515649e-02,-4.788860889957651662e-02,4.388044791032249398e-02,1.592905478798465127e-02,-1.115879488870109709e-01,2.140345223640837402e-01,-9.084763748138203338e-03,-7.146931438284302718e-02,-1.564222050484862306e-02,-4.653936598654118822e-02,-1.807054195908292318e-02,4.993548832100276049e-04,5.762615277849444419e-03,-4.893900138385770364e-03,-2.859213114871601152e-02,-3.945979278308690136e-02,-7.456469731378653765e-02,5.408672564909693115e-02,-1.033450597101901597e-02,1.719290737923242773e-01,-1.492434793515152458e-01,6.461865014740697521e-01,4.608367986647181336e-02,6.608723197770133284e-02,1.288865198304058879e-01,3.953071617093920076e-02,-7.981274596088583362e-02,5.181123134039449657e-02,5.998450512868361284e-02,9.328011706925903868e-02,2.489680160290441008e-02,3.543415920200410074e-02,-1.017775728045422490e-02,2.390404700645858138e-02,-3.650942635835322664e-02,-3.100506797847631807e-02,-3.680583278013974807e-02,1.480687224287112295e-02,-1.576671696383531024e-02,-4.755293078425710390e-02,4.879144016764506639e-03,1.860670399906809089e-02,-1.251891378645506557e-02,-6.189237884013672197e-02,-2.269449794211885613e-02,6.434017866287899956e-02,-1.692598370123424983e-02,5.243931461489618334e-02,-1.308853038304836069e-01,-6.074418806522303982e-02,2.249392871327223486e-01,-4.953227281289945133e-02,-5.036390709100259377e-02,-1.462092665010991666e-01,6.386792857133337387e-02,3.721494285660454510e-02
1.766352984701020598e-04,-3.216995567122131749e-01,2.037056256382994701e-01,3.222170016299422818e-02,-2.092439205029920229e-02,-3.676434129454939082e-02,-1.365122804806038481e-01,1.864821918178806784e-02,1.167826313483731199e-01,-4.210994527932129458e-03,-1.145874938941238153e-02,-7.246733621245710077e-02,7.759352832194654943e-03,2.724860114321002100e-02,6.677078132092503955e-03,-8.276951329203415669e-03,5.999554461610680928e-02,2.625042699173691513e-02,7.679925258272368715e-02,-2.325204414076755682e-02,9.706634616470236065e-02,1.135963962498206560e-02,-5.136881584487332231e-02,2.035639023488022403e-03,-3.926177024915791097e-03,-3.782508159273220011e-02,-3.993701779914227146e-02,4.642240184338321252e-02,8.092172959798397958e-02,7.230179992450246063e-02,-5.998414950411912454e-04,6.533210224096210050e-02,1.041577305789201241e-01,2.249216480792397971e-02,6.506549880722641011e-02,-4.242132884070589638e-01,3.471991191909276075e-01,-6.196677331595418052e-03,1.172763299854631819e-01,6.079135557607729529e-02,-6.825208282446956765e-02,1.098882455694541460e-01,6.131410670349946024e-02,1.002669103835708286e-01,-8.588236328070313064e-02,9.895240519445962224e-02,7.530296034944264361e-02,3.719287507209532301e-02,3.888401205134613819e-02,1.172511284594293102e-01,1.354223206558802413e-02,-2.665839341631512024e-02,7.098832968955429146e-02,-6.728424609334052175e-02,5.545212486097089721e-02,1.916583221753816874e-02,-1.600594812215452986e-04,1.112999089497988120e-01,1.072502460613810465e-01,1.837570198072538061e-02,5.780272732982805889e-02,6.968277753587057144e-02,4.414492765267442886e-02,-3.005824404719579235e-01,3.281985054985007699e-01,3.923473605518205953e-02,-3.700702756698320828e-02,-1.468298486025541860e-02,5.993877861342322699e-02,4.206178043181577064e-02,5.300338721789249474e-02,-3.641900149152076799e-02,7.984965280035670465e-02,3.784556388549348283e-02,-6.244892515788691423e-02,1.719110097067580098e-02,4.804393756228693413e-02,-4.906614076828331311e-02,-1.251156451238521206e-01,5.142466456467013197e-02,-2.609411020201312867e-02,3.544996417375295694e-02,5.752875767417938574e-02,-8.786903966828719936e-04,8.028444552681492097e-02,5.756010681365790471e-02,6.351862925761429801e-02,1.613917590496213514e-02,1.511358826277751574e-02,2.035547623690700178e-02,3.286241210987250858e-04,-3.762246442273490393e-02,4.949509561742046482e-02,1.623183691734215311e-02,5.721051528805785880e-02,-1.988995893666921193e-03,3.859838426418480545e-02,1.275495523700543622e-02,1.163223035471731490e-02,-9.456285977346626237e-02,1.185633581485577397e-02,2.537767588264585109e-02,5.734967943729400719e-02,-1.669663852819815858e-02,-5.673017294723073367e-02,-4.747964069929564990e-01,3.574979000899769499e-01,-1.799835242626567078e-02,-4.148955168575384211e-02,1.019827205635272065e-02,3.813369100659477068e-02,-2.757307942065686385e-02,4.851286647534060886e-02,5.152330659287814030e-02,8.855373961195729671e-02,8.587686811693883522e-04,7.133311749947685021e-02,-2.546993728808068236e-02,-1.442463458601639902e-02,1.569768654350358061e-01,-2.830821130811746536e-02,-5.410117821798295923e-01,6.647557626221307636e-01,8.482743479695173949e-01,4.357952868382391487e-01,-3.281738539419212786e-02,1.608802219301786601e-02,-8.112044199591817578e-03,8.766718908803074195e-02,5.984071856738551465e-02,-1.475433328916279235e-02,6.146439806064655370e-02,6.294106328732752831e-02,2.955040097839591821e-03,5.883823175301319125e-02,2.208332825911023950e-02,1.096021354342716497e-01,3.548041439692350280e-02,8.760619693049197243e-02,8.286367448694201276e-02,4.472905202058895940e-02,-1.296806868644611102e-02,7.946029778480462324e-02,7.172687701147151262e-02,6.652169940487644151e-02,-4.265313038383550248e-02,4.418746581575095506e-02,6.752866107183529143e-02,3.867832369933481979e-02,6.070282921205095994e-02,1.060903632255034701e-01,5.985095639906026777e-02,6.213709137660081844e-02,2.992800265537988794e-02,3.739014510688382087e-02,3.570628387905268319e-02
9.110428700672598690e-02,-2.023935360551388229e-01,5.248557559177898478e-03,1.139344838262608683e-01,-3.289126606545048764e-02,4.011350581360607903e-02,-3.534857272769306724e-02,-5.499336250508127244e-02,-3.459459851838057355e-03,-6.985661886812674637e-02,-6.121692154392894929e-03,-1.349938612563292006e-01,-4.992015566106536989e-02,-3.216820951793526034e-02,5.115901931079226000e-02,-2.406192532155355945e-02,1.078137234456239824e-01,-4.568199220861977883e-02,2.236647070607548221e-02,1.836699957660870713e-02,5.209165872403977854e-02,-4.604509988934048920e-02,-3.609184153107276166e-02,2.054743183265553275e-02,-3.191792229123653624e-02,2.056778696340208837e-02,2.377674840106837328e-02,1.164925940278827704e-01,5.902889056765111414e-02,2.402370726676977819e-02,-4.020707923048502663e-02,4.226339078654409165e-02,-4.230633058718830108e-02,-3.323076756477933574e-02,5.129955307871281178e-02,-2.195981177125336803e-01,-2.224661164193287022e-01,2.884726655468277112e-01,2.513187959876931124e-02,-6.164170197279260355e-02,-3.560487500082731935e-03,1.088879239860486431e-01,1.370927139614075418e-02,-2.779173474591597678e-02,-2.756760955814690703e-02,-4.009461839234411407e-02,-7.687414350054107282e-02,4.362921692370378551e-02,4.036972098859283042e-02,-4.331162642593126832e-02,1.865577582742275822e-02,-6.561290273734345958e-03,-2.136177682813920897e-02,-3.000650808998594696e-02,5.128383603616629149e-02,-3.883733153131738863e-02,-2.802210310805304874e-02,-1.055097718969890026e-02,3.271720636395316489e-02,-2.640043511224939368e-02,4.224472101173887273e-02,6.679877134429620944e-02,7.015429004752631037e-02,-2.048658698184562532e-01,-8.981681515944413274e-02,2.389842225095687722e-01,-3.532166428884723347e-02,-1.190555557695360811e-01,5.309608676362207597e-02,-5.663870204983811711e-03,7.708899557441183104e-02,-6.548381609038804452e-02,-2.385905379690483885e-02,2.504939892055085132e-02,-8.753745939289589439e-02,7.473979413179231146e-02,8.541869834985543752e-02,1.000237107032326267e-01,8.591690375160151993e-03,4.624914658102634302e-02,-2.454693270037701727e-02,1.335712256457980557e-02,-5.386713952280588373e-04,-7.362499597534707951e-02,-2.473796080067618228e-03,-5.726377305760805073e-03,-2.722267822802223493e-03,-5.862842857508795968e-02,-4.758396101394465894e-02,-4.679388920890272668e-02,-3.179887055265152168e-02,-2.045661574487663004e-02,-2.863950585687021974e-02,-3.864516721829021340e-02,9.532282248569723393e-02,-3.126784783459169575e-03,-3.803473594903938187e-02,-1.776418835722928008e-05,4.273781828792957982e-02,-1.566611310010362912e-01,-8.893545891135564091e-04,-1.130589680458327605e-02,-5.967581643952709486e-02,-2.608671809135803621e-04,2.288780860771749345e-02,-2.370536919430588918e-01,-1.934727658920641635e-02,1.533568292248138343e-01,5.283020809599695000e-02,4.852748240629016496e-02,7.888711849584488511e-02,-4.263467592638308518e-02,-5.584162970359580168e-03,9.574633292821701711e-03,9.144109011947031129e-03,-3.432094099213325866e-02,4.335446697954400963e-02,-2.897680190099801573e-02,2.388598941232701264e-02,4.542691216845215485e-02,-6.508465141148714328e-02,-3.281926764062586543e-01,-4.446096054579832396e-02,1.137733673827641567e+00,3.962757652966336641e-01,-1.523337097172890869e-02,-3.348806256228340633e-02,1.054684579423904693e-02,1.297894004347356980e-02,8.268811361299983897e-02,4.782697394701926341e-02,2.639001157358311991e-02,2.346628453181689999e-02,-5.272393563118434913e-03,1.009133724651436331e-01,4.207120491068382095e-02,3.813739235823387919e-02,2.842169210607495625e-02,7.976852487522599622e-02,1.075152988776478455e-02,-2.001036557466129642e-02,-7.437950650545701106e-03,1.157570317291054390e-01,3.385734751947609006e-02,1.171878265669805408e-02,2.120350511418791703e-02,-1.957499643166816725e-02,1.158748722207274123e-01,1.762824266919068086e-02,8.004351813759150169e-02,4.160346573330150205e-02,1.607720960085258777e-01,5.876656512055029175e-02,1.346645363803182505e-02,-6.335411332455878619e-02,7.400187371104409439e-02
-6.204719070552856125e-03,6.750940641258700026e-02,-6.922557509718020585e-02,2.737144775087546056e-01,-1.044831327419346312e-01,9.545792488048950031e-02,-7.535478422305710855e-02,-1.093696254836832721e-01,2.582681854138664176e-02,-1.770923730613575553e-01,4.081095620496487386e-02,2.863290078947433592e-02,-6.753133647510124737e-02,1.904465978118471958e-02,1.587293398688429114e-01,5.722016218256417187e-03,-1.491252914249435735e-02,6.317927156414046737e-03,-8.055193245059598384e-02,-1.362530713714314029e-02,-1.041568668990132535e-01,-1.386298022014383624e-01,-4.695519306998752196e-02,-6.837115859067610657e-02,1.315818621629240119e-02,-1.315319708979501012e-01,3.367142992184206374e-02,1.140339935659633458e-01,2.629686658595637438e-01,4.236043918706230982e-02,9.720953315718260102e-02,2.604775747948188946e-02,-1.100619698669538793e-01,-3.142194460469867334e-02,3.112224019239751352e-02,3.925374407828504178e-03,-2.380033933259829287e-02,4.096862543862563322e-01,3.157219795463087064e-02,-1.355325978630298744e-01,5.975099880101413657e-02,8.754369137916305499e-02,-1.280958427262127164e-02,-4.094952224284518702e-03,-1.355915981775370968e-02,-8.969460538412546424e-02,-6.891112302799434416e-03,8.461379837278044935e-02,3.212915090284246006e-03,-3.907993587206649161e-02,2.402528430955611083e-02,-4.824733985667995634e-02,-1.939290510786090618e-02,7.017005977180268764e-03,1.898517441035716888e-02,-2.212620703194754720e-02,8.384243237449797229e-03,1.658824471834520128e-02,9.087371425200672925e-02,8.052045570378817130e-02,4.395477395933620329e-02,7.005352529217938329e-02,8.136877599216407742e-02,-5.667599761921718327e-02,1.521858911604414243e-02,3.528361711635510378e-01,8.732238199898063880e-02,-6.457006747643044553e-02,8.750113348963770021e-02,-1.888027906111656301e-02,7.698235572280930084e-02,-8.182019352632291520e-02,5.520489686038686922e-02,-4.775346756707302132e-02,-1.249357260563058181e-02,1.076350014508761638e-01,1.485513010681703550e-01,1.671625165249865652e-01,7.879560326313463092e-02,1.010809499751264516e-02,1.010315234714732335e-01,1.082145586811999322e-01,-2.821273809453226158e-02,-2.762662132325375067e-02,-3.914557340291133225e-02,5.944710082460645528e-02,3.522937486888012837e-03,-8.995059306927893905e-02,4.396929995076873099e-02,4.551469179262315062e-02,1.115384294658294112e-01,8.821197082119573707e-02,4.526713821039245189e-02,-2.993096905195769680e-02,6.337768446180143400e-02,-1.073238341107741241e-03,5.802121694433656773e-02,-3.132637420625374990e-03,7.940090492276233314e-02,-3.585899290874844381e-02,3.184743721650620807e-02,-1.482310804431978372e-02,2.835006209656591378e-02,2.431097874253614760e-02,5.137915558923702303e-02,-8.777837391979881332e-02,7.742593998828331547e-02,1.055800883094588777e-01,1.514272437634322718e-02,2.399261878139680171e-02,6.873294821799651177e-02,9.815384998562935379e-03,3.746270818659814400e-02,1.077661084473950232e-01,7.872062647928564083e-02,5.175410932238369566e-02,6.841751295062702132e-02,1.309573015791928342e-02,8.587991127900967969e-02,4.491507509499198525e-02,2.290215381088520769e-02,-1.037352972203143681e-01,1.139462409377151736e-01,-1.662952587263542836e-01,8.138582494510152587e-01,1.063033760063431254e-01,6.556346609437069262e-02,7.990913511771970124e-02,1.911538936854954296e-01,-3.604152052320162142e-02,7.410553109366777025e-02,3.577457527124398157e-02,1.028920859638675772e-01,1.198293146871780025e-04,1.728649837176224613e-01,1.240667188665190851e-01,7.486427773202697367e-02,3.217989940819519779e-02,1.783100748972069882e-01,5.186023940152674483e-02,3.728210881952734312e-02,6.735647338185486721e-02,1.945520263266846406e-01,9.118592119335891533e-02,1.844517341988336639e-02,-1.364582506274557988e-02,2.852519879352513957e-02,6.732629388817323868e-02,1.151809829976309651e-01,1.602897451652761374e-01,7.538211706494314657e-02,5.995651627768155273e-02,4.535345882316355048e-02,4.796892078081632822e-03,-5.817783337174650161e-03,1.078827866878624697e-01
4.958358417197175627e-03,1.084984124156118147e-02,-7.475660229190164751e-04,-1.413407943610070147e-02,-2.108133894288927949e-03,-6.744115267593726003e-03,3.475102572052544969e-02,1.765774438908557578e-02,2.825027699998682376e-02,-2.716758702820222526e-02,-3.112042217339980321e-02,-7.396121189777091209e-02,-1.894808494426703308e-02,-8.963816399596225004e-02,6.303877581916386003e-03,-6.305574609099508232e-02,-4.207784730473258794e-02,2.763871082923056652e-03,1.455012737869273154e-01,-1.103827470372902193e-02,-1.873079282351285124e-02,1.229134811822171769e-03,-6.544027506463973021e-02,-2.009543958823252138e-02,1.150118752745983922e-02,2.659411610097415016e-02,-7.582118354249768599e-02,-1.455545233165721208e-02,-2.405020358135794706e-02,7.686214089476985090e-02,1.111682398791815143e-02,-1.346142636645066698e-02,5.884912485911082160e-03,4.585895250212020102e-02,-5.731295430986434875e-02,-7.011944259314457917e-02,-1.311975199992169256e-03,-8.468311111125575996e-02,-6.780289230590118288e-02,3.932209651611529022e-02,-6.851658583913991518e-02,5.572763681079083431e-02,-1.294588663005568317e-02,-8.914184231352571342e-04,6.530928940805406924e-02,-3.655372576438667420e-02,-2.526158878356020085e-02,1.190439963050411859e-01,6.401021022659668380e-02,1.236559235165986398e-01,6.731513661061984399e-02,2.847358748075344646e-03,1.732720228386807823e-02,2.955188167771903227e-02,2.253314676469897471e-01,1.799667494970478010e-01,1.412427382658991946e-02,1.787768402546997815e-02,-4.360673786412529174e-02,5.642222008701953950e-02,5.270115074820423684e-02,6.913975080291606679e-02,-2.648943960801270273e-02,-1.963051464317409900e-02,-7.699817711237694207e-02,-3.645288779840076543e-02,-6.448763913959830452e-02,2.610723603872097632e-04,5.747295640428101531e-03,-1.742157130214104857e-02,-1.585637370745841129e-02,-4.878909747864813851e-02,1.409827458042109925e-02,-4.542205558237024515e-02,3.841672995936512569e-02,1.445458894925701239e-02,-2.930056504688844429e-03,4.044003847348355551e-02,5.865603369679598181e-03,-2.123339052242763023e-02,-5.822203013277672118e-02,-2.257190890938098535e-02,-2.012272509191046638e-02,1.310576851188102396e-02,-8.624378612246567932e-02,2.420113236465946602e-02,2.482742117193335873e-02,-5.383147953532605584e-02,-9.908685453863497541e-03,-3.438205949641830877e-02,-5.529411771073123455e-03,9.007333096774526506e-04,-5.968537427935771342e-03,8.505609775254519347e-03,-1.652701783777279707e-02,-3.536158614995536104e-02,-5.285082378814944665e-03,-2.990701015711698732e-02,3.364662576724800763e-02,-1.780842043413282186e-02,1.331011857411271322e-02,-3.807130370026038518e-02,6.726351453620020571e-02,5.944877278024196651e-04,-3.187286207681933742e-02,6.798568719651830808e-03,-4.799356151088294414e-02,1.523850255570690856e-02,-6.243810718239531377e-02,-1.801591444577669773e-02,-1.092181148088726406e-02,7.310464926413928755e-02,1.958978280729934546e-02,2.377533584842754857e-02,3.625699549978362440e-02,-3.794743385713929273e-02,-5.836683480347779410e-03,-3.928621979722331237e-03,-4.022067558581086250e-02,-2.142947298117015564e-01,-1.434944694096660202e-03,9.013908404059940704e-02,8.801081896465387522e-02,3.082225966892435803e-02,-1.022336493543663516e-01,1.371457758439512398e-01,6.963698049809705082e-02,6.998247569636755205e-01,3.380356701469229286e-01,-2.652689780980730383e-01,-3.130102410194923052e-02,2.140719468847716855e-02,7.711643373897049403e-02,-2.887045921528675133e-02,2.147442621678651714e-02,-1.206236790604158123e-02,1.168905847212405452e-01,3.769046979746528553e-02,8.756346384611311817e-02,-1.277541251186429527e-01,-9.318071622895258976e-02,-7.111109957343097164e-03,-7.732336382648673234e-02,-3.458305228078885352e-02,-7.140436535050746769e-02,6.467962181881634076e-02,2.743548843569311099e-02,-4.444937744345171804e-02,-3.021535537503522995e-01,-1.178486520699179724e-01,6.505746089415029298e-02,4.939263778001714428e-02,-3.478317912094340547e-02,-3.352735724845451459e-02,-3.248101328052263592e-02,-1.481438414138037951e-01
-9.565318048478710367e-03,-5.920084649556557610e-02,-1.390425887314163111e-01,1.363833219193020391e-02,-2.676691066718626250e-02,2.759797749205782080e-02,-7.074622304926246608e-02,-2.090824438924356737e-02,3.640234858825486947e-02,-3.874891689596249300e-02,-1.357894319552882187e-02,-3.898875896416439946e-02,-2.446547959288056587e-02,-2.652345422201913758e-02,7.261671675772929727e-03,-2.377031800230727451e-02,-9.530785652074377085e-03,6.160828274781825903e-02,1.627735052868000409e-01,5.042795211991008691e-02,2.000579435061614064e-03,-2.863747729714003279e-02,-4.443770265262925873e-02,-5.312173513508094275e-02,6.075705453450358680e-03,9.251591956517174475e-03,-1.486634477131242027e-01,-5.897815339626285040e-04,-9.819968052728233338e-03,1.063449801562942887e-01,3.541875823869490569e-02,1.291055718281419740e-02,-2.574924394569733793e-03,2.125753189102390708e-02,-6.945418296942256452e-03,1.201640563679348683e-02,9.937814750960281482e-03,9.951500103349859849e-02,8.514521391264444350e-02,-1.124760320843714717e-01,-4.485280948322655642e-02,2.644853753429692728e-02,4.921570089743255300e-02,-3.808077460956514615e-02,1.219562708193452638e-01,-1.088407716884503586e-02,-4.002350540616306934e-02,8.815265857280504824e-02,3.732937209832292574e-02,1.775757482020588474e-01,1.644839586456215558e-02,1.063974544447861686e-01,-1.866940837329338423e-02,9.695044154383558599e-02,-1.837823904973007183e-01,1.214106621326008772e+00,-8.786920180311997251e-04,5.562150211768249197e-02,-3.943250695774121184e-02,6.560209253896581716e-03,2.824411005326507920e-02,2.517830743330852147e-02,-4.250170164389861782e-02,3.880817616660005992e-02,-1.895869731868206343e-02,7.422962142457474599e-02,2.951620378204224820e-02,3.419413017884989116e-03,2.885823670053987502e-02,3.951036479405518886e-02,3.182604532869054426e-02,-5.492925329736170204e-02,2.449259611547303928e-02,2.696575473213564181e-02,2.955041808721585450e-02,4.960834078323037716e-02,1.927245581805931557e-02,3.834661930552378268e-03,1.471957722561006640e-02,-2.064727552039497677e-02,2.330122628091779724e-02,3.072962738620624648e-02,-8.356163842139045783e-03,5.431234754486018168e-02,-3.849554156625456525e-02,-4.977041420886819251e-02,-1.346398719204410128e-02,-8.580197675743285457e-04,1.075618640354791995e-02,8.070402078609277899e-03,3.354061004623004605e-02,-4.491227273691665578e-02,2.052156217612725181e-02,1.101193677837305693e-03,6.280245329354344416e-03,1.128351579688909034e-02,3.047682703622077438e-02,3.379489976700694037e-02,6.309282672413828175e-02,2.392134208054945074e-02,2.166642104775282421e-02,2.663861053959881015e-02,4.429490228814782909e-02,2.539196138142030441e-03,-5.806615026375620825e-02,-5.402422638402639560e-02,2.021726594858187440e-02,-3.179740151326864578e-02,-1.862563562159662636e-02,5.345937166901686827e-02,-6.075403192569797835e-03,3.266606575256837675e-02,9.798653318834718573e-02,-7.879628833912053626e-03,-8.554769568750552125e-03,-1.205251173422605855e-02,-8.051012431017192175e-03,-5.538362342815166678e-02,3.645195326580139700e-02,-1.351917107688403036e-02,-4.324119044060621697e-02,3.260699810480947869e-02,4.100111770846829456e-02,6.150325332505898746e-02,4.512256537963729719e-02,7.974583902244702927e-02,2.101827419487273807e-01,-1.926508339607626019e-01,-1.047342219742205399e-01,-3.255863467827661839e-02,-8.457618557041203175e-03,4.470191478221874522e-03,3.265265424721517512e-02,-4.254884712302971911e-02,6.006634848665351467e-02,-1.766446835895259942e-02,3.583946542942652302e-02,3.537674594936096595e-02,4.478791680631001582e-02,-3.090798219863201413e-02,-9.116864149001707718e-02,-4.617707060944822167e-02,-8.076886325224892638e-02,-2.497739245219183363e-02,-8.641999683186794845e-02,-1.380285910079417228e-02,-5.905507047828752187e-02,-3.246099756626472099e-02,-1.537541718756399722e-01,-4.974669764918705772e-02,-8.109458495567202496e-02,1.581657472048073332e-01,2.241015110554320580e-02,-4.602667727629227573e-02,-2.044632557687580884e-02,-6.806907591386870959e-02
-2.277694221016708653e-02,-4.501923429922026487e-02,-3.993955284002932010e-02,2.882650028454864302e-02,1.128988621987866113e-02,-2.847672600274328905e-02,1.310110428085766929e-02,3.498534097589801883e-02,2.046652518117694081e-02,3.683807990061085946e-02,1.230970425648134949e-02,3.166874674079014906e-02,-1.523972486778997319e-02,1.839354327951526341e-02,1.280431757069383503e-02,-1.131352388459565088e-02,2.207832676291391835e-02,4.962012399215019742e-02,6.728845771786600566e-03,6.261695704717675122e-03,-1.482120817566602751e-02,-1.900359180404907061e-02,1.786363560252919938e-02,4.671814524715525718e-02,1.114286114307923813e-02,6.509852700448189033e-03,4.047371932891767436e-03,4.569208692538265226e-02,1.501035927702553535e-02,1.042232387364016959e-02,4.742390688894090878e-02,6.439496980443636283e-03,-3.755114994014439184e-02,2.806661709456180487e-02,-1.764349729053815707e-02,1.027781300233867115e-02,8.849485812362892917e-03,1.506661512069989127e-03,6.218376625260872877e-03,-1.084960075125063345e-01,5.508596920180491158e-02,5.271522146755558934e-03,1.125483831528053570e-02,2.721412044067783587e-03,4.177302635959362354e-02,-3.692482924029862751e-02,-1.567657791582302909e-02,1.515322064429762139e-01,3.773819810474544900e-02,4.520568613183471168e-02,1.422400734718091975e-01,-1.154222003429263531e-02,4.068424843238885313e-02,5.696278733015335688e-02,1.170182334712034089e-01,3.406970859204261348e-02,3.563728380777048729e-03,6.187332625737798630e-03,1.322871922939198620e-02,4.220664251895826086e-02,7.192162412674196759e-02,6.113791381946084846e-02,5.529650089626702431e-02,-3.101517547005767234e-02,4.137776308828387123e-02,1.869437901521712325e-02,9.126663239817671414e-02,-6.672019139673304733e-02,1.452460014745031447e-01,-1.616854709463974929e-02,1.028124364038685533e-02,1.661179740172389349e-03,1.039106654126788036e-02,5.033057587553100426e-03,-2.602727023926419692e-02,8.147900383750782474e-03,4.369782867644547014e-02,1.716212128674345777e-02,1.681668183747607069e-03,3.155841991021084841e-02,3.654451411597401528e-02,3.020620485963374652e-02,1.035264589898279332e-02,2.647911806593771997e-02,-5.115183454895060565e-03,4.772206728310070950e-02,2.810779481561824500e-02,6.649778775353546410e-03,-4.310613888487691697e-02,7.532500646521135546e-02,-3.040522887598931870e-02,-5.659392052224672398e-02,-5.654979804051526310e-02,-6.906474673514401141e-02,-1.557039092577687522e-02,-2.893705051570601410e-03,4.688827126566200154e-02,-3.847067633458878255e-02,-7.835169129586611741e-03,-2.618449238284561997e-02,2.062824280677038116e-02,5.235560709839209848e-02,-4.632837653117896463e-03,-2.724302848484817796e-02,1.491043848135795678e-02,-8.547042019466115706e-03,4.745039918014459790e-02,3.013314373198562254e-02,1.177270394315659864e-02,4.858313909620465970e-02,3.148505601663631904e-03,4.288926690445008655e-02,1.938654804771076934e-02,2.684300506548342041e-03,1.187179643072620340e-02,1.965526951713984522e-03,3.214068848610319995e-02,-4.329384013667204878e-02,4.537592199563693363e-02,2.250390581430234960e-01,4.100279713415463240e-02,2.299328817916688333e-02,-1.283529762938880915e-02,2.124117210979001302e-02,4.087321769162333140e-02,4.889503760735136595e-02,5.585232161991738470e-02,8.716342227449527802e-02,2.147017655951451998e-01,1.115200648797261551e-01,3.729375040637073618e-02,-5.453386191100242225e-02,1.112891660725587317e-01,1.902454920981228384e-02,4.279743147550945509e-02,7.389218065218783327e-02,1.441273330112771700e-01,5.429784426796926966e-02,-3.993321501326962779e-03,-5.298020003345635387e-02,-1.312069683517894936e-01,-5.599396334030879580e-02,-3.917346657345693872e-02,-3.333835693232098385e-02,2.545771452453657931e-03,-2.991704333275410979e-02,-9.128570867434031635e-03,-3.211214732968410007e-02,5.411297280015110039e-02,1.581697716397104797e-02,-8.188596366482181477e-02,-4.565384726772942631e-02,2.436612172902413026e-02,-1.542731462135911967e-02,-1.813391030517834748e-02,3.464175795094642796e-02
-1.992102986553161148e-02,-7.435050930391991220e-02,-8.456982637572264816e-02,-4.296248741054218417e-02,3.320880797349595650e-03,4.655202941172614794e-02,-8.423700282527445127e-02,-1.392013927153530096e-02,2.809206894120822376e-02,-3.762806188076784492e-02,1.216460972202888444e-02,-9.996129314410609826e-03,-4.990733184157841729e-02,-3.452772242278462356e-02,2.122617536362756199e-02,-1.616490916251392754e-02,7.775286365667105626e-02,7.475646077236949329e-03,-4.866505223012127131e-03,9.171067195800217120e-02,2.800384401416997765e-02,-3.993779144758699551e-02,2.426200360182231147e-02,-1.814742938771940484e-02,6.289419987360558850e-03,-3.072824893488637632e-02,7.948744748450342623e-02,-1.249488398595874697e-02,-2.557927411814430937e-02,1.362622839586302183e-02,2.055151805068900286e-03,-2.528400028556995055e-02,9.070228838432634055e-02,5.593333565212236375e-02,-1.681848979603661060e-02,-3.237576120003102936e-02,-4.644508531316476896e-02,1.740422952507837337e-02,6.162753467421048376e-02,-5.580232063723954139e-02,7.009870696194358750e-03,-2.606658772662230270e-02,8.635603860438965246e-03,-4.314771794271057143e-02,-5.031912930148899066e-02,-1.821527692255328276e-02,-1.575695042305489887e-02,-1.307362513314597185e-01,-7.025291853086401694e-02,-4.135878125509428321e-02,-4.939350339046656713e-02,-6.934987919644067245e-02,1.352721325559230192e-01,1.180351974389624442e-01,6.827416874535716107e-02,2.913600429405134307e-01,3.825177605457531771e-02,-2.190042772403853755e-02,1.921016798152776943e-03,-4.204873372233970674e-02,-2.928853376746965581e-02,-9.707277203238035002e-02,1.287250891617884758e-02,-3.993147236314667503e-02,-4.793514288140569846e-02,-5.730335987714303692e-02,-2.778680305267036688e-02,-7.782804695342343537e-02,-9.059834983589659663e-02,-8.166254237900413826e-02,-3.862935395775015691e-03,5.569619424798551155e-02,-2.685314878631470115e-02,-2.579942695686203435e-02,-5.150137806972784893e-02,4.754458759388865280e-02,1.897948297396751666e-02,6.637553020745225012e-03,1.687859467637942493e-02,-1.228198684900003862e-02,-1.651308938806314922e-02,-4.915314778984850724e-02,2.274729671683247204e-02,3.001655932231122800e-02,2.850269768740485571e-02,-4.240113006962548808e-02,-1.494303835658039939e-02,-2.135995087752014764e-03,6.271559139907226244e-02,-1.093899588752884761e-01,-7.421077235702101815e-02,1.975891344890415985e-02,-3.200389197474787228e-02,-2.649298895472248019e-02,1.750171346773499864e-02,1.835149736600436357e-02,-3.035052435593535783e-02,-1.227860613939516475e-02,2.664807480567995754e-02,2.095584921203413886e-02,-1.436076051705016329e-02,1.135161774516721227e-02,6.700178896514046023e-02,6.068979685362062282e-02,-1.788978390822852302e-02,2.040509055837990294e-03,-1.207232528798566663e-02,-1.490156341729156030e-02,1.907967852409190104e-03,2.970088902737240411e-02,3.700938624539565000e-03,-5.342788689789940842e-02,2.700527252704344305e-03,-6.046163213314826972e-03,-2.233519329779910453e-02,-6.642948758083893485e-03,-1.360346988156181831e-02,7.160969421500326670e-02,-8.629935442110983276e-03,7.091450863504754343e-02,7.778736561032602824e-03,-1.060073379265304844e-01,-3.816547637800167536e-02,-1.428863201347721837e-02,-5.863726788706855042e-02,5.330548818675872463e-02,-8.036584642047436833e-02,2.929440368908439729e-01,1.859253393853000369e-01,9.093011405798878677e-01,7.075772659889885408e-02,-5.215811175786337628e-02,-1.045945373903799519e-01,-4.810981645090220415e-02,-9.004635147137503293e-02,-6.278168785353041570e-02,1.345192947926213481e-02,7.451214283602400346e-02,-4.383097892847863386e-02,5.330739401332890148e-02,9.449539941123222264e-02,1.169324433730063381e-02,2.051359590990605927e-02,-3.938117468668208415e-02,8.294861291872573927e-02,7.574837882691373703e-02,3.645581988415196040e-02,4.334563760209401290e-02,5.450108569537765596e-02,-2.754163030930622744e-02,2.465161986112009151e-01,-6.068517974152771999e-02,6.019382107410171240e-02,7.580684837356413408e-02,9.862725291179413878e-02,5.888304026826789855e-02
